sequential/lstm/kernel:0/n(5, 320)/n[[ 0.05924247  0.00655464  0.09585315 ...  0.11491463 -0.11910616
  -0.12194953]
 [ 0.0591788  -0.02381765 -0.08943884 ...  0.23336156 -0.00400508
   0.04317239]
 [ 0.06858536 -0.06321567 -0.05114779 ... -0.01621647  0.08952463
  -0.03165178]
 [-0.04980094  0.01473716  0.14290863 ...  0.10355826 -0.1005917
   0.01337432]
 [-0.09165418  0.10716984 -0.07815363 ...  0.12751287 -0.11598681
  -0.10510259]]/nsequential/lstm/recurrent_kernel:0/n(80, 320)/n[[-0.06705023 -0.01940038 -0.04152476 ...  0.07685529 -0.00488021
   0.01822623]
 [-0.077486    0.10630436 -0.05883782 ...  0.02240762 -0.03405204
   0.06047004]
 [-0.00292164 -0.05607485 -0.08442952 ...  0.09826542  0.03079392
   0.00144388]
 ...
 [ 0.00942905  0.03607932 -0.02885423 ...  0.13226345 -0.03342977
  -0.09282105]
 [ 0.00357967  0.02357258 -0.06611374 ... -0.00285845 -0.05587278
  -0.06320752]
 [-0.02436941  0.03079448  0.01289209 ...  0.03666147 -0.01291616
  -0.13194068]]/nsequential/lstm/bias:0/n(320,)/n[-2.42885575e-03 -4.68075601e-03  4.79977258e-04  2.04217397e-02
 -2.56232377e-02  1.45031154e-01 -1.22696469e-02 -1.23981647e-02
 -5.87281445e-03  3.13168764e-03 -1.43342547e-03  1.60138354e-01
  7.49923429e-03 -4.40066680e-02  6.88914135e-02 -1.82159059e-02
  3.83410491e-02  5.81629455e-01  4.27524634e-02 -6.27472764e-03
 -1.91766527e-02 -8.16611107e-03  2.38680188e-02  2.03459132e-02
  3.90895754e-02 -1.20367371e-02  3.73762026e-02 -1.34527031e-02
  2.26171012e-03  1.09252229e-01  1.82341322e-01  1.85509939e-02
 -2.23885477e-02 -2.08959379e-03 -1.43960845e-02 -9.37745906e-03
 -4.64283861e-03  6.50847554e-02  1.50743965e-02  4.51060459e-02
  3.02561303e-03 -1.24262888e-02 -2.21555885e-02 -4.99848165e-02
  1.92213412e-02 -1.82268978e-03  8.56207684e-03  2.90629175e-02
 -1.17980568e-02  2.81629339e-03 -3.94721469e-03 -3.01790219e-02
  1.04716541e-02 -1.02493577e-02  2.37800833e-03 -1.56985559e-02
  5.00876270e-03 -1.13759572e-02  7.07825832e-03  8.67875293e-03
 -5.21885324e-03  3.79632227e-04 -3.27716232e-04 -5.34981675e-03
 -1.41912671e-02 -1.10918880e-02 -1.42248403e-02 -3.54387127e-02
 -8.44999123e-03  6.24464713e-02 -2.54049562e-02 -1.48881041e-02
 -6.44439773e-04  1.08273858e-02  2.36652251e-02  3.54365744e-02
  5.57957264e-03  5.16695641e-02  2.21633259e-02  1.96445063e-02
  9.67315257e-01  9.68320429e-01  9.56919670e-01  9.85452890e-01
  9.79311943e-01  8.43538880e-01  9.30941582e-01  9.76057351e-01
  9.65069771e-01  9.81659710e-01  9.89250541e-01  7.98166037e-01
  9.68680620e-01  9.02652025e-01  9.51775253e-01  9.82300282e-01
  9.82457697e-01  7.28117406e-01  9.72112000e-01  9.74699616e-01
  9.79737937e-01  9.87799585e-01  9.99977171e-01  9.75695133e-01
  9.43511665e-01  9.86739933e-01  9.85734701e-01  9.81678784e-01
  8.83755207e-01  8.28792334e-01  8.55089962e-01  9.78828013e-01
  9.57841218e-01  9.62769091e-01  9.74440813e-01  9.76710320e-01
  9.78072584e-01  9.51052427e-01  9.77734685e-01  8.93498659e-01
  9.78747725e-01  9.80886757e-01  9.70818520e-01  9.37072992e-01
  1.00445783e+00  9.75083232e-01  9.78723466e-01  9.27939773e-01
  9.60904956e-01  9.59116280e-01  9.99592602e-01  9.61483121e-01
  9.72497344e-01  9.86869574e-01  9.69349205e-01  9.83509243e-01
  9.90388870e-01  9.75365222e-01  9.77518618e-01  9.75569487e-01
  9.68068779e-01  9.88363445e-01  9.68201220e-01  9.71471131e-01
  9.68802512e-01  9.72211599e-01  9.80375588e-01  9.56282318e-01
  9.88940835e-01  9.13648367e-01  9.74619985e-01  9.09299135e-01
  9.52781975e-01  1.00289023e+00  9.40501392e-01  9.10981596e-01
  9.99029398e-01  8.50151479e-01  9.83219922e-01  1.00272334e+00
  6.26328662e-02  1.42073985e-02 -3.35717127e-02  5.31432703e-02
 -1.89181492e-02  4.35167961e-02  4.06237878e-02  5.30756190e-02
 -2.26811785e-02 -4.08583917e-02  4.37822714e-02 -3.30115892e-02
  4.16159220e-02 -3.40038799e-02 -6.94934726e-02  1.72954760e-02
 -2.99596228e-02  5.66225275e-02  5.63101955e-02 -1.29911036e-03
  3.20767127e-02  1.54351247e-02  4.44829017e-02  4.97706719e-02
  4.34755757e-02 -2.13355795e-02  4.87087741e-02  1.32323978e-02
  2.11157370e-02 -2.70759836e-02  6.26255423e-02  3.15232091e-02
  4.34789211e-02 -5.09316511e-02 -2.42560450e-02  5.24146743e-02
  4.51925173e-02  4.37574424e-02  4.75182943e-02 -2.85693295e-02
 -2.14478020e-02  2.33244002e-02  6.81111962e-02  6.83893682e-03
  1.82189662e-02  4.89922464e-02 -2.77806558e-02  2.82688234e-02
  4.01705429e-02 -2.96294913e-02 -9.42671951e-03 -7.06627360e-03
 -3.08896434e-02  2.25049853e-02  3.65113690e-02 -2.40808055e-02
 -3.83740924e-02  3.58831510e-02  5.94083220e-02 -4.60298248e-02
  5.59323169e-02  2.82520559e-02 -4.23033386e-02  3.33773121e-02
 -3.26760560e-02 -3.62589918e-02  1.86088122e-02 -4.16870601e-02
  1.06463339e-02  4.59168740e-02  2.59217843e-02  3.65863219e-02
  2.55531017e-02  1.55791827e-02 -2.35497560e-02 -4.63221297e-02
  2.74653696e-02  4.84813675e-02  9.46073886e-03  2.01997068e-02
 -5.99688711e-03 -8.11701454e-03 -5.67730609e-03  1.89764835e-02
 -2.46002115e-02  1.37603074e-01 -1.31756729e-02 -1.03096776e-02
 -7.60287652e-03  5.32640424e-03 -9.58590244e-04  1.35965839e-01
  8.21603648e-03 -4.35773581e-02  5.96243143e-02 -1.81397405e-02
  3.86384167e-02  5.68012595e-01  4.14663441e-02 -7.51283346e-03
 -1.78274475e-02 -1.04495035e-02  2.20788382e-02  2.08378453e-02
  4.03207466e-02 -1.19831944e-02  3.69616188e-02 -1.46255093e-02
  3.73546872e-03  1.04137190e-01  1.74121961e-01  1.56260226e-02
 -1.91919617e-02 -7.67703052e-04 -1.67238601e-02 -8.83617997e-03
 -4.50034067e-03  6.06599487e-02  1.58736072e-02  2.71072015e-02
  4.16745897e-03 -1.25975320e-02 -1.76869947e-02 -5.48751578e-02
  2.04311237e-02 -1.46252813e-03  4.73634992e-03  2.34437864e-02
 -9.19505674e-03  5.95666608e-03 -5.23186149e-03 -3.05828676e-02
  1.10435523e-02 -1.06926952e-02  2.10141554e-03 -1.36746159e-02
  6.36413042e-03 -1.13608548e-02  5.97193697e-03  8.15132819e-03
 -4.99261077e-03  2.21705320e-03  1.34428416e-03 -7.82969221e-03
 -1.43186301e-02 -1.11437775e-02 -1.34879788e-02 -3.74832042e-02
 -9.79484990e-03  4.96521853e-02 -2.57287025e-02 -1.63603351e-02
  1.71284110e-03  6.80760480e-03  2.08230931e-02  2.51309033e-02
  8.71887151e-03  4.53704447e-02  2.21341010e-02  1.48456199e-02]/nsequential/lstm_1/kernel:0/n(80, 400)/n[[-0.08823124 -0.0132146  -0.00561255 ...  0.04818369  0.03295447
   0.10204577]
 [ 0.01344352 -0.0954032  -0.00608643 ... -0.03497507  0.05739344
  -0.05012369]
 [-0.09633351  0.01624694 -0.00930153 ...  0.0344362   0.03321178
  -0.0933804 ]
 ...
 [ 0.09048583  0.00808526 -0.02966001 ... -0.05649013 -0.07035263
   0.07815   ]
 [ 0.08841044 -0.06447119 -0.04476226 ...  0.12819238  0.0143013
  -0.04111255]
 [ 0.02548899  0.00290542  0.00907492 ... -0.03266631 -0.024242
  -0.08765926]]/nsequential/lstm_1/recurrent_kernel:0/n(100, 400)/n[[-4.56249267e-02  3.41399759e-02 -8.89048949e-02 ...  1.01007916e-01
   8.89309645e-02  3.18809412e-02]
 [ 5.47119863e-02  2.64616124e-02  5.11934683e-02 ... -7.23184124e-02
  -4.18207496e-02 -1.82343516e-02]
 [ 1.82608832e-02 -6.20952435e-02  1.29208493e-05 ...  1.34924531e-03
   8.76810178e-02  2.32153595e-03]
 ...
 [ 7.67162070e-02  9.04646665e-02  6.63566366e-02 ...  9.27101895e-02
   1.33809939e-01  3.71806286e-02]
 [ 5.02772443e-02 -3.45700756e-02  6.64129406e-02 ...  2.62798946e-02
   6.72073960e-02 -2.62287855e-02]
 [ 2.70547457e-02 -3.92957553e-02 -6.65452182e-02 ... -1.42204752e-02
  -8.07893649e-02 -4.71225381e-02]]/nsequential/lstm_1/bias:0/n(400,)/n[ 2.51634442e-03 -2.29528230e-02 -5.90376742e-03 -2.58624740e-02
  1.13962917e-03 -9.75648931e-04 -2.00027158e-03  4.47907764e-03
 -1.98003519e-02 -1.59414988e-02 -1.87578183e-02  1.46739166e-02
  2.13251682e-04 -1.00313276e-02 -8.46663583e-03 -1.37545969e-02
 -1.43973716e-03 -2.13364735e-02 -2.76248343e-02 -2.10108180e-02
 -1.63049698e-02 -3.71328592e-02 -1.31612532e-02 -1.89561769e-02
 -1.62976179e-02 -2.98947208e-02 -9.89290513e-03 -2.26333719e-02
 -5.33195119e-03 -1.68446228e-02 -1.92552488e-02 -3.50111574e-02
 -2.46467758e-02 -1.88879184e-02 -1.86469909e-02  3.28260772e-02
 -3.32275848e-03 -2.11403724e-02 -4.31043319e-02 -2.72697071e-03
 -3.46847735e-02 -2.53068451e-02 -7.17770541e-03 -1.79643941e-03
  2.54326575e-02  1.37720052e-02 -1.82394572e-02 -1.88711919e-02
 -2.00308617e-02  5.63058711e-06 -2.22249459e-02 -1.66961048e-02
 -3.48146297e-02 -2.40487829e-02 -1.78996585e-02 -1.43660242e-02
 -3.76526192e-02  3.36517058e-02 -2.58639473e-02 -1.89370755e-02
 -2.56338157e-02 -1.16472868e-02 -2.19475701e-02 -1.71790086e-02
  2.60949880e-03 -1.38380304e-02 -2.48813462e-02 -1.97605826e-02
 -1.35470927e-02 -2.27687098e-02 -2.31804661e-02 -2.30232775e-02
 -1.76915247e-02 -1.64927617e-02 -7.64082698e-03 -5.57285734e-03
 -6.34662341e-03 -1.42560368e-02 -6.24941476e-03 -1.77390985e-02
 -2.46540476e-02 -1.86217856e-02 -1.44095831e-02 -9.85364802e-03
 -7.50207063e-03 -4.01361147e-03 -1.12676006e-02 -2.44858488e-02
 -1.59839299e-02 -6.22111885e-03 -1.72478538e-02  2.39431811e-03
 -3.55777517e-02 -1.38039449e-02 -1.24774612e-02 -9.66455042e-03
 -2.11605076e-02 -1.99802145e-02 -2.15428341e-02 -9.73569043e-03
  1.00377405e+00  9.82960701e-01  9.83391106e-01  9.77631748e-01
  1.00149369e+00  1.00213230e+00  9.93041992e-01  1.01054478e+00
  9.83760595e-01  9.92861152e-01  9.76784825e-01  1.00395417e+00
  9.35390234e-01  9.80118215e-01  9.95676994e-01  9.77429032e-01
  9.98987138e-01  9.78632689e-01  9.64160860e-01  9.69556570e-01
  9.56704021e-01  9.62617576e-01  9.88179922e-01  9.71622825e-01
  9.87285495e-01  9.74077225e-01  9.78011549e-01  9.71992910e-01
  9.83199298e-01  9.58995342e-01  9.82140362e-01  9.32163596e-01
  9.51320827e-01  9.78301942e-01  9.78607535e-01  8.50782633e-01
  1.00127769e+00  9.74489570e-01  9.58077610e-01  1.00500393e+00
  9.69732881e-01  9.77583289e-01  9.94831383e-01  1.00540531e+00
  9.37985480e-01  9.50319648e-01  9.58497107e-01  9.65868711e-01
  9.85203147e-01  9.45982873e-01  9.69744563e-01  9.71017540e-01
  9.63721514e-01  9.39420223e-01  9.78228807e-01  9.88873482e-01
  9.24207807e-01  9.75081623e-01  9.51719820e-01  9.88838613e-01
  9.73806739e-01  9.22154903e-01  9.73589003e-01  9.83455002e-01
  1.01180851e+00  9.85139489e-01  9.68805671e-01  9.72157478e-01
  9.65763986e-01  9.70357656e-01  9.27377045e-01  9.70493019e-01
  9.50974822e-01  9.65825379e-01  9.94091690e-01  9.92551029e-01
  9.69281495e-01  9.74228263e-01  9.78512049e-01  9.56487834e-01
  9.20963585e-01  9.77528214e-01  9.84175801e-01  9.92240489e-01
  9.74033475e-01  9.84908223e-01  9.84342992e-01  9.75052595e-01
  9.86407042e-01  9.94524658e-01  9.64625001e-01  9.95114148e-01
  9.54879642e-01  9.90890503e-01  9.84496951e-01  9.88645673e-01
  9.79993045e-01  9.73884344e-01  9.75813985e-01  9.89703298e-01
  1.13495868e-02  1.02868564e-02  1.05514303e-02 -4.21944773e-03
 -1.03860684e-02  1.10608535e-02  5.73549001e-03 -1.34131471e-02
 -1.07739363e-02 -6.97371142e-04  1.11734774e-02 -1.21465409e-02
  8.39753076e-03  1.19907605e-02 -1.25071434e-02 -1.65799744e-02
  8.55126139e-03  4.91753453e-03 -6.41194731e-03  8.34873784e-03
 -1.08412402e-02 -1.09099634e-02 -9.56757460e-03 -8.42608698e-03
  7.14809122e-03  5.06621320e-03 -9.37083643e-03 -2.09598430e-03
 -8.02893098e-03  5.75787434e-03  7.64249871e-03 -1.37412157e-02
  1.61675680e-02  4.52415273e-03 -1.68283246e-02  2.86253560e-02
  8.23249947e-03 -3.61729460e-03 -5.04887383e-03  6.54292712e-03
 -8.70346278e-03 -1.71031177e-04 -7.17695011e-03 -9.40545090e-03
 -2.11074874e-02 -1.32651785e-02 -5.88712282e-03  1.15043391e-02
 -9.56717413e-03  8.78177863e-03 -8.42291582e-03  2.24992610e-03
  4.82661137e-03  2.60151271e-02 -6.59125624e-03 -3.62502644e-03
  1.49486074e-02 -2.45680530e-02 -1.33724585e-02 -9.43861436e-03
 -1.92240998e-03  2.13005412e-02 -6.20341767e-03 -4.96364571e-03
 -4.86473413e-03  1.23094292e-02 -8.45765229e-03  1.35760317e-02
 -2.62239836e-02 -8.29490647e-03  2.42703818e-02  1.24385199e-02
 -6.52388204e-03  1.10187074e-02 -7.95632042e-03 -4.17551165e-03
 -7.65804108e-03  3.26132891e-03  1.22770136e-02  6.59895781e-03
 -1.58309806e-02  3.83632467e-03 -3.14713991e-03  5.80626447e-03
  1.88921522e-02 -1.59532223e-02 -8.98829103e-03  5.45845367e-03
 -3.44579178e-03  1.43734794e-02  1.59980841e-02  6.80905348e-03
  1.01448465e-02 -8.53121281e-03  9.30709951e-03 -1.13952747e-02
  7.73447473e-03 -7.02036638e-03 -9.50461067e-03 -6.40085572e-03
  1.83879992e-03 -2.25224383e-02 -6.48825709e-03 -2.41204519e-02
 -1.65951101e-03 -3.54312826e-03 -3.86581593e-03  1.23561791e-03
 -2.10536234e-02 -1.53840845e-02 -1.95560046e-02  1.34218642e-02
 -5.48627088e-03 -1.54796429e-02 -8.90052412e-03 -1.47573808e-02
 -1.18377525e-03 -1.99175868e-02 -3.16720009e-02 -2.10338030e-02
 -2.07570214e-02 -3.93701941e-02 -1.42871700e-02 -1.95550509e-02
 -1.75924189e-02 -2.95469929e-02 -1.06968805e-02 -2.15295516e-02
 -6.62449608e-03 -1.95425265e-02 -1.84654221e-02 -3.99779603e-02
 -2.86549646e-02 -1.86731070e-02 -2.12004669e-02  2.71559022e-02
 -3.65023338e-03 -2.12098751e-02 -4.26816382e-02 -4.23944416e-03
 -3.55533436e-02 -2.71497928e-02 -1.04186470e-02 -3.86085967e-03
  2.10414622e-02  1.11459447e-02 -2.20875349e-02 -1.85556524e-02
 -2.27109939e-02 -4.01875237e-03 -2.36488581e-02 -1.79354399e-02
 -3.67390551e-02 -2.64626089e-02 -1.75658558e-02 -1.51896831e-02
 -4.13053669e-02  2.70820707e-02 -2.87891459e-02 -1.84864309e-02
 -2.67630611e-02 -2.31260024e-02 -2.27499735e-02 -1.56541802e-02
  1.14958508e-04 -1.60562433e-02 -2.41935812e-02 -2.05386393e-02
 -1.54851172e-02 -2.34205313e-02 -3.25967893e-02 -2.50576586e-02
 -2.82255318e-02 -1.88020449e-02 -1.00986445e-02 -5.34694968e-03
 -8.22065584e-03 -1.38552366e-02 -6.89801108e-03 -1.75518095e-02
 -2.60146596e-02 -1.89194251e-02 -1.75433941e-02 -1.00802891e-02
 -9.35628731e-03 -5.82679641e-03 -1.18265990e-02 -2.46610716e-02
 -1.69031806e-02 -6.86841598e-03 -2.00192295e-02  1.40432862e-03
 -3.95000316e-02 -1.35525446e-02 -1.26527855e-02 -1.18706198e-02
 -2.22691633e-02 -2.13917699e-02 -2.21445374e-02 -1.02249831e-02]/nsequential/dense/kernel:0/n(100, 1)/n[[ 0.09746845]
 [ 0.1812987 ]
 [ 0.19114247]
 [-0.16925201]
 [-0.07620478]
 [ 0.07438026]
 [ 0.07772614]
 [-0.06850333]
 [-0.07505077]
 [-0.18203989]
 [ 0.10385601]
 [-0.09820376]
 [ 0.10529598]
 [ 0.06537399]
 [-0.08318102]
 [-0.15880416]
 [ 0.09589667]
 [ 0.21589038]
 [-0.11361819]
 [ 0.2217502 ]
 [-0.10710312]
 [-0.20791973]
 [-0.1273885 ]
 [-0.10569405]
 [ 0.19327539]
 [ 0.17091142]
 [-0.11102106]
 [-0.18776853]
 [-0.07958922]
 [ 0.13825755]
 [ 0.14001329]
 [-0.08372086]
 [ 0.08775733]
 [ 0.16738415]
 [-0.07461053]
 [ 0.15130542]
 [ 0.1257095 ]
 [-0.11478099]
 [-0.20573002]
 [ 0.0756098 ]
 [-0.17057325]
 [ 0.09140047]
 [-0.08421426]
 [-0.09297597]
 [-0.15250257]
 [-0.20023453]
 [-0.10525016]
 [ 0.20612592]
 [-0.05925004]
 [ 0.1090035 ]
 [-0.16203886]
 [ 0.08861669]
 [ 0.17180322]
 [ 0.13033137]
 [-0.21050164]
 [-0.08775793]
 [ 0.08695268]
 [-0.139003  ]
 [-0.11079341]
 [-0.18533501]
 [ 0.0780709 ]
 [ 0.0922057 ]
 [-0.15973268]
 [-0.19265014]
 [-0.07767247]
 [ 0.0849916 ]
 [-0.17716917]
 [ 0.12848619]
 [-0.14847066]
 [-0.18586805]
 [ 0.07239954]
 [ 0.15567438]
 [-0.08107375]
 [ 0.15229951]
 [-0.07265843]
 [-0.2044074 ]
 [-0.13477643]
 [ 0.1551467 ]
 [ 0.14935462]
 [ 0.20170286]
 [-0.2075818 ]
 [ 0.18299189]
 [-0.06689049]
 [ 0.20366274]
 [ 0.08753965]
 [-0.16668513]
 [-0.12480412]
 [ 0.17668453]
 [-0.16467586]
 [ 0.12702788]
 [ 0.12137661]
 [ 0.10822832]
 [ 0.07810387]
 [-0.21949294]
 [ 0.06400117]
 [-0.17288937]
 [ 0.11967046]
 [-0.1518386 ]
 [-0.17754747]
 [-0.16085537]]/nsequential/dense/bias:0/n(1,)/n[0.2312522]/n