sequential/lstm/kernel:0/n(5, 320)/n[[ 0.11885813  0.00982932 -0.01209462 ...  0.06544183 -0.03025779
   0.06422938]
 [-0.02193159  0.13292848 -0.09628659 ...  0.02278739 -0.06469216
   0.05393699]
 [-0.03268206 -0.00941866 -0.07421537 ... -0.05923007 -0.11095309
  -0.00856805]
 [ 0.2146858   0.08959925 -0.04634553 ... -0.0597441  -0.16336486
  -0.15579525]
 [ 0.13150676  0.05068485 -0.13272597 ...  0.02389948 -0.13604471
  -0.16318378]]/nsequential/lstm/recurrent_kernel:0/n(80, 320)/n[[ 0.10475011  0.04618131 -0.02715394 ... -0.04652127  0.08678459
  -0.1123658 ]
 [-0.03048674  0.04018229  0.01618055 ...  0.00742759 -0.12704797
   0.0131353 ]
 [ 0.12040629  0.07894332 -0.09692722 ... -0.00701465  0.00924943
  -0.06819656]
 ...
 [-0.0673708  -0.13296226 -0.08748693 ... -0.0542665   0.0369724
  -0.01813284]
 [-0.0235664  -0.04011511 -0.02548917 ...  0.00991403 -0.05918405
   0.02686478]
 [-0.00144314  0.03905315  0.03860584 ...  0.05231795  0.0590166
   0.00123766]]/nsequential/lstm/bias:0/n(320,)/n[ 3.73852216e-02  2.08952241e-02 -5.41847292e-03  1.15733044e-02
 -8.93611694e-04  3.80341634e-02 -4.30014096e-02  8.48307973e-04
  2.59271823e-02  3.70195597e-01 -1.64242312e-02 -1.24737043e-02
 -6.71579328e-04 -1.14395777e-02 -6.14298601e-03  1.22947015e-01
 -1.57619193e-02  2.27490831e-02 -1.69065371e-02 -2.63516009e-02
  3.77978235e-01  3.05515435e-02 -4.27351892e-03 -1.92772727e-02
 -1.74887087e-02  3.01083140e-02  6.39955606e-03  2.48576161e-02
 -1.15025779e-02  8.14093370e-03 -7.06917606e-03  1.63460542e-02
 -1.06202085e-02  2.52710003e-02 -1.48926658e-04 -3.08397994e-03
 -1.37846870e-02  3.35882828e-02 -3.60515229e-02 -6.75416319e-03
  1.22341383e-02 -1.44530358e-02 -9.81242955e-03 -1.83066237e-04
  3.86718996e-02 -8.15169513e-03  8.62055924e-04 -1.24232499e-02
 -3.02036293e-02 -1.02475621e-02  8.34121332e-02  5.67742717e-03
  1.38182893e-01 -7.00076949e-03 -1.53071452e-02  1.15740262e-02
  5.03787585e-02  2.64668325e-03  5.19870818e-01 -1.06465565e-02
 -6.96688099e-03  1.64440572e-02  7.82064162e-04  2.35936977e-02
 -1.68345608e-02 -7.36930640e-03  2.08516464e-01 -1.14461305e-02
  2.32116431e-02 -6.03259448e-03 -1.28655592e-02 -4.75544622e-03
  4.94242013e-02 -9.67494119e-03  6.35307143e-03 -1.53240683e-02
  6.44280948e-03  1.27760349e-02 -2.99295615e-02 -3.85943875e-02
  9.19615984e-01  9.63130116e-01  9.90029454e-01  9.72281933e-01
  9.69518423e-01  8.96849990e-01  9.58611190e-01  9.81256127e-01
  9.74878967e-01  7.05442905e-01  9.85275447e-01  9.78648186e-01
  9.43108559e-01  9.84804392e-01  9.91572320e-01  9.21231687e-01
  9.75542843e-01  9.12852526e-01  9.82840657e-01  9.45549369e-01
  8.08044434e-01  9.45746541e-01  9.77771282e-01  9.69962776e-01
  9.66303289e-01  1.02938437e+00  9.69338417e-01  9.59734380e-01
  9.83140349e-01  9.84522402e-01  9.81404781e-01  9.18743849e-01
  9.56237614e-01  9.59962845e-01  9.76224840e-01  9.85161364e-01
  9.46419120e-01  9.76979792e-01  9.41145003e-01  9.76810515e-01
  9.29637849e-01  9.85735297e-01  9.50345159e-01  9.86532211e-01
  9.58371699e-01  9.57979977e-01  9.97571111e-01  9.88363981e-01
  9.64075029e-01  9.57712173e-01  9.30048525e-01  9.78846788e-01
  9.35268939e-01  9.76201296e-01  9.74356592e-01  9.53471720e-01
  9.36381042e-01  9.31947351e-01  6.62125111e-01  9.84568357e-01
  9.89111900e-01  9.67854321e-01  9.77631450e-01  1.01337671e+00
  9.79115903e-01  9.70212102e-01  8.33960354e-01  9.84299541e-01
  9.47728753e-01  9.29911792e-01  9.57312047e-01  9.70574260e-01
  9.22052026e-01  9.80905890e-01  9.38671291e-01  9.71143901e-01
  9.20157492e-01  9.77218211e-01  9.74451303e-01  9.57126677e-01
 -5.18655628e-02 -5.33931814e-02 -6.31184550e-03  4.46023233e-02
  5.61175980e-02 -3.50228585e-02  7.60756200e-03 -5.41331843e-02
  4.43432480e-02  6.47605583e-02 -2.50603314e-02 -6.77757263e-02
 -4.63534817e-02  2.40818616e-02  2.20867116e-02  5.98840117e-02
  7.46667683e-02 -3.86977941e-02 -1.13901254e-02  9.74530354e-03
  6.19262457e-02 -1.43373618e-02  4.19057831e-02 -1.66081917e-02
 -4.62074243e-02  1.74781159e-02 -5.15613928e-02 -4.65835556e-02
 -4.55663837e-02 -4.59362869e-04 -3.45274881e-02  8.37862026e-03
 -2.88226828e-02  5.18027321e-02  6.40613660e-02 -4.60637622e-02
 -1.04645090e-02 -6.46069124e-02 -4.39514741e-02 -1.71885244e-03
  1.09331973e-03  4.25709039e-02  2.17877533e-02 -1.35448035e-02
 -2.64965687e-02 -3.88344675e-02 -8.70871264e-03  5.49794920e-03
  5.47917336e-02 -5.19788899e-02 -5.59721217e-02  6.18238151e-02
 -3.14637907e-02 -4.78057861e-02  4.24679508e-03 -6.53073937e-02
  5.84652685e-02 -5.18600009e-02  7.01921955e-02  3.01801749e-02
  4.13945504e-03 -1.74165703e-02 -5.44616580e-02 -2.42312010e-02
 -1.30535504e-02 -1.27344532e-03  5.20719811e-02  3.31269242e-02
 -3.46581638e-02 -4.42708135e-02  4.83233035e-02 -4.35537025e-02
 -5.36141731e-02 -3.79836857e-02  6.41256943e-02  6.12142943e-02
 -3.71060371e-02  1.05888695e-02  1.92685854e-02  1.68682877e-02
  2.54896041e-02  1.24588273e-02 -5.18995430e-03  8.22012033e-03
 -2.98437220e-03  3.48847620e-02 -3.98351662e-02  7.15944858e-04
  2.08923444e-02  3.54150712e-01 -1.68875195e-02 -5.23258140e-03
 -1.11957558e-03 -9.27095022e-03 -8.01654719e-03  1.12569153e-01
 -1.31593663e-02  2.14167405e-02 -1.73616540e-02 -2.66991165e-02
  3.71520698e-01  3.17150764e-02 -8.04086495e-03 -1.97800342e-02
 -1.89786535e-02  3.41010764e-02  3.44780507e-03  1.76162049e-02
 -9.90728568e-03  8.95559601e-03 -7.60965794e-03  1.76182128e-02
 -6.69211568e-03  2.51705144e-02 -2.82042380e-03 -3.51551804e-03
 -1.41776623e-02  3.61847878e-02 -3.41643281e-02 -8.85422900e-03
  1.30891763e-02 -1.37446513e-02 -6.18083635e-03 -1.27791171e-03
  3.94820049e-02 -1.09488089e-02 -2.55832274e-04 -1.19428886e-02
 -3.21875736e-02 -6.80214539e-03  7.76216015e-02  4.83227614e-03
  1.41508788e-01 -4.35158703e-03 -1.31835304e-02  1.12746153e-02
  4.19167355e-02  6.98213989e-04  5.04534781e-01 -9.34455357e-03
 -6.23073382e-03  1.53545672e-02 -2.41374029e-04  3.67357768e-02
 -1.70194320e-02 -9.34021734e-03  1.91696063e-01 -1.23895565e-02
  1.76420305e-02 -8.55658483e-03 -5.93201211e-03 -5.59371337e-03
  3.84807363e-02 -9.90479812e-03  1.25437300e-03 -1.29674198e-02
  8.61611962e-03  1.18792066e-02 -3.03291101e-02 -3.61542664e-02]/nsequential/lstm_1/kernel:0/n(80, 400)/n[[ 0.10953034 -0.11297365  0.07722612 ...  0.0612652   0.09099676
   0.00587262]
 [-0.00120552 -0.0065083  -0.03458942 ...  0.10539162 -0.0044366
   0.06785968]
 [-0.00190767  0.01645582 -0.11771457 ...  0.06984206  0.00369634
  -0.00160461]
 ...
 [ 0.03008621  0.09610306  0.00850992 ...  0.03267092  0.05120562
  -0.06377728]
 [-0.053923   -0.08944856  0.10439923 ...  0.05741251  0.19015136
   0.0268434 ]
 [-0.03616736  0.05161503 -0.10352721 ... -0.02075195 -0.10354775
   0.02468624]]/nsequential/lstm_1/recurrent_kernel:0/n(100, 400)/n[[ 0.07107827 -0.03627737  0.06202554 ...  0.03069418  0.11653573
  -0.01478704]
 [-0.06313007  0.02515382  0.02856502 ...  0.06513836  0.10078669
   0.03763482]
 [-0.02489609  0.05337631 -0.04093027 ...  0.04047718  0.05469543
  -0.02305464]
 ...
 [ 0.00617259 -0.01238628  0.0637411  ... -0.01670824  0.05858452
  -0.05001492]
 [ 0.00287605 -0.0391407  -0.13411659 ... -0.13179404 -0.0928008
  -0.01158355]
 [-0.01298383  0.10690412  0.07236148 ... -0.07705408  0.09993075
   0.04661249]]/nsequential/lstm_1/bias:0/n(400,)/n[-5.99763496e-03 -3.53188291e-02 -1.04502356e-02 -4.68836091e-02
  4.79158619e-03 -2.74039358e-02  1.53198950e-02 -1.12349931e-02
 -1.69278439e-02 -1.41340327e-02 -3.03390026e-02 -1.03154453e-02
 -1.93633959e-02 -2.12945435e-02 -4.14816178e-02 -3.25718224e-02
 -2.03297604e-02 -1.19614983e-02 -1.39149334e-02 -3.20145413e-02
 -4.60453406e-02 -2.48743314e-03  2.34036557e-02 -2.57361215e-02
 -3.24174352e-02 -9.11819749e-03 -3.36245261e-02 -2.71669868e-02
 -2.72201793e-03 -2.50446107e-02 -2.41630562e-02 -3.20822820e-02
 -1.14812879e-02 -8.06292519e-03 -1.18764509e-02 -2.23434735e-02
 -3.13390195e-02 -1.77137107e-02  3.29088210e-03 -1.46003030e-02
 -2.61948109e-02 -3.41975652e-02 -2.42703874e-02 -2.88305767e-02
 -3.50668095e-02 -4.56668623e-03 -1.14031434e-02 -1.69372410e-02
 -2.78846249e-02 -2.04559062e-02 -4.08283137e-02 -2.94306725e-02
 -2.32734513e-02 -3.25098410e-02 -3.39315720e-02 -5.37639111e-03
 -2.08503194e-02 -3.79406139e-02 -2.67682393e-04 -2.77868062e-02
 -2.41718739e-02 -1.65526606e-02 -2.03100313e-02 -1.19139180e-02
 -2.93536969e-02 -3.53616592e-03 -1.84304342e-02 -2.60393228e-02
 -2.35100724e-02 -2.44990289e-02 -1.24613186e-02 -2.40430962e-02
 -2.56973132e-02 -1.05914520e-02 -1.35988034e-02 -1.74325090e-02
 -3.96159384e-03 -1.32353706e-02 -3.33146006e-02 -1.88739598e-02
 -1.71626769e-02 -3.59208360e-02 -2.10386105e-02 -1.60759632e-02
 -2.16552671e-02 -1.83645599e-02 -1.99593138e-02 -3.07608582e-02
 -1.24578224e-02 -1.29941413e-02 -3.80972065e-02 -2.33882125e-02
  1.03680883e-02 -1.32796401e-02 -1.84201926e-03 -2.43286155e-02
  1.39312455e-02 -6.74598478e-03 -2.19403263e-02 -1.40935211e-02
  1.00937545e+00  9.69554901e-01  9.78560865e-01  9.52279866e-01
  1.00860524e+00  9.57162142e-01  9.46978331e-01  9.46192682e-01
  9.66749310e-01  9.85069931e-01  9.76482570e-01  9.77505684e-01
  9.61617470e-01  9.74822879e-01  9.74157155e-01  9.62295473e-01
  9.67155397e-01  1.00148106e+00  9.91310239e-01  9.76841688e-01
  9.69309509e-01  1.00370288e+00  9.00337458e-01  9.82671142e-01
  9.54401672e-01  9.88276184e-01  9.68739986e-01  9.56579566e-01
  9.87212062e-01  9.26852822e-01  9.68095183e-01  9.64650393e-01
  9.54412282e-01  9.91858363e-01  9.56951022e-01  9.75530744e-01
  9.41318274e-01  9.83917832e-01  1.02197170e+00  9.86062169e-01
  9.76744890e-01  9.29741979e-01  9.48062301e-01  9.72045839e-01
  9.85336304e-01  9.74943101e-01  9.95430410e-01  9.71181035e-01
  9.69486296e-01  9.78271425e-01  9.32384551e-01  9.15997803e-01
  9.58175063e-01  9.45464492e-01  9.71593320e-01  1.00506604e+00
  9.78229582e-01  9.12158608e-01  9.97548580e-01  9.40334618e-01
  9.79376733e-01  9.73199010e-01  9.71590161e-01  9.97779191e-01
  9.44500566e-01  9.84135389e-01  9.81977403e-01  9.81618464e-01
  9.70823705e-01  9.75019515e-01  8.94576967e-01  9.74513710e-01
  9.36015725e-01  9.54562545e-01  9.80292082e-01  9.61760640e-01
  1.00025094e+00  9.67533350e-01  9.64851975e-01  9.50995743e-01
  9.82033968e-01  9.68092203e-01  9.75890279e-01  9.87211227e-01
  9.96900082e-01  9.77432609e-01  9.63194728e-01  9.44545746e-01
  9.90661979e-01  9.75476921e-01  9.76609647e-01  9.94530380e-01
  9.89951491e-01  9.90257382e-01  9.50087845e-01  9.81294274e-01
  9.70650017e-01  9.94657695e-01  9.50768352e-01  9.78346646e-01
 -7.90782645e-03 -1.11496067e-02  1.41582480e-02  2.22185459e-02
 -1.20894033e-02  2.26779189e-03  2.27366928e-02  1.42606124e-02
 -1.66927949e-02 -8.81690532e-03 -8.10138788e-03 -1.21448021e-02
 -1.07163684e-02  1.32438364e-02 -7.55438302e-03  1.55718569e-02
 -1.71465781e-02 -2.71042134e-03 -1.06669888e-02  1.63867930e-03
  1.63383372e-02  6.83556404e-03 -2.53191367e-02  7.96019379e-03
 -7.57393148e-03 -1.25244539e-02  7.17125786e-03 -1.43514071e-02
 -1.01783900e-02  2.01263912e-02  1.07575795e-02  6.00503758e-03
  1.46086151e-02  2.81667686e-04  2.34744959e-02  1.01313591e-02
  1.86827816e-02 -1.23389391e-02  5.03319455e-03 -7.21711153e-03
 -9.86846536e-03  8.95994063e-03 -7.72390887e-03 -8.81995633e-03
 -5.43437246e-03 -1.09401271e-02  6.28500478e-03 -6.89482037e-03
  1.11815846e-02  1.33111188e-02 -1.17114382e-02  1.12760421e-02
  1.07946554e-02 -1.18312733e-02  7.41584087e-03  7.77044799e-03
  7.18237506e-03 -1.23497080e-02  1.04064569e-02 -2.15116367e-02
  1.44106960e-02  6.53226255e-03 -9.76179354e-03 -4.32547741e-03
  1.49675636e-02 -1.42296627e-02  1.09436335e-02 -4.73476201e-03
 -5.76109532e-03 -1.19764656e-02  1.58039257e-02 -1.12403221e-02
 -1.00563448e-02  2.36462634e-02 -1.02941683e-02 -1.07707176e-02
 -7.73104280e-03 -1.17614092e-02  1.15182269e-02 -1.78706311e-02
 -1.36817330e-02  7.35634286e-03 -1.72812603e-02 -7.58111104e-03
 -3.59339383e-03 -1.29104406e-02  1.50885852e-02 -1.77042838e-02
 -1.24913296e-02 -1.20847495e-02 -6.72594272e-03 -6.62417989e-03
 -2.13817656e-02  5.82756475e-03 -1.19510796e-02 -4.29480523e-03
 -1.67736616e-02 -1.03803594e-02  1.88999083e-02 -8.86443909e-03
 -7.79995508e-03 -3.66269201e-02 -1.14512714e-02 -4.96471040e-02
  2.11548386e-03 -3.12038045e-02  1.12779457e-02 -1.71897728e-02
 -2.15902124e-02 -1.50200175e-02 -3.47103216e-02 -1.09081212e-02
 -2.18374487e-02 -2.15513501e-02 -4.20840159e-02 -3.42022330e-02
 -2.07151454e-02 -1.29318358e-02 -1.45696979e-02 -2.98733413e-02
 -4.77633066e-02 -6.62037730e-03  1.95690710e-02 -2.44062468e-02
 -3.28533314e-02 -1.02157444e-02 -3.84081900e-02 -2.92943921e-02
 -4.84343478e-03 -2.72582304e-02 -2.90766079e-02 -3.37096825e-02
 -1.58570074e-02 -9.01765842e-03 -1.62319206e-02 -2.49741226e-02
 -3.13818306e-02 -1.94885135e-02  2.58180103e-03 -1.63620934e-02
 -2.54316181e-02 -3.79405543e-02 -2.67546233e-02 -3.26936021e-02
 -3.64007652e-02 -8.70437175e-03 -1.27623528e-02 -1.94816403e-02
 -2.89846193e-02 -2.08324641e-02 -4.21619229e-02 -3.46644670e-02
 -2.25157663e-02 -3.95741649e-02 -3.66204642e-02 -5.87070547e-03
 -2.08929498e-02 -4.50551882e-02 -1.78414851e-03 -3.33862677e-02
 -2.45971940e-02 -1.92582067e-02 -2.41677426e-02 -1.41249374e-02
 -3.24101634e-02 -6.31646765e-03 -1.89513527e-02 -2.62512881e-02
 -2.44172849e-02 -2.63486337e-02 -1.93795878e-02 -2.46049315e-02
 -2.97094155e-02 -1.74998771e-02 -1.47541109e-02 -1.86760686e-02
 -8.00149329e-03 -1.53697329e-02 -4.13267277e-02 -2.49879528e-02
 -2.17342898e-02 -3.60391587e-02 -2.66871732e-02 -1.87075473e-02
 -2.29199175e-02 -1.80582274e-02 -1.93246379e-02 -3.89719568e-02
 -1.26825999e-02 -1.37409400e-02 -3.83547246e-02 -2.85770036e-02
  7.70152127e-03 -1.46151967e-02 -9.73364245e-03 -2.56563388e-02
  1.06357699e-02 -8.83338787e-03 -2.64048614e-02 -1.61769390e-02]/nsequential/dense/kernel:0/n(100, 1)/n[[-0.08675709]
 [-0.21269915]
 [ 0.1789419 ]
 [ 0.07362972]
 [-0.08471767]
 [-0.06785855]
 [ 0.10474036]
 [ 0.08645872]
 [-0.08675151]
 [-0.1558748 ]
 [-0.18748619]
 [-0.11926825]
 [-0.14949109]
 [ 0.21898636]
 [-0.1913265 ]
 [ 0.1816414 ]
 [-0.08171931]
 [-0.10180965]
 [-0.12480313]
 [ 0.20437504]
 [ 0.1390101 ]
 [ 0.09338523]
 [-0.12747152]
 [ 0.19462359]
 [-0.18145733]
 [-0.09439719]
 [ 0.14578713]
 [-0.14239354]
 [-0.10337006]
 [ 0.08332341]
 [ 0.09023789]
 [ 0.06196328]
 [ 0.10015767]
 [ 0.09345703]
 [ 0.10742445]
 [ 0.16531482]
 [ 0.08066093]
 [-0.12112325]
 [ 0.07648508]
 [-0.08307242]
 [-0.17522293]
 [ 0.15098782]
 [-0.07527373]
 [-0.12432484]
 [ 0.0920266 ]
 [-0.10359786]
 [ 0.10784706]
 [-0.09171791]
 [ 0.21920404]
 [ 0.08615839]
 [-0.15989354]
 [ 0.10219917]
 [ 0.22462034]
 [-0.0884895 ]
 [ 0.08521789]
 [ 0.09311984]
 [ 0.18933247]
 [-0.08304248]
 [ 0.0907221 ]
 [-0.07370697]
 [ 0.2212916 ]
 [ 0.08516719]
 [-0.09210247]
 [-0.10207018]
 [ 0.17606677]
 [-0.10598764]
 [ 0.17030041]
 [-0.1468735 ]
 [-0.159949  ]
 [-0.12792851]
 [ 0.1724409 ]
 [-0.07956194]
 [-0.06833446]
 [ 0.08508553]
 [-0.07523297]
 [-0.17766862]
 [-0.05997364]
 [-0.23496407]
 [ 0.08650222]
 [-0.09486064]
 [-0.07133303]
 [ 0.15931089]
 [-0.06121992]
 [-0.10281208]
 [-0.0673231 ]
 [-0.22199935]
 [ 0.20945165]
 [-0.11300858]
 [-0.11326093]
 [-0.15566093]
 [-0.13240542]
 [-0.0905937 ]
 [-0.09816515]
 [ 0.08815248]
 [-0.10350564]
 [-0.09720594]
 [-0.12095656]
 [-0.06859636]
 [ 0.08927988]
 [-0.07320014]]/nsequential/dense/bias:0/n(1,)/n[0.24270484]/n