sequential/gru/kernel:0
(1, 240)
[[-6.39702260e-01 -5.90864837e-01 -5.91783285e-01 -6.03122473e-01
  -8.13489974e-01 -8.55520904e-01 -7.13867724e-01 -6.55672431e-01
  -5.82696557e-01 -4.99589920e-01 -9.08702016e-01 -6.32423222e-01
  -7.05335855e-01 -7.18245864e-01 -7.12849617e-01 -7.47625709e-01
  -3.87332886e-01 -6.78437114e-01 -8.00844014e-01 -6.55723453e-01
  -8.97006929e-01 -7.73009658e-01 -7.34585524e-01 -5.60636818e-01
  -7.05111682e-01 -7.14051604e-01 -6.97233140e-01 -6.71599805e-01
  -4.11048204e-01 -6.29151165e-01 -1.93021655e-01 -4.98606235e-01
  -9.21615660e-01 -4.76099640e-01 -8.54147673e-01 -8.14692140e-01
  -6.29449606e-01 -7.04209328e-01 -8.63896668e-01 -6.37976289e-01
  -5.99037290e-01 -7.50350475e-01 -8.66311967e-01 -7.81374335e-01
  -7.21724033e-01 -6.28442228e-01 -5.92852175e-01 -8.95140886e-01
  -5.95055044e-01 -3.16856384e-01 -7.93736756e-01 -7.00180948e-01
  -8.38996351e-01 -6.52007520e-01 -8.66142958e-02 -8.61493468e-01
  -7.57363975e-01 -6.42911136e-01 -8.54881763e-01 -8.13071430e-01
  -2.41811529e-01 -9.21644270e-01 -7.01700389e-01 -6.75918281e-01
  -8.45739186e-01 -7.67755866e-01 -6.60324812e-01 -9.09371376e-01
  -4.26784784e-01 -7.32728004e-01 -7.96510637e-01 -6.63331747e-01
  -4.72338170e-01 -3.08517307e-01 -5.35096884e-01 -7.54594445e-01
  -8.58460307e-01  3.46333116e-01 -5.84138632e-01 -4.67863649e-01
   1.26300901e-01 -8.92894459e-04 -1.10713437e-01  6.02400564e-02
  -3.91195342e-02 -6.80377409e-02  1.84270069e-02 -1.23216286e-01
   1.36543795e-01  4.92403470e-02 -1.50373563e-01  1.25037476e-01
  -1.52561575e-01  1.47937447e-01  1.19874135e-01  4.52332534e-02
   8.11721459e-02  6.19019158e-02  8.06477666e-02 -9.67886224e-02
  -3.12032104e-02 -1.22523747e-01 -1.51609570e-01  1.20961539e-01
   6.93164617e-02 -9.22262147e-02 -1.59982350e-02 -5.72767854e-03
  -2.97062192e-02 -6.78503662e-02  1.76409855e-01  1.05561495e-01
   1.11217298e-01  4.80438434e-02 -1.66708469e-01  7.89606124e-02
  -2.03676056e-02 -1.39971763e-01 -1.71561182e-01 -4.15957347e-02
   6.76491410e-02  2.30352916e-02  6.00966215e-02 -1.32650360e-01
   1.30259782e-01  4.55008596e-02  5.55940010e-02 -1.06827363e-01
  -5.08933142e-02 -6.74573332e-02  5.08678593e-02 -4.46091853e-02
   1.55945672e-02 -1.80974841e-01  9.94389225e-03  7.54453894e-03
  -8.53944868e-02  7.13866344e-03  9.73099321e-02 -9.68912989e-02
  -1.02162108e-01 -3.87671664e-02  1.33442022e-02 -6.92518279e-02
   3.13138627e-02 -1.31239817e-01  5.23975641e-02 -8.69659036e-02
   8.84360075e-02 -8.99218917e-02 -9.38402712e-02  1.03361718e-01
   5.37293404e-02 -1.38363972e-01 -1.17367350e-01 -1.46794170e-01
  -9.68871340e-02 -1.58668309e-02  1.41693294e-01  1.26299888e-01
  -1.09768987e-01  1.26875505e-01  9.11373422e-02  5.77009656e-02
   9.61911380e-02 -1.17282726e-01 -8.78955424e-02  7.37040192e-02
  -1.11498997e-01  2.79439595e-02 -1.00161664e-01  1.43405274e-01
   9.28565115e-02  1.04624771e-01 -9.46973413e-02  9.22999606e-02
   2.76985765e-02 -1.05239391e-01 -1.09801568e-01  8.28909352e-02
  -1.30881131e-01 -1.35296524e-01 -7.62179866e-02 -1.33128032e-01
   1.11927263e-01 -8.96680132e-02 -6.25523031e-02  1.15681499e-01
  -4.24062014e-02  9.35182124e-02 -7.51241948e-03  1.10845245e-01
   1.28487691e-01 -4.49917428e-02 -1.03406705e-01 -1.02248594e-01
   3.64995189e-02 -8.13046768e-02  9.50874835e-02  2.96708811e-02
   1.23100579e-01  1.40724882e-01 -1.54965565e-01 -1.01975031e-01
  -1.07215405e-01  1.47945181e-01  3.03838961e-02  8.83586779e-02
   1.11351088e-01 -2.83074081e-02 -8.44195038e-02  6.69563487e-02
  -8.76831561e-02 -7.04464912e-02  3.92848738e-02  7.72817582e-02
  -1.03112705e-01 -1.25064433e-01  1.05821237e-01  1.07289009e-01
  -2.25877352e-02  1.36816531e-01 -1.31248146e-01 -7.47331232e-02
  -8.05966258e-02  1.18979372e-01  1.28728285e-01 -1.24821030e-01
  -4.20466289e-02  9.44769010e-02  1.07550025e-01 -1.23344652e-01
   1.15810610e-01 -1.38057172e-01 -8.70483741e-02 -9.35885087e-02
  -7.20120296e-02 -3.66200297e-03 -7.51020387e-02  4.38737646e-02]]
sequential/gru/recurrent_kernel:0
(80, 240)
[[ 0.03673698  0.04510809  0.10337821 ...  0.04249041  0.02619663
   0.03823922]
 [-0.20561205 -0.24453902 -0.20069252 ...  0.05039923  0.05453782
   0.03388043]
 [-0.16078964 -0.21976079 -0.23509073 ...  0.0351086  -0.08628429
   0.135518  ]
 ...
 [-0.10556039 -0.20563808 -0.2593168  ...  0.12462076  0.05352905
   0.00120588]
 [ 0.16641714  0.10557345  0.17675517 ... -0.0043948  -0.05105164
  -0.01054925]
 [-0.19481333 -0.25279602 -0.16305275 ...  0.08008425  0.06336937
  -0.00952822]]
sequential/gru/bias:0
(2, 240)
[[-1.00546861e+00 -7.73187995e-01 -7.43822098e-01 -8.34229410e-01
  -9.65043724e-01 -1.08262455e+00 -9.38039303e-01 -9.37942445e-01
  -9.01544511e-01 -6.32177114e-01 -1.14888299e+00 -7.62165487e-01
  -1.08170283e+00 -7.45866358e-01 -8.55821967e-01 -9.37982559e-01
  -6.75259233e-01 -1.04971743e+00 -9.20165062e-01 -9.77738738e-01
  -1.15050638e+00 -8.21064949e-01 -9.68008339e-01 -8.59722316e-01
  -9.13344562e-01 -8.31148148e-01 -7.85347581e-01 -7.55645752e-01
  -6.52822316e-01 -8.93862009e-01 -1.83666691e-01 -6.93385005e-01
  -1.12103546e+00 -7.66363502e-01 -1.18479621e+00 -8.79237056e-01
  -7.54211783e-01 -1.03047538e+00 -1.04123104e+00 -7.66051590e-01
  -7.71934748e-01 -8.47327113e-01 -1.13921845e+00 -8.80730629e-01
  -9.75621700e-01 -8.56287897e-01 -6.43843055e-01 -1.04032731e+00
  -8.29879940e-01 -5.97474098e-01 -1.23702979e+00 -1.00764072e+00
  -9.86040294e-01 -1.05529070e+00  2.88586561e-02 -1.13145173e+00
  -9.06272769e-01 -9.60731685e-01 -9.53410864e-01 -1.07817662e+00
  -3.78844470e-01 -9.88023579e-01 -9.68653500e-01 -9.49084699e-01
  -1.08582008e+00 -9.70205605e-01 -9.16346133e-01 -1.15299058e+00
  -6.28696740e-01 -9.54966009e-01 -1.13483870e+00 -9.25023317e-01
  -7.90972590e-01 -3.82985771e-01 -8.74781728e-01 -7.55365133e-01
  -1.02642727e+00  3.04720640e-01 -8.36421490e-01 -6.34573400e-01
   1.15234545e-02  2.50267498e-02  1.67818964e-02  4.00689803e-03
   7.31300563e-03  6.85646664e-03 -9.08552483e-03 -1.63107589e-02
   3.42945009e-02  2.16801707e-02  2.98797851e-04  3.40114757e-02
  -4.73197689e-03  9.14203841e-03  4.07001842e-03  6.78820186e-04
  -1.81871727e-02 -1.10492380e-02 -4.87071089e-03  3.95331159e-03
   1.03392135e-02  3.41335982e-02 -2.38348451e-03 -6.82007102e-03
   3.63564752e-02  1.22830004e-03 -6.64982246e-03  4.71357163e-03
  -5.78765804e-03  8.16060870e-04  2.53552869e-02  1.58196408e-02
   1.39950784e-02 -1.05162384e-02 -1.22213326e-02  6.15509180e-03
  -4.91665723e-03 -1.63201690e-02 -3.24261934e-02  9.23202001e-03
  -1.64243039e-02  3.11261341e-02  3.00613567e-02  1.20154815e-02
   2.56375633e-02  1.57584827e-02 -6.39993697e-03 -1.57442652e-02
   1.96567294e-03 -2.37303991e-02 -6.02550339e-03 -5.17342277e-02
  -1.91127453e-02 -2.46121641e-03  5.45857809e-02 -4.41818982e-02
   1.01757236e-02  7.21007399e-03  3.00282938e-03  7.12637557e-03
  -1.38949007e-02  3.72921377e-02  1.10504767e-02 -1.42822824e-02
  -9.17732716e-03  4.04451713e-02  2.96372026e-02  1.67983565e-02
  -3.83269526e-02 -1.17610218e-02  1.28058232e-02  1.63279213e-02
   2.36346535e-02  5.30858152e-03  2.55259089e-02  1.19488826e-02
  -1.87247824e-02  6.72649145e-02 -8.23636190e-04 -1.06664263e-02
   3.32386531e-02 -4.07963097e-02 -2.72553712e-02 -2.44333688e-02
  -2.99539641e-02  3.60306427e-02  2.45498717e-02 -2.34827418e-02
   3.42221297e-02 -7.19529158e-03  3.05835474e-02 -3.92877832e-02
  -3.13102938e-02 -3.01827304e-02  2.83700563e-02 -2.63702776e-02
  -1.09271146e-02  3.32800187e-02  3.37623693e-02 -2.47919094e-02
   4.08144742e-02  3.86283919e-02  2.55712382e-02  3.71332988e-02
  -3.42865996e-02  2.92679518e-02  1.77962184e-02 -3.24746072e-02
   1.63697992e-02 -2.43943259e-02 -1.48578687e-03 -3.23524177e-02
  -3.92909646e-02  1.10914558e-02  3.12353391e-02  3.07126325e-02
  -1.32731302e-02  2.85088569e-02 -2.87141800e-02 -9.22697317e-03
  -3.29940543e-02 -4.37112413e-02  4.65170369e-02  2.79167220e-02
   3.67781855e-02 -3.87139246e-02 -1.03587806e-02 -2.77322438e-02
  -2.75140814e-02  9.88730043e-03  2.82699168e-02 -2.19247881e-02
   2.98087671e-02  2.08136998e-02 -1.24061666e-02 -2.26476137e-02
   3.34663279e-02  3.81730981e-02 -3.76338698e-02 -3.45157832e-02
   3.72308143e-03 -4.24741544e-02  3.83492485e-02  2.91232076e-02
   2.69305650e-02 -3.75990495e-02 -3.83850187e-02  4.00563031e-02
   1.26212128e-02 -2.69317087e-02 -3.32434699e-02  4.09056693e-02
  -3.19223292e-02  3.50853428e-02  2.58071553e-02  2.75591053e-02
   2.78881155e-02 -2.14965385e-03  2.36419141e-02 -1.64415985e-02]
 [-1.00546861e+00 -7.73187995e-01 -7.43822098e-01 -8.34229410e-01
  -9.65043724e-01 -1.08262455e+00 -9.38039303e-01 -9.37942445e-01
  -9.01544511e-01 -6.32177114e-01 -1.14888299e+00 -7.62165487e-01
  -1.08170283e+00 -7.45866358e-01 -8.55821967e-01 -9.37982559e-01
  -6.75259233e-01 -1.04971743e+00 -9.20165062e-01 -9.77738738e-01
  -1.15050638e+00 -8.21064949e-01 -9.68008339e-01 -8.59722316e-01
  -9.13344562e-01 -8.31148148e-01 -7.85347581e-01 -7.55645752e-01
  -6.52822316e-01 -8.93862009e-01 -1.83666691e-01 -6.93385005e-01
  -1.12103546e+00 -7.66363502e-01 -1.18479621e+00 -8.79237056e-01
  -7.54211783e-01 -1.03047538e+00 -1.04123104e+00 -7.66051590e-01
  -7.71934748e-01 -8.47327113e-01 -1.13921845e+00 -8.80730629e-01
  -9.75621700e-01 -8.56287897e-01 -6.43843055e-01 -1.04032731e+00
  -8.29879940e-01 -5.97474098e-01 -1.23702979e+00 -1.00764072e+00
  -9.86040294e-01 -1.05529070e+00  2.88586561e-02 -1.13145173e+00
  -9.06272769e-01 -9.60731685e-01 -9.53410864e-01 -1.07817662e+00
  -3.78844470e-01 -9.88023579e-01 -9.68653500e-01 -9.49084699e-01
  -1.08582008e+00 -9.70205605e-01 -9.16346133e-01 -1.15299058e+00
  -6.28696740e-01 -9.54966009e-01 -1.13483870e+00 -9.25023317e-01
  -7.90972590e-01 -3.82985771e-01 -8.74781728e-01 -7.55365133e-01
  -1.02642727e+00  3.04720640e-01 -8.36421490e-01 -6.34573400e-01
   1.15234545e-02  2.50267498e-02  1.67818964e-02  4.00689803e-03
   7.31300563e-03  6.85646664e-03 -9.08552483e-03 -1.63107589e-02
   3.42945009e-02  2.16801707e-02  2.98797851e-04  3.40114757e-02
  -4.73197689e-03  9.14203841e-03  4.07001842e-03  6.78820186e-04
  -1.81871727e-02 -1.10492380e-02 -4.87071089e-03  3.95331159e-03
   1.03392135e-02  3.41335982e-02 -2.38348451e-03 -6.82007102e-03
   3.63564752e-02  1.22830004e-03 -6.64982246e-03  4.71357163e-03
  -5.78765804e-03  8.16060870e-04  2.53552869e-02  1.58196408e-02
   1.39950784e-02 -1.05162384e-02 -1.22213326e-02  6.15509180e-03
  -4.91665723e-03 -1.63201690e-02 -3.24261934e-02  9.23202001e-03
  -1.64243039e-02  3.11261341e-02  3.00613567e-02  1.20154815e-02
   2.56375633e-02  1.57584827e-02 -6.39993697e-03 -1.57442652e-02
   1.96567294e-03 -2.37303991e-02 -6.02550339e-03 -5.17342277e-02
  -1.91127453e-02 -2.46121641e-03  5.45857809e-02 -4.41818982e-02
   1.01757236e-02  7.21007399e-03  3.00282938e-03  7.12637557e-03
  -1.38949007e-02  3.72921377e-02  1.10504767e-02 -1.42822824e-02
  -9.17732716e-03  4.04451713e-02  2.96372026e-02  1.67983565e-02
  -3.83269526e-02 -1.17610218e-02  1.28058232e-02  1.63279213e-02
   2.36346535e-02  5.30858152e-03  2.55259089e-02  1.19488826e-02
  -1.87247824e-02  6.72649145e-02 -8.23636190e-04 -1.06664263e-02
   3.14696170e-02 -4.04810011e-02 -2.75825448e-02 -2.37577334e-02
  -2.95800269e-02  3.63819823e-02  2.31900681e-02 -2.39697658e-02
   3.24416645e-02 -7.61335017e-03  3.11671998e-02 -3.87117639e-02
  -3.16825174e-02 -2.91967429e-02  2.68860012e-02 -2.54763626e-02
  -9.68131796e-03  3.10287345e-02  3.23465616e-02 -2.49170437e-02
   3.95515673e-02  3.89634892e-02  2.56091654e-02  3.56236137e-02
  -3.37486528e-02  2.92586349e-02  1.79069843e-02 -3.20713259e-02
   1.63785052e-02 -2.38901973e-02 -6.50509610e-04 -3.15418392e-02
  -3.69631238e-02  1.06635187e-02  3.17191072e-02  2.94910502e-02
  -1.33644547e-02  2.87817959e-02 -2.85827592e-02 -9.52865835e-03
  -3.12962011e-02 -4.46828380e-02  4.44911160e-02  2.80184653e-02
   3.50721776e-02 -3.58357914e-02 -1.05715347e-02 -2.76786685e-02
  -2.69943960e-02  1.12451278e-02  2.53162719e-02 -2.09943708e-02
   2.86835991e-02  2.24294215e-02 -1.32285543e-02 -1.97400432e-02
   3.36468481e-02  3.73660438e-02 -3.53717059e-02 -3.54028419e-02
   4.55496088e-03 -4.31602001e-02  3.75899114e-02  2.86244377e-02
   2.52193194e-02 -3.80341411e-02 -3.76469530e-02  3.99104655e-02
   1.16908876e-02 -2.66145840e-02 -3.34487185e-02  3.96337621e-02
  -3.21162790e-02  3.54787372e-02  2.60240342e-02  2.78415866e-02
   2.87904069e-02 -1.46367308e-03  2.21392997e-02 -1.58013329e-02]]
sequential/gru_1/kernel:0
(80, 300)
[[ 0.00114625 -0.00125652  0.07518568 ... -0.13643536 -0.03286739
  -0.06810352]
 [ 0.03490454 -0.02846684 -0.11845757 ... -0.02490592  0.10983822
  -0.02178128]
 [-0.00743327 -0.01439709  0.01176788 ... -0.08931898 -0.06521364
   0.04438988]
 ...
 [-0.00868702 -0.07688203 -0.03357034 ... -0.12009064  0.06463256
  -0.01067672]
 [-0.07513104 -0.01217166  0.11295465 ...  0.04113701  0.12066786
  -0.10172931]
 [ 0.06306277 -0.03374967  0.01489345 ... -0.05012399 -0.034486
   0.02843349]]
sequential/gru_1/recurrent_kernel:0
(100, 300)
[[ 0.09497066 -0.15082775 -0.10219745 ... -0.07362539  0.01109316
  -0.01773505]
 [-0.04100579  0.04891967 -0.12340725 ... -0.09015065 -0.05768171
  -0.06609942]
 [-0.01455116 -0.0182098  -0.11748546 ...  0.00021187  0.14819789
  -0.0155697 ]
 ...
 [ 0.02594296  0.02388718 -0.0735409  ... -0.01251858  0.01780609
   0.01146908]
 [ 0.09373112  0.01034664  0.06696031 ... -0.07282702  0.05889093
   0.06629197]
 [-0.03600711  0.04704396  0.06774618 ...  0.09784558  0.00322369
   0.0269161 ]]
sequential/gru_1/bias:0
(2, 300)
[[ 0.11234373  0.05012218 -0.00812464  0.16975258  0.13440111  0.05239555
   0.08673344  0.00505687  0.07782659  0.16587006  0.07088996  0.11723337
   0.25950497  0.06031741 -0.00105955  0.14911346  0.09958791  0.00263898
   0.15904942  0.08668964  0.05372661  0.05167268  0.07956743  0.12108503
  -0.01671996  0.13925414  0.1446103   0.15736566  0.13012603  0.07779375
   0.2941515  -0.01686483  0.10418411  0.06612438  0.07247358  0.06560406
   0.13375199  0.06379094  0.07718768  0.06656385  0.05503986 -0.00148003
   0.19526407  0.22927749  0.10173185  0.10862715  0.09384786  0.11930546
   0.04551974  0.058926    0.06668143  0.15401495  0.05393914  0.09780882
   0.04959757  0.07526743  0.05646517  0.08233559  0.03671151  0.07152235
   0.22813517  0.05512264  0.02353724  0.05864511  0.04909168  0.05518863
   0.04252614  0.04254579  0.05654268  0.04026464  0.10957815  0.08100171
   0.219046    0.1805929   0.06547882  0.15821451  0.18915239  0.17177245
   0.02736324  0.13686159  0.02295252  0.10907201  0.06052975  0.20302357
   0.12495793  0.12814027  0.15267587  0.05303367  0.06740826  0.03012805
   0.09479902  0.09101124  0.00170407  0.1995739   0.17424776  0.02586247
   0.03334584  0.04226198  0.08161678  0.02386491 -0.0276236  -0.02685424
  -0.02119804 -0.03217086 -0.04322162 -0.08086186 -0.10249957 -0.03655574
  -0.03831714 -0.11635123 -0.05337649 -0.00703515 -0.0272944  -0.03864013
  -0.10594278 -0.02093655 -0.029762   -0.01893411 -0.04239789 -0.03814803
  -0.01856457 -0.05623651 -0.02033296 -0.03081303 -0.04319433 -0.03090834
  -0.06961755 -0.01633906 -0.00525    -0.04060684 -0.05110715 -0.03057766
  -0.01316986 -0.10668856 -0.07206038 -0.07768463 -0.02925288 -0.03185106
  -0.05732223 -0.07958116 -0.00968621 -0.04869126 -0.00728351 -0.01464691
  -0.02925982 -0.04303969 -0.03414557 -0.0111382  -0.07283603 -0.01319423
  -0.04549844 -0.07781762 -0.05769943 -0.02797218 -0.07842988 -0.02755317
  -0.04607159 -0.01224141 -0.06070086 -0.08849858 -0.01313841 -0.02625908
  -0.05070034  0.00760661 -0.02152691 -0.04249573 -0.05519115 -0.05502521
  -0.01759844 -0.04655944 -0.0609877  -0.06446925 -0.05859631 -0.01905473
  -0.09858003 -0.06009148 -0.06180921 -0.05928142 -0.13668351 -0.06690941
  -0.04018917 -0.04291584 -0.08332137 -0.0052681  -0.05922063 -0.0361543
  -0.01233438 -0.07559074 -0.02065138 -0.102192   -0.03405799 -0.12678589
  -0.05852162 -0.06111064 -0.01026891 -0.04328475 -0.03007406 -0.05760569
  -0.05129325 -0.05958005  0.01570356  0.00857203  0.01461175 -0.01339963
  -0.01167843  0.01592715  0.01499025 -0.01996382 -0.01890142  0.02087997
  -0.01434175  0.01245104  0.02021237 -0.01197231 -0.01387707 -0.00892089
   0.01120771 -0.01126895  0.02023455  0.0197838  -0.00932012  0.01481432
  -0.00929372  0.00667151  0.01336394 -0.01107945  0.01887799 -0.01859339
  -0.00968837 -0.0123394   0.01267911 -0.00980174  0.01598514  0.01565776
  -0.01647299  0.01950936 -0.01603628 -0.01407428 -0.00956664  0.01569898
   0.01355364 -0.01094533  0.01077872 -0.01314865  0.01224831 -0.01230167
  -0.00929836 -0.01705557  0.0183233  -0.01252194 -0.01110835 -0.01353531
  -0.00717171 -0.01505191  0.0143092  -0.01043148 -0.00950644 -0.00900155
   0.02080823  0.01480044 -0.02166379 -0.01481115 -0.01143764  0.00542467
   0.01067333  0.01102943  0.01991947  0.01835305 -0.0092988   0.01798119
   0.00924295  0.00994211  0.01185985 -0.01193354  0.01693388 -0.01305769
  -0.00883309 -0.01107873  0.01850939 -0.00966354  0.01833914 -0.00607219
   0.01998108  0.01172621 -0.01197911 -0.02193598 -0.00854588  0.01555187
  -0.00889507  0.01389937 -0.01406611  0.01237633 -0.01927666 -0.00754169
  -0.01380224 -0.01346913  0.01227317  0.00874911 -0.01778084 -0.01081861]
 [ 0.11234373  0.05012218 -0.00812464  0.16975258  0.13440111  0.05239555
   0.08673344  0.00505687  0.07782659  0.16587006  0.07088996  0.11723337
   0.25950497  0.06031741 -0.00105955  0.14911346  0.09958791  0.00263898
   0.15904942  0.08668964  0.05372661  0.05167268  0.07956743  0.12108503
  -0.01671996  0.13925414  0.1446103   0.15736566  0.13012603  0.07779375
   0.2941515  -0.01686483  0.10418411  0.06612438  0.07247358  0.06560406
   0.13375199  0.06379094  0.07718768  0.06656385  0.05503986 -0.00148003
   0.19526407  0.22927749  0.10173185  0.10862715  0.09384786  0.11930546
   0.04551974  0.058926    0.06668143  0.15401495  0.05393914  0.09780882
   0.04959757  0.07526743  0.05646517  0.08233559  0.03671151  0.07152235
   0.22813517  0.05512264  0.02353724  0.05864511  0.04909168  0.05518863
   0.04252614  0.04254579  0.05654268  0.04026464  0.10957815  0.08100171
   0.219046    0.1805929   0.06547882  0.15821451  0.18915239  0.17177245
   0.02736324  0.13686159  0.02295252  0.10907201  0.06052975  0.20302357
   0.12495793  0.12814027  0.15267587  0.05303367  0.06740826  0.03012805
   0.09479902  0.09101124  0.00170407  0.1995739   0.17424776  0.02586247
   0.03334584  0.04226198  0.08161678  0.02386491 -0.0276236  -0.02685424
  -0.02119804 -0.03217086 -0.04322162 -0.08086186 -0.10249957 -0.03655574
  -0.03831714 -0.11635123 -0.05337649 -0.00703515 -0.0272944  -0.03864013
  -0.10594278 -0.02093655 -0.029762   -0.01893411 -0.04239789 -0.03814803
  -0.01856457 -0.05623651 -0.02033296 -0.03081303 -0.04319433 -0.03090834
  -0.06961755 -0.01633906 -0.00525    -0.04060684 -0.05110715 -0.03057766
  -0.01316986 -0.10668856 -0.07206038 -0.07768463 -0.02925288 -0.03185106
  -0.05732223 -0.07958116 -0.00968621 -0.04869126 -0.00728351 -0.01464691
  -0.02925982 -0.04303969 -0.03414557 -0.0111382  -0.07283603 -0.01319423
  -0.04549844 -0.07781762 -0.05769943 -0.02797218 -0.07842988 -0.02755317
  -0.04607159 -0.01224141 -0.06070086 -0.08849858 -0.01313841 -0.02625908
  -0.05070034  0.00760661 -0.02152691 -0.04249573 -0.05519115 -0.05502521
  -0.01759844 -0.04655944 -0.0609877  -0.06446925 -0.05859631 -0.01905473
  -0.09858003 -0.06009148 -0.06180921 -0.05928142 -0.13668351 -0.06690941
  -0.04018917 -0.04291584 -0.08332137 -0.0052681  -0.05922063 -0.0361543
  -0.01233438 -0.07559074 -0.02065138 -0.102192   -0.03405799 -0.12678589
  -0.05852162 -0.06111064 -0.01026891 -0.04328475 -0.03007406 -0.05760569
  -0.05129325 -0.05958005  0.0146158   0.00763215  0.01393261 -0.01181684
  -0.01192738  0.01683204  0.01543033 -0.01939793 -0.01782818  0.01995246
  -0.0138393   0.0114876   0.01912748 -0.01144197 -0.01341386 -0.00766625
   0.00835216 -0.01110531  0.02049937  0.01962187 -0.00867776  0.01534627
  -0.00890673  0.00473032  0.01316063 -0.0099839   0.01792875 -0.01760922
  -0.00888072 -0.01301809  0.012326   -0.00887153  0.0151782   0.01537289
  -0.01605872  0.01966527 -0.01487249 -0.01471315 -0.00908482  0.01503831
   0.01282393 -0.00930333  0.00997857 -0.01128924  0.01265455 -0.01278707
  -0.00895439 -0.01584159  0.01677978 -0.0115497  -0.01065215 -0.01306223
  -0.00653262 -0.01585836  0.01528963 -0.00982891 -0.00926171 -0.00843551
   0.02095135  0.01476684 -0.02059914 -0.01393372 -0.0111205   0.00515282
   0.00952059  0.01178957  0.01803442  0.01713368 -0.00969243  0.01790705
   0.00835758  0.00989038  0.01148396 -0.01145877  0.01604593 -0.01341093
  -0.00930035 -0.01152169  0.02017863 -0.01055597  0.01829522 -0.0050915
   0.02007469  0.0115958  -0.01212194 -0.02116612 -0.00813619  0.01384653
  -0.00730927  0.01376342 -0.01350077  0.01027569 -0.01855415 -0.00719923
  -0.01242411 -0.01374184  0.01266903  0.0087898  -0.01756315 -0.01109684]]
sequential/dense/kernel:0
(100, 1)
[[ 0.07541471]
 [ 0.1500499 ]
 [ 0.0811312 ]
 [-0.1127434 ]
 [-0.16221571]
 [ 0.16579784]
 [ 0.13131776]
 [-0.06815112]
 [-0.07580724]
 [ 0.08482353]
 [-0.10867029]
 [ 0.08747973]
 [ 0.05843754]
 [-0.12265339]
 [-0.16446666]
 [-0.06920415]
 [ 0.07959101]
 [-0.19904852]
 [ 0.07752154]
 [ 0.23212576]
 [-0.13601375]
 [ 0.17044859]
 [-0.07949154]
 [ 0.05579705]
 [ 0.14842813]
 [-0.08035446]
 [ 0.0863573 ]
 [-0.05112891]
 [-0.06727607]
 [-0.18835504]
 [ 0.1073914 ]
 [-0.0893366 ]
 [ 0.06563886]
 [ 0.10391849]
 [-0.13887557]
 [ 0.10758182]
 [-0.1165159 ]
 [-0.15123633]
 [-0.17030728]
 [ 0.08762039]
 [ 0.0845817 ]
 [-0.10308401]
 [ 0.0953209 ]
 [-0.05160383]
 [ 0.1805119 ]
 [-0.21621938]
 [-0.1906658 ]
 [-0.0671081 ]
 [ 0.10736506]
 [-0.09562358]
 [-0.14893275]
 [-0.13456844]
 [-0.16070022]
 [-0.2003118 ]
 [ 0.15651171]
 [-0.13533415]
 [-0.21010949]
 [-0.07449967]
 [ 0.09362473]
 [ 0.10868595]
 [-0.04516184]
 [-0.08567531]
 [-0.11518171]
 [-0.07526726]
 [ 0.09452358]
 [ 0.16791138]
 [ 0.0772456 ]
 [ 0.07608709]
 [-0.15293697]
 [ 0.1891293 ]
 [ 0.16615683]
 [ 0.19052556]
 [ 0.10612328]
 [-0.12297955]
 [ 0.11953515]
 [-0.14110559]
 [-0.18119733]
 [-0.1889022 ]
 [ 0.12363709]
 [-0.20747529]
 [ 0.08988628]
 [-0.13955036]
 [ 0.11639994]
 [ 0.1890565 ]
 [-0.15344396]
 [-0.07342146]
 [-0.18261807]
 [ 0.09931388]
 [-0.08912539]
 [ 0.11450928]
 [-0.22152475]
 [ 0.12402593]
 [-0.07761471]
 [-0.17179166]
 [-0.07755224]
 [-0.11089137]
 [ 0.149321  ]
 [ 0.20423177]
 [-0.13494056]
 [-0.18337315]]
sequential/dense/bias:0
(1,)
[0.2396977]
