sequential/gru/kernel:0
(1, 240)
[[-5.90995848e-01 -1.09079368e-01 -4.37904865e-01 -8.00799072e-01
  -6.18344843e-01 -6.88392341e-01  2.12678030e-01 -9.73589003e-01
  -5.16648054e-01 -9.11301672e-01 -5.26988566e-01 -5.54637492e-01
  -6.40518427e-01 -7.44288802e-01 -4.17239219e-01 -9.58905637e-01
  -8.58526111e-01 -6.51859105e-01 -7.01933086e-01 -7.36788988e-01
  -4.72087950e-01 -6.61873996e-01 -8.37200046e-01 -8.73009324e-01
  -1.00266516e+00 -7.13092268e-01 -5.71301222e-01 -7.96774685e-01
  -7.14121640e-01 -7.88370550e-01 -7.89631605e-01 -4.89214987e-01
  -6.24110997e-01 -2.57881761e-01 -8.27786565e-01 -4.97056007e-01
  -7.07770586e-01 -9.92486179e-01 -6.79105461e-01 -6.47202909e-01
  -6.21430635e-01 -8.05497169e-01 -1.06509042e+00 -6.03528559e-01
  -7.34383225e-01 -4.01856810e-01 -8.62087011e-01 -6.79424465e-01
  -6.87535822e-01 -9.36348379e-01 -6.70068741e-01 -7.64474452e-01
  -9.07696545e-01 -8.98524642e-01 -5.43543816e-01 -6.85774684e-01
  -6.30771518e-01 -4.50202197e-01 -7.07168758e-01 -5.31156898e-01
  -7.86647320e-01 -8.18139017e-01 -9.14632738e-01 -6.40184283e-01
  -8.70200753e-01 -2.08192468e-02 -7.91120410e-01 -7.76027679e-01
  -8.40020120e-01 -3.41896415e-01 -8.46780956e-01 -8.34223032e-01
  -6.19820654e-01 -7.23163068e-01 -7.68980920e-01 -7.43125200e-01
  -5.62573314e-01 -6.52902126e-01 -6.54714882e-01 -7.56442308e-01
   4.20900062e-02  1.40748126e-02  1.26070723e-01 -4.29239087e-02
  -4.68217544e-02  9.57351774e-02  7.36685917e-02 -1.85008511e-01
   9.39154550e-02 -1.51846290e-01 -4.39316444e-02  1.11292340e-01
  -1.54530257e-01 -1.75597727e-01  6.06579483e-02 -1.69176325e-01
  -5.96602187e-02  1.33148313e-01 -1.56535327e-01  9.97223854e-02
  -4.37960178e-02  5.84342740e-02 -5.62110581e-02  4.54991497e-02
  -1.21907279e-01 -6.23960085e-02  8.87242854e-02 -5.44105992e-02
   1.89700462e-02  9.75654498e-02  7.12338276e-03  4.30732779e-02
   4.82215770e-02  1.31658897e-01  4.64172587e-02  6.10213494e-04
  -1.79382578e-01 -8.30354020e-02 -1.36132941e-01 -1.13865569e-01
   1.06150340e-02  8.00367817e-02  1.13907531e-01 -6.42860532e-02
   1.39911063e-02  7.07280263e-02  3.87719013e-02  3.89254605e-03
  -9.39915478e-02  6.48505092e-02 -1.92651138e-01 -7.67606422e-02
  -9.79683474e-02 -8.16063657e-02  6.72167316e-02 -1.60888024e-02
   9.69869494e-02 -1.72359094e-01  5.33438697e-02 -7.47671202e-02
  -9.42245722e-02 -9.45751518e-02 -1.13797486e-01  5.94581291e-02
  -1.44875631e-01  9.97036025e-02  1.11368999e-01 -2.83444673e-02
  -9.01510864e-02 -5.60737327e-02 -1.59584999e-01 -4.48583961e-02
   7.41189793e-02 -1.66986197e-01  9.34337899e-02  3.38536054e-02
   1.08023509e-01  5.92091382e-02 -3.47923376e-02  4.13819328e-02
   4.85985652e-02  3.88857983e-02  1.28468871e-01 -1.22516029e-01
  -6.69487789e-02  9.16996822e-02 -6.81363698e-03  8.95077214e-02
  -3.54471058e-02 -7.83468112e-02 -5.44221178e-02  4.64965999e-02
   1.29028812e-01 -6.72313496e-02 -1.64730158e-02  9.85651687e-02
  -7.18684420e-02 -5.57778142e-02  1.36422873e-01  1.40138194e-01
  -1.24896184e-01  6.73802644e-02 -8.53380263e-02  1.34500444e-01
   9.67448130e-02 -7.73867294e-02  8.79164711e-02  6.19417466e-02
   1.31507993e-01 -1.07351959e-01 -1.49059325e-01  6.50175586e-02
   1.07112646e-01  1.00333206e-02 -9.31574255e-02  4.14837971e-02
   6.70620054e-02 -1.00469820e-01  1.11691386e-01  4.33545187e-02
   6.36776090e-02  1.30394086e-01 -1.28484175e-01 -7.36317262e-02
  -9.58594829e-02 -1.32811312e-02 -7.38951042e-02  5.33596389e-02
   1.19441353e-01 -7.28450418e-02 -9.70712230e-02 -1.04502521e-01
   1.34441376e-01 -1.21776104e-01  5.49071133e-02  8.99070501e-02
  -6.68218508e-02  5.33579551e-02 -1.10956244e-01 -4.05861214e-02
   1.30439430e-01  1.13521762e-01  5.62536716e-02 -5.68322763e-02
  -1.00236923e-01 -1.52321495e-02 -1.33065835e-01  8.17963406e-02
  -8.60449523e-02  1.03571363e-01  7.99530670e-02 -1.04381181e-01
   9.69709978e-02 -8.60911384e-02 -3.64811271e-02 -1.27428740e-01
   9.95491371e-02 -1.31214902e-01 -6.74820244e-02 -1.17314406e-01]]
sequential/gru/recurrent_kernel:0
(80, 240)
[[ 0.04460284 -0.03686325 -0.16003798 ...  0.14212848  0.13169803
  -0.019633  ]
 [ 0.12087651  0.01685694  0.1585811  ... -0.07429323 -0.0168025
  -0.08937693]
 [-0.18100165 -0.16107856 -0.15485175 ... -0.11345364  0.00235985
  -0.07683496]
 ...
 [ 0.13323486  0.09052592  0.2436945  ...  0.00501113 -0.00732051
   0.04453566]
 [-0.02367862 -0.03982705  0.020961   ...  0.04094337  0.05855775
  -0.01257265]
 [ 0.11525991  0.15010047  0.20971681 ...  0.05913132 -0.00965593
  -0.08464836]]
sequential/gru/bias:0
(2, 240)
[[-8.53594661e-01 -2.63844281e-01 -6.98875010e-01 -1.06372309e+00
  -8.95187557e-01 -1.07449389e+00  1.02762371e-01 -1.21673763e+00
  -9.63773668e-01 -1.03112829e+00 -6.86894476e-01 -8.04714799e-01
  -9.37698305e-01 -1.00809634e+00 -3.99936408e-01 -1.26109803e+00
  -1.16360223e+00 -9.15512562e-01 -9.42451179e-01 -8.74070942e-01
  -7.20728099e-01 -1.02744377e+00 -8.50384295e-01 -1.12635672e+00
  -1.18425298e+00 -1.01914847e+00 -8.29694808e-01 -9.81963277e-01
  -1.11380243e+00 -1.00071502e+00 -1.17306542e+00 -7.72170544e-01
  -9.20776606e-01 -1.77110940e-01 -1.30403495e+00 -7.92703211e-01
  -9.97208655e-01 -1.10030949e+00 -8.15725148e-01 -7.78131366e-01
  -8.20682585e-01 -1.00733888e+00 -1.23986864e+00 -7.93402314e-01
  -7.14446962e-01 -5.08080006e-01 -1.02966142e+00 -1.01610482e+00
  -7.75402725e-01 -1.17310596e+00 -1.01181364e+00 -9.42792475e-01
  -1.11857820e+00 -1.00651479e+00 -7.97162890e-01 -9.54519510e-01
  -9.29287314e-01 -6.97473407e-01 -1.09430611e+00 -8.80974293e-01
  -1.10034525e+00 -1.08641267e+00 -1.08744657e+00 -8.22365046e-01
  -1.08460641e+00 -7.99702257e-02 -1.06622899e+00 -8.77210796e-01
  -9.61365581e-01 -6.80008531e-01 -1.31588924e+00 -1.12291133e+00
  -7.40012228e-01 -1.00860739e+00 -9.16381121e-01 -1.13942039e+00
  -8.93344462e-01 -7.39317715e-01 -1.01385748e+00 -8.51684034e-01
  -6.41756784e-03  3.14474031e-02  2.02910546e-02  1.28856522e-03
   5.63925016e-04  3.64458864e-03  4.62432988e-02 -7.32121011e-03
  -2.47515049e-02 -1.75801367e-02 -2.98514427e-03 -2.85749882e-02
   1.30096963e-02 -3.98579352e-02  1.48242908e-02  6.89443294e-03
  -2.44773906e-02 -2.85902545e-02  3.17923427e-02  5.14638573e-02
   1.37188714e-02 -2.93494705e-02 -4.87045757e-03  2.84442175e-02
   7.15387380e-03  3.05306516e-03 -1.91542949e-03 -1.49585120e-02
   3.14813852e-02  1.07835308e-02  4.12634127e-02 -1.43645303e-02
   1.69269629e-02 -1.57201383e-02 -1.04354722e-02 -2.90748887e-02
  -2.04465054e-02 -2.64489627e-03  2.48746201e-02  3.19941249e-03
  -1.75749380e-02  4.04219031e-02  3.36826369e-02  3.39620095e-03
   4.83452546e-04  1.34155564e-02 -3.32163833e-02 -1.71324108e-02
   2.15119272e-02 -3.54109183e-02  2.62548663e-02  8.62016343e-03
   3.23769897e-02  4.66993032e-03 -7.98714533e-03 -4.75052465e-03
  -5.46648074e-03 -2.19170935e-02 -3.90544487e-03 -7.20152981e-04
   1.69839021e-02  2.33905893e-02 -2.81892605e-02 -8.77869129e-03
  -6.72843482e-04  2.42527127e-02  1.54569540e-02 -8.92656110e-03
  -1.63220670e-02  1.10768387e-02 -5.52533567e-03 -1.83262751e-02
   4.02043900e-03 -3.48989037e-03 -1.02143502e-02  1.70884747e-02
  -3.83789826e-04  2.37285183e-03 -9.66195134e-04  7.72906933e-03
  -1.09502217e-02 -1.17742633e-02 -3.46204042e-02  4.06003259e-02
   2.23509017e-02 -3.11922934e-02  2.81546800e-03 -3.06836143e-02
   1.18781133e-02  2.50064116e-02  1.61103494e-02 -1.65292043e-02
  -4.33325730e-02  2.10755840e-02  5.22594841e-04 -3.20850126e-02
   2.39186138e-02  1.78014934e-02 -4.05147746e-02 -4.01184410e-02
   3.42018828e-02 -2.22425386e-02  2.44246814e-02 -4.28848937e-02
  -2.90059149e-02  2.44256034e-02 -2.90295053e-02 -1.82653721e-02
  -3.84540409e-02  3.07939965e-02  4.59932834e-02 -2.06555706e-02
  -3.12211886e-02 -6.36465289e-03  2.84824017e-02 -1.18271913e-02
  -2.09560618e-02  3.16519402e-02 -3.10678650e-02 -1.20653175e-02
  -1.72702242e-02 -3.67630310e-02  3.86404395e-02  2.50590090e-02
   2.60341223e-02  3.72365583e-03  2.28180401e-02 -1.56481136e-02
  -3.66457328e-02  2.41783056e-02  3.01216785e-02  3.21355686e-02
  -4.29123566e-02  3.84464115e-02 -1.42682297e-02 -2.89990157e-02
   1.87805090e-02 -1.52264740e-02  3.34769934e-02  1.29737779e-02
  -3.60120870e-02 -3.48129906e-02 -1.92708168e-02  1.48438616e-02
   3.28985415e-02  3.48328357e-03  3.98504287e-02 -2.48343702e-02
   2.43997797e-02 -2.80094054e-02 -2.29031257e-02  3.19733657e-02
  -2.60268841e-02  2.84995884e-02  1.10384701e-02  3.60397249e-02
  -3.17991599e-02  3.70453522e-02  2.05034949e-02  3.72125432e-02]
 [-8.53594661e-01 -2.63844281e-01 -6.98875010e-01 -1.06372309e+00
  -8.95187557e-01 -1.07449389e+00  1.02762371e-01 -1.21673763e+00
  -9.63773668e-01 -1.03112829e+00 -6.86894476e-01 -8.04714799e-01
  -9.37698305e-01 -1.00809634e+00 -3.99936408e-01 -1.26109803e+00
  -1.16360223e+00 -9.15512562e-01 -9.42451179e-01 -8.74070942e-01
  -7.20728099e-01 -1.02744377e+00 -8.50384295e-01 -1.12635672e+00
  -1.18425298e+00 -1.01914847e+00 -8.29694808e-01 -9.81963277e-01
  -1.11380243e+00 -1.00071502e+00 -1.17306542e+00 -7.72170544e-01
  -9.20776606e-01 -1.77110940e-01 -1.30403495e+00 -7.92703211e-01
  -9.97208655e-01 -1.10030949e+00 -8.15725148e-01 -7.78131366e-01
  -8.20682585e-01 -1.00733888e+00 -1.23986864e+00 -7.93402314e-01
  -7.14446962e-01 -5.08080006e-01 -1.02966142e+00 -1.01610482e+00
  -7.75402725e-01 -1.17310596e+00 -1.01181364e+00 -9.42792475e-01
  -1.11857820e+00 -1.00651479e+00 -7.97162890e-01 -9.54519510e-01
  -9.29287314e-01 -6.97473407e-01 -1.09430611e+00 -8.80974293e-01
  -1.10034525e+00 -1.08641267e+00 -1.08744657e+00 -8.22365046e-01
  -1.08460641e+00 -7.99702257e-02 -1.06622899e+00 -8.77210796e-01
  -9.61365581e-01 -6.80008531e-01 -1.31588924e+00 -1.12291133e+00
  -7.40012228e-01 -1.00860739e+00 -9.16381121e-01 -1.13942039e+00
  -8.93344462e-01 -7.39317715e-01 -1.01385748e+00 -8.51684034e-01
  -6.41756784e-03  3.14474031e-02  2.02910546e-02  1.28856522e-03
   5.63925016e-04  3.64458864e-03  4.62432988e-02 -7.32121011e-03
  -2.47515049e-02 -1.75801367e-02 -2.98514427e-03 -2.85749882e-02
   1.30096963e-02 -3.98579352e-02  1.48242908e-02  6.89443294e-03
  -2.44773906e-02 -2.85902545e-02  3.17923427e-02  5.14638573e-02
   1.37188714e-02 -2.93494705e-02 -4.87045757e-03  2.84442175e-02
   7.15387380e-03  3.05306516e-03 -1.91542949e-03 -1.49585120e-02
   3.14813852e-02  1.07835308e-02  4.12634127e-02 -1.43645303e-02
   1.69269629e-02 -1.57201383e-02 -1.04354722e-02 -2.90748887e-02
  -2.04465054e-02 -2.64489627e-03  2.48746201e-02  3.19941249e-03
  -1.75749380e-02  4.04219031e-02  3.36826369e-02  3.39620095e-03
   4.83452546e-04  1.34155564e-02 -3.32163833e-02 -1.71324108e-02
   2.15119272e-02 -3.54109183e-02  2.62548663e-02  8.62016343e-03
   3.23769897e-02  4.66993032e-03 -7.98714533e-03 -4.75052465e-03
  -5.46648074e-03 -2.19170935e-02 -3.90544487e-03 -7.20152981e-04
   1.69839021e-02  2.33905893e-02 -2.81892605e-02 -8.77869129e-03
  -6.72843482e-04  2.42527127e-02  1.54569540e-02 -8.92656110e-03
  -1.63220670e-02  1.10768387e-02 -5.52533567e-03 -1.83262751e-02
   4.02043900e-03 -3.48989037e-03 -1.02143502e-02  1.70884747e-02
  -3.83789826e-04  2.37285183e-03 -9.66195134e-04  7.72906933e-03
  -1.07190059e-02 -1.24871396e-02 -3.44104283e-02  3.94759811e-02
   2.18835045e-02 -2.92162336e-02  3.08290171e-03 -3.21534127e-02
   1.10424682e-02  2.55499855e-02  1.64925996e-02 -1.54342130e-02
  -4.38753702e-02  2.18891911e-02 -1.68610364e-04 -3.32352072e-02
   2.27309745e-02  1.64091196e-02 -4.14615683e-02 -4.01693694e-02
   3.37548926e-02 -2.03149989e-02  2.36357432e-02 -4.21092585e-02
  -2.95777004e-02  2.43415348e-02 -2.73045972e-02 -1.80482473e-02
  -3.78941968e-02  2.87001878e-02  4.61930260e-02 -2.01553311e-02
  -3.07908319e-02 -6.02321466e-03  2.60011200e-02 -1.19980751e-02
  -2.17689183e-02  3.17006707e-02 -3.13903019e-02 -1.31618865e-02
  -1.69520210e-02 -3.67077775e-02  3.75358909e-02  2.47483198e-02
   2.55935304e-02  3.08300415e-03  2.08670329e-02 -1.53712947e-02
  -3.70420478e-02  2.16170382e-02  3.11245061e-02  3.21905501e-02
  -4.32706438e-02  3.78927700e-02 -1.36363916e-02 -2.85774060e-02
   1.74361505e-02 -1.66950729e-02  3.12551111e-02  1.35849342e-02
  -3.57220657e-02 -3.50834429e-02 -2.04004813e-02  1.39567265e-02
   3.37663926e-02  2.80833105e-03  3.84129286e-02 -2.46100817e-02
   2.44030673e-02 -2.73908302e-02 -2.45869588e-02  3.13676707e-02
  -2.51051914e-02  2.92110853e-02  9.82506853e-03  3.48090194e-02
  -2.97445394e-02  3.61635424e-02  2.02225428e-02  3.67678776e-02]]
sequential/gru_1/kernel:0
(80, 300)
[[ 0.06708828  0.1787528  -0.12674561 ... -0.09926014  0.15211675
  -0.0508048 ]
 [ 0.12899941 -0.1452057   0.09950165 ... -0.01029163  0.0524094
   0.04169411]
 [-0.10408813  0.11526121  0.04615025 ...  0.02198992  0.12553738
   0.02246738]
 ...
 [ 0.02600567 -0.09169754  0.04818304 ... -0.0915214   0.08552662
   0.06645738]
 [-0.04229502  0.03100952 -0.06030967 ... -0.00069859 -0.07920984
   0.06985044]
 [ 0.10718207  0.07135347 -0.10642387 ... -0.05141466 -0.08582181
  -0.01483022]]
sequential/gru_1/recurrent_kernel:0
(100, 300)
[[-0.00305838 -0.18437974 -0.02511143 ... -0.06692605  0.04999648
   0.11383136]
 [ 0.05067306 -0.1056143  -0.0386534  ... -0.00018663  0.0278296
   0.15884995]
 [-0.06706299  0.16962627  0.05617581 ...  0.05436962  0.06514338
  -0.04204026]
 ...
 [-0.02326295  0.0252234  -0.0272346  ...  0.05721822  0.07727218
  -0.00829357]
 [-0.05709423  0.10382643 -0.03164601 ... -0.05216682 -0.0098179
  -0.02501596]
 [-0.08423258  0.16331519 -0.01475885 ... -0.0221412   0.06992691
  -0.11007568]]
sequential/gru_1/bias:0
(2, 300)
[[ 0.11417732  0.1918007   0.07808317 -0.00227833  0.08397046  0.13997014
  -0.01834894  0.02999371  0.12577482  0.3038467   0.05375842 -0.01981837
  -0.01592278  0.05731518  0.05407744  0.21734005  0.129325    0.23977472
  -0.00411779 -0.02166199  0.0947162   0.11030769  0.08441901 -0.01193716
  -0.00475523  0.09598231  0.09463383  0.09373993  0.13451588  0.0061424
   0.10517145 -0.03607092  0.08110468  0.05309254 -0.0485311  -0.01032641
   0.10270383  0.19425523  0.04029518  0.13071144  0.04413699  0.02640202
   0.04258429  0.16623726  0.03761599  0.073782    0.10816622  0.05950333
   0.10299113  0.0842473   0.10691049  0.06913542  0.01974135 -0.01980504
  -0.04500116  0.1257859   0.10522585  0.03888492 -0.01056676  0.0421326
   0.2897149   0.06294733 -0.01128116  0.09988738 -0.0073595   0.04216082
   0.12022379  0.17671207  0.07890107  0.17541568  0.03434807 -0.01736028
   0.1721395   0.22685006  0.17236863  0.03542471  0.14745402  0.08616056
   0.02469925 -0.0270434   0.14170688  0.18713945 -0.09753032 -0.09233881
  -0.0212067   0.02549944  0.19333011  0.09584055  0.03564833  0.10592891
  -0.04506428  0.06538771  0.13637432  0.14041883  0.02176978 -0.01841245
  -0.04461734  0.02802999  0.12359234  0.08261823 -0.05094627 -0.06690608
  -0.04985618 -0.04743989 -0.02713968 -0.01738664 -0.028743   -0.00531701
  -0.08530689 -0.03383045 -0.05826157 -0.07015647 -0.03269485 -0.02946965
  -0.03087846 -0.04848121 -0.03522526 -0.08869716  0.02089449 -0.07525413
  -0.03935921 -0.04530519 -0.04919375 -0.02511739 -0.02289263 -0.0265839
  -0.08323083 -0.02993792 -0.04158751 -0.04013524 -0.01675756 -0.07202554
  -0.05491164 -0.03430092 -0.0372595  -0.06082572 -0.01919795 -0.01759261
  -0.03750062 -0.02276179 -0.0203872  -0.04210421 -0.01758882 -0.05035944
  -0.02510722 -0.08135036 -0.0170824  -0.03857538 -0.01490466 -0.05664454
  -0.07272914 -0.01905845 -0.05078517 -0.07968485 -0.08716238 -0.04939566
  -0.11659313 -0.04215172 -0.06614491 -0.12941743 -0.06403524 -0.03775901
  -0.02380794 -0.05802882 -0.0250816  -0.02666936 -0.04635646 -0.0361266
  -0.1282462  -0.02709299 -0.0264434  -0.06317063 -0.03603111 -0.05640363
  -0.02004753 -0.04605863 -0.04382259 -0.05990965 -0.01471288 -0.03787494
  -0.05021894 -0.01177747 -0.04303619 -0.07023994 -0.03204018 -0.01043036
  -0.07106639 -0.02415104 -0.03694347 -0.10834754 -0.04925207 -0.06077462
  -0.00762496 -0.02325001 -0.09065223 -0.04910592 -0.15173978 -0.02184261
   0.01012445 -0.00996789 -0.01800249 -0.00757451  0.01006079  0.01183483
   0.01267092 -0.00034344  0.01739156 -0.00972527 -0.01036058 -0.00506033
  -0.01738325  0.01705317 -0.02037989 -0.01771598  0.01566956 -0.01460887
  -0.0107453   0.0112802  -0.00146311 -0.01388678  0.00727356  0.00128078
   0.00960445 -0.01377168  0.01172555 -0.0104934  -0.02456251  0.00699053
   0.00876494 -0.0116756   0.01620327 -0.0175257  -0.01471977  0.01463052
   0.01554161 -0.01550573 -0.01523083 -0.02230452 -0.01181439  0.01962486
   0.00186602 -0.00434469  0.00870853 -0.01154978 -0.01096431 -0.01531991
   0.01904579 -0.01162233 -0.01485484 -0.01255307  0.01580933 -0.0186312
   0.00923525 -0.01261357  0.01262726 -0.01292803 -0.0109998   0.01147623
   0.01428459 -0.01067105 -0.00865524  0.01204907  0.00686586  0.02084162
  -0.01353445  0.01624878  0.00728313  0.0091515  -0.01828071  0.00919571
  -0.01757671  0.01876976  0.01315117  0.00947892 -0.00822131 -0.00816132
   0.01174547 -0.02175882 -0.01008717  0.01974906 -0.00885025 -0.00787415
  -0.01812325  0.01465211  0.0188677  -0.00710709  0.01525536  0.01327466
   0.00881038  0.01020706 -0.01485705 -0.02081264 -0.0130279  -0.01698296
   0.01970045 -0.01491971 -0.01659306  0.01530154  0.01230318  0.00944225]
 [ 0.11417732  0.1918007   0.07808317 -0.00227833  0.08397046  0.13997014
  -0.01834894  0.02999371  0.12577482  0.3038467   0.05375842 -0.01981837
  -0.01592278  0.05731518  0.05407744  0.21734005  0.129325    0.23977472
  -0.00411779 -0.02166199  0.0947162   0.11030769  0.08441901 -0.01193716
  -0.00475523  0.09598231  0.09463383  0.09373993  0.13451588  0.0061424
   0.10517145 -0.03607092  0.08110468  0.05309254 -0.0485311  -0.01032641
   0.10270383  0.19425523  0.04029518  0.13071144  0.04413699  0.02640202
   0.04258429  0.16623726  0.03761599  0.073782    0.10816622  0.05950333
   0.10299113  0.0842473   0.10691049  0.06913542  0.01974135 -0.01980504
  -0.04500116  0.1257859   0.10522585  0.03888492 -0.01056676  0.0421326
   0.2897149   0.06294733 -0.01128116  0.09988738 -0.0073595   0.04216082
   0.12022379  0.17671207  0.07890107  0.17541568  0.03434807 -0.01736028
   0.1721395   0.22685006  0.17236863  0.03542471  0.14745402  0.08616056
   0.02469925 -0.0270434   0.14170688  0.18713945 -0.09753032 -0.09233881
  -0.0212067   0.02549944  0.19333011  0.09584055  0.03564833  0.10592891
  -0.04506428  0.06538771  0.13637432  0.14041883  0.02176978 -0.01841245
  -0.04461734  0.02802999  0.12359234  0.08261823 -0.05094627 -0.06690608
  -0.04985618 -0.04743989 -0.02713968 -0.01738664 -0.028743   -0.00531701
  -0.08530689 -0.03383045 -0.05826157 -0.07015647 -0.03269485 -0.02946965
  -0.03087846 -0.04848121 -0.03522526 -0.08869716  0.02089449 -0.07525413
  -0.03935921 -0.04530519 -0.04919375 -0.02511739 -0.02289263 -0.0265839
  -0.08323083 -0.02993792 -0.04158751 -0.04013524 -0.01675756 -0.07202554
  -0.05491164 -0.03430092 -0.0372595  -0.06082572 -0.01919795 -0.01759261
  -0.03750062 -0.02276179 -0.0203872  -0.04210421 -0.01758882 -0.05035944
  -0.02510722 -0.08135036 -0.0170824  -0.03857538 -0.01490466 -0.05664454
  -0.07272914 -0.01905845 -0.05078517 -0.07968485 -0.08716238 -0.04939566
  -0.11659313 -0.04215172 -0.06614491 -0.12941743 -0.06403524 -0.03775901
  -0.02380794 -0.05802882 -0.0250816  -0.02666936 -0.04635646 -0.0361266
  -0.1282462  -0.02709299 -0.0264434  -0.06317063 -0.03603111 -0.05640363
  -0.02004753 -0.04605863 -0.04382259 -0.05990965 -0.01471288 -0.03787494
  -0.05021894 -0.01177747 -0.04303619 -0.07023994 -0.03204018 -0.01043036
  -0.07106639 -0.02415104 -0.03694347 -0.10834754 -0.04925207 -0.06077462
  -0.00762496 -0.02325001 -0.09065223 -0.04910592 -0.15173978 -0.02184261
   0.01012445 -0.00996789 -0.01840162 -0.00735075  0.00972807  0.01112012
   0.01271207 -0.00159845  0.01672466 -0.00893251 -0.0104165  -0.00433824
  -0.01814485  0.0157289  -0.02051672 -0.01746693  0.01648845 -0.01474469
  -0.01132283  0.01112543 -0.00080808 -0.01434448  0.00738424  0.00107489
   0.00989797 -0.01374899  0.01137155 -0.01024509 -0.02465882  0.00659262
   0.00797369 -0.01092151  0.01571427 -0.01763313 -0.01540057  0.01498621
   0.01398601 -0.01561408 -0.01602179 -0.02148036 -0.01139415  0.01786308
   0.00133125 -0.00318724  0.00823979 -0.0119162  -0.01042817 -0.0158072
   0.01859689 -0.01050511 -0.01388562 -0.0124472   0.01650546 -0.01725504
   0.00838563 -0.01165934  0.01317203 -0.01324768 -0.01010622  0.01124123
   0.01507224 -0.01101927 -0.00863007  0.01160641  0.00563067  0.01970619
  -0.01365516  0.01561248  0.00663114  0.00868783 -0.01924977  0.00893078
  -0.01806166  0.01812085  0.01332854  0.00867378 -0.008238   -0.00734193
   0.01115441 -0.02157658 -0.0092674   0.01847503 -0.00965022 -0.00738894
  -0.01780704  0.01405734  0.01867312 -0.00613344  0.01559809  0.01217959
   0.00943233  0.00998498 -0.01508647 -0.02077184 -0.01163492 -0.01591402
   0.02013633 -0.01480143 -0.01528112  0.01422805  0.01192617  0.00841097]]
sequential/dense/kernel:0
(100, 1)
[[-0.17148492]
 [-0.20010695]
 [ 0.1269099 ]
 [ 0.11552135]
 [ 0.08819296]
 [ 0.06585214]
 [ 0.08707621]
 [-0.10377726]
 [-0.14832325]
 [-0.18998283]
 [-0.10173649]
 [ 0.08660957]
 [-0.1753984 ]
 [-0.08308022]
 [ 0.17105757]
 [-0.18854792]
 [-0.19176275]
 [ 0.11762394]
 [ 0.07396495]
 [-0.14515477]
 [ 0.20162603]
 [ 0.10932589]
 [ 0.18981504]
 [-0.1161717 ]
 [ 0.12411685]
 [-0.10439095]
 [-0.08696706]
 [ 0.08973192]
 [ 0.11626789]
 [-0.12568311]
 [ 0.08279043]
 [-0.12773106]
 [-0.18081786]
 [ 0.19151135]
 [ 0.07284601]
 [-0.11204315]
 [-0.15071324]
 [-0.06700787]
 [-0.10570581]
 [ 0.07397386]
 [ 0.06608702]
 [-0.18985716]
 [ 0.09552485]
 [-0.20181046]
 [-0.06478967]
 [-0.18474682]
 [ 0.06618835]
 [-0.07677855]
 [-0.09380876]
 [-0.13823745]
 [ 0.19823305]
 [-0.06279764]
 [ 0.21128863]
 [-0.10828891]
 [ 0.18834482]
 [-0.17590252]
 [-0.18624473]
 [ 0.07227376]
 [ 0.2164052 ]
 [-0.18280028]
 [-0.19272989]
 [ 0.10835498]
 [ 0.09355838]
 [ 0.08036111]
 [-0.19203654]
 [ 0.09209387]
 [ 0.16278125]
 [ 0.15579028]
 [-0.12755951]
 [ 0.15990488]
 [-0.12048386]
 [ 0.07882609]
 [ 0.21886438]
 [ 0.14054559]
 [-0.1871236 ]
 [-0.11789273]
 [ 0.10550228]
 [-0.0693971 ]
 [-0.07750534]
 [ 0.07397165]
 [-0.16718087]
 [-0.07500122]
 [-0.07358703]
 [ 0.10151676]
 [ 0.07535093]
 [-0.0985333 ]
 [ 0.15320629]
 [ 0.08237755]
 [ 0.19517103]
 [ 0.18289165]
 [-0.16205528]
 [-0.10078553]
 [-0.06270085]
 [-0.06171823]
 [ 0.18503025]
 [-0.09337729]
 [-0.10354443]
 [ 0.06719196]
 [ 0.0765055 ]
 [ 0.07588395]]
sequential/dense/bias:0
(1,)
[0.22943199]
