sequential/lstm/kernel:0
(1, 320)
[[-6.66224584e-02  7.41844177e-02  5.48546128e-02  8.92056823e-02
  -2.45845895e-02  1.30003706e-01  6.81032836e-02 -5.66400737e-02
  -6.45614415e-02  1.18780509e-01 -7.81935379e-02  2.05510408e-01
   1.29680216e-01 -8.17286782e-03 -1.93858631e-02 -2.73684170e-02
  -3.45487520e-03 -3.53087299e-02 -4.68832813e-02  2.06290081e-01
   5.78410551e-02 -3.42260189e-02  8.79375711e-02  1.48854569e-01
   2.02683881e-01 -1.44242078e-01 -1.63042825e-02  1.38913803e-02
   1.19494833e-01  5.72978668e-02  4.13616687e-01  1.76302463e-01
   1.89019307e-01 -2.33294684e-02  5.15166283e-01 -3.93997058e-02
  -1.34075046e-01  1.17267080e-01 -8.54005739e-02  3.07878908e-02
   9.33940634e-02 -2.22120024e-02  1.98969757e-03  3.97813559e-01
   1.18747987e-01 -3.59083191e-02  2.24532604e-01 -4.93671708e-02
   7.07558468e-02 -3.50690335e-02  8.68935362e-02  4.29189056e-02
   1.49388224e-01  1.35492921e-01  2.31498808e-01  3.35414708e-02
  -1.23252414e-01 -8.79867896e-02  1.43801391e-01  6.25389636e-01
   2.94135094e-01 -7.54873678e-02  3.11418576e-03 -5.55297621e-02
   5.43051250e-02  2.24620000e-01 -3.63991968e-02  2.29954883e-01
  -5.46671897e-02  1.01430148e-01  1.34058043e-01  9.14959684e-02
  -1.01384073e-01  2.59750783e-01  3.86085697e-02  9.83845890e-02
   1.21303827e-01  9.29703489e-02  9.40295994e-01  1.16587408e-01
   8.39429200e-02  8.34162533e-03 -2.87965480e-02  5.95124587e-02
  -8.61815587e-02  6.36915490e-02  2.95594297e-02 -1.67578850e-02
   2.10453141e-02  6.83403686e-02 -8.52186829e-02 -6.73063248e-02
   3.63839120e-02  6.53713569e-02  1.49064641e-02 -1.19790226e-01
   1.53003465e-02  5.08042378e-03  2.89772339e-02 -1.07580818e-01
  -6.13258444e-02  1.03734590e-01  6.16578348e-02 -5.41344136e-02
  -4.74678166e-02 -1.48930982e-01  1.85867143e-03  4.59138192e-02
   9.86845195e-02 -1.22995369e-01 -1.11886702e-01  1.82148498e-02
  -1.53861970e-01  6.33699000e-02 -1.46273836e-01  9.90500003e-02
  -1.19060159e-01 -1.00609481e-01  7.11846128e-02 -3.26165929e-02
  -4.26006876e-02  1.18315816e-02 -1.03840142e-01 -1.90546289e-01
   1.88680515e-02  1.19345762e-01 -1.18873522e-01  2.22124271e-02
  -1.36432484e-01 -3.93226966e-02  1.45136118e-01  2.28193793e-02
  -1.30952954e-01 -9.93886665e-02 -9.69452187e-02 -5.46678603e-02
   1.02077462e-01  5.11486568e-02 -6.44148188e-03 -1.42487317e-01
   5.29702529e-02 -4.96258438e-02  5.43917343e-02  1.32093906e-01
  -4.15226072e-02  2.34353840e-02  9.45842043e-02  5.91000915e-02
  -4.90518138e-02 -4.86509092e-02 -1.19030043e-01  1.26782402e-01
   9.53781158e-02 -6.71984814e-03  5.99798225e-02  9.48733985e-02
   3.19621712e-02 -1.27578089e-02 -2.43048653e-01  1.17981602e-02
  -7.69397244e-02  9.25786793e-02  8.34019780e-02  1.09434307e-01
   6.46148983e-04 -6.87519535e-02 -8.10108408e-02  7.01863393e-02
   1.21796168e-01  3.52951959e-02 -5.31712584e-02  1.15231074e-01
   7.51617327e-02  8.66313875e-02  1.23364106e-01  1.27493128e-01
   1.28389105e-01  1.45907905e-02  6.50732592e-02  8.24597925e-02
  -9.49607939e-02 -8.27098936e-02 -3.38154770e-02  1.07921138e-01
   1.26458913e-01 -2.83066556e-02 -6.38197437e-02  1.12848431e-01
  -1.26009047e-01 -1.23401232e-01  1.46222144e-01  9.65019315e-02
   1.32141352e-01  2.56357826e-02  1.46529630e-01 -9.86533761e-02
  -1.36445221e-02  3.49998660e-02 -7.15270415e-02  5.58662973e-02
  -1.04472645e-01  9.34279263e-02 -1.04489028e-01  1.39403403e-01
   5.71625456e-02 -9.91983339e-02 -1.74001500e-01 -1.34168476e-01
  -1.31590754e-01  9.28241611e-02  6.51486963e-02  1.33875906e-01
   1.01392284e-01  5.54395057e-02  1.09771684e-01 -6.96423203e-02
  -7.80500099e-03  1.13999560e-01 -1.15276106e-01 -1.64299488e-01
   9.61652398e-02 -1.29019588e-01 -6.95216134e-02 -1.32754847e-01
  -1.23931944e-01 -1.50487125e-01 -1.01183407e-01 -1.68731004e-01
  -1.44902486e-02 -4.00318615e-02 -7.78806880e-02 -1.25405475e-01
   7.46115446e-02  8.07689726e-02 -5.71988486e-02  8.45831335e-02
  -1.13785766e-01 -1.03695393e-01 -1.87128082e-01  1.42042130e-01
  -5.71640208e-02  1.38625324e-01 -4.07639407e-02  1.27022102e-01
   9.44099277e-02  2.45086282e-01 -3.94479595e-02  1.65072128e-01
   2.00633436e-01 -1.23358734e-01  1.45464595e-02  1.64071247e-01
  -3.04099340e-02  4.23539877e-02  1.34038091e-01  9.94718522e-02
   1.15413748e-01  1.08713374e-01  1.46192670e-01  2.84987330e-01
   1.93620652e-01 -8.36950541e-03  1.43194780e-01  3.69706824e-02
   8.30688979e-03 -8.28073174e-03  2.48215478e-02  3.81807946e-02
  -5.67813776e-02  1.68721825e-01  2.74497181e-01  1.94414139e-01
   2.66958386e-01  1.52137220e-01  5.52293003e-01  1.36227533e-03
   2.73933671e-02  6.62791878e-02  9.88022909e-02  1.03182264e-01
   3.25385123e-01  1.52410701e-01 -2.40750406e-02  5.23390651e-01
   6.76442087e-02  1.35608643e-01  8.24753866e-02  3.32291573e-02
   1.00332558e-01 -7.24053383e-02  1.46103919e-01  1.65031761e-01
   5.50285652e-02  2.05051765e-01  2.41174296e-01 -7.08260462e-02
  -6.85736537e-02  7.95338452e-02  1.32030502e-01  7.03603029e-01
   3.98526847e-01 -1.24389440e-01  7.21428990e-02  3.04088872e-02
   7.54198954e-02  2.20912516e-01  7.73269832e-02  2.12557584e-01
   1.11884132e-01  1.27947047e-01  7.42830569e-03  1.04763553e-01
   5.21399938e-02  2.55813420e-01  1.15535848e-01  9.43359267e-03
   1.82699829e-01  5.88073321e-02  1.01524878e+00  3.88457589e-02]]
sequential/lstm/recurrent_kernel:0
(80, 320)
[[-0.06591382 -0.11169014 -0.00623754 ...  0.09121636 -0.3581113
  -0.00195292]
 [ 0.06900294 -0.00569917  0.05140824 ... -0.04248975  0.28426433
   0.03111564]
 [ 0.01884828 -0.04200226  0.00344342 ... -0.09621553  0.19048956
   0.00041042]
 ...
 [ 0.10755621 -0.05036487 -0.05024105 ... -0.03481895 -0.36744502
   0.01140914]
 [-0.05655786 -0.23632532 -0.00382711 ... -0.0273041  -0.3054048
  -0.02378717]
 [ 0.06793708  0.01691226  0.098342   ...  0.04591339  0.31560987
   0.06076129]]
sequential/lstm/bias:0
(320,)
[ 7.15321209e-03  4.52383012e-02  1.46459816e-02  1.13730945e-01
  4.79493570e-03  7.34113343e-03  4.59999824e-03  2.45341714e-02
  2.29098592e-02 -1.97391189e-03  2.65603438e-02  5.88329993e-02
  1.03466781e-02  3.98072749e-02  8.53843316e-02  6.80842027e-02
  9.62939207e-03 -3.57548613e-03  1.93472859e-03  3.75153609e-02
  8.72780755e-02  2.05005649e-02  6.65509421e-03  6.43253922e-02
  5.75202182e-02 -1.00797582e-02  1.67617984e-02  2.39212606e-02
  1.61021315e-02  9.24727023e-02  3.46401095e-01  4.28286307e-02
  1.80583015e-01  1.66765787e-02  4.64383662e-01  3.04258056e-02
 -4.68496382e-02  1.48856631e-02 -1.70928556e-02  6.69666799e-03
  1.01798780e-01  2.58736275e-02  1.60617922e-02  3.51142853e-01
  3.36134480e-03  7.32097169e-03  9.38807130e-02  4.20346633e-02
  9.53428671e-02  1.37834167e-02  7.47649651e-03  2.26226468e-02
  1.42499851e-02  2.36308649e-02  1.28038868e-01 -7.10677309e-03
 -6.93915365e-03 -1.12350378e-03  2.24499125e-02  7.49316514e-01
  1.81889966e-01 -1.06078025e-03  1.03502283e-02  3.49703478e-03
  9.48118791e-03  1.73105404e-01  4.99372231e-03  2.88070589e-01
 -4.07053478e-04  3.34943132e-03  2.36382056e-03  2.99517834e-03
  4.17105592e-04  9.37541574e-02  8.60064663e-03  1.00639882e-02
  7.00932741e-02 -1.21558621e-03  9.54650819e-01  2.47640852e-02
  9.87106800e-01  9.29799855e-01  9.87822711e-01  9.47864830e-01
  9.84888792e-01  9.22517896e-01  9.93695796e-01  9.23225820e-01
  9.62972105e-01  9.92260754e-01  9.89764571e-01  9.78145003e-01
  9.88229215e-01  9.84151840e-01  9.58718419e-01  9.61861432e-01
  9.81880367e-01  9.98739898e-01  9.89351034e-01  8.81112933e-01
  9.44835424e-01  9.76186693e-01  9.53734219e-01  9.70837176e-01
  9.73192275e-01  9.91343558e-01  9.61073518e-01  9.85722959e-01
  9.82357144e-01  9.54344213e-01  8.83253634e-01  9.54818666e-01
  9.11012113e-01  9.13999677e-01  7.98429489e-01  9.86105323e-01
  9.22998726e-01  9.84899819e-01  9.70576465e-01  9.92744744e-01
  9.44863260e-01  9.64893937e-01  9.79609489e-01  8.31315994e-01
  9.65554059e-01  9.75124657e-01  9.50393021e-01  9.74181116e-01
  9.58999336e-01  9.91893768e-01  9.31518972e-01  9.91039395e-01
  9.83882070e-01  9.35101986e-01  9.19488192e-01  9.75109518e-01
  9.90593314e-01  9.82113063e-01  9.68120992e-01  7.60135651e-01
  8.92962933e-01  9.92477477e-01  9.89783704e-01  9.80030000e-01
  9.89974439e-01  9.47397292e-01  9.93508577e-01  9.00783777e-01
  9.97134447e-01  9.96342242e-01  9.88077819e-01  9.88355160e-01
  9.87437665e-01  9.27956760e-01  9.97615457e-01  9.84895468e-01
  9.68548179e-01  9.89427269e-01  6.05642080e-01  9.86671448e-01
  2.91010831e-02 -2.62112226e-02 -2.95261052e-02 -4.10792194e-02
 -1.59163028e-02  1.82788502e-02  2.85570975e-02 -2.20216941e-02
 -3.29415165e-02 -1.43548204e-02  3.37419249e-02 -4.46886644e-02
 -2.45987643e-02 -3.14714983e-02 -4.54331152e-02 -4.49507721e-02
 -4.35857736e-02 -8.10707454e-03 -2.04491615e-02 -2.79485360e-02
  2.90779658e-02  2.99908072e-02  1.43851005e-02 -3.94097641e-02
 -4.52365242e-02  2.02696342e-02  1.99788045e-02 -3.83779630e-02
  4.66300175e-02  4.42279130e-02 -5.18222190e-02 -3.05051692e-02
 -5.10029383e-02 -1.12634350e-03 -4.98998053e-02  3.75690572e-02
  4.81944531e-03 -4.45427420e-03  1.29935630e-02 -2.40915734e-02
  3.49270962e-02 -3.09392288e-02  4.31188233e-02 -4.85006869e-02
 -2.03828830e-02  3.79225500e-02  5.69375381e-02  4.28236872e-02
  4.56300192e-02 -3.27260010e-02 -1.45002082e-02 -4.44382802e-02
 -3.69505510e-02 -2.12281439e-02 -3.86466756e-02  2.25890689e-02
  8.69057432e-04 -4.42370437e-02  5.00690751e-02  5.99821322e-02
 -3.27578411e-02  2.99443547e-02  3.06397378e-02  4.38738205e-02
  3.55322659e-02  5.11642396e-02  2.83241514e-02  5.64838462e-02
  2.78124958e-03  5.98852383e-03  2.90132985e-02  3.75241414e-02
 -2.74458006e-02 -2.33613532e-02  1.49433678e-02 -2.70361472e-02
  4.40626703e-02  3.32257338e-02  5.62798791e-02 -4.98545095e-02
  7.81477056e-03  4.26393040e-02  1.55995805e-02  1.11596994e-01
  4.01983550e-03 -8.07900738e-04  5.08523732e-03  1.72467735e-02
  1.72138941e-02 -1.32619299e-03  2.86040362e-02  5.79293929e-02
  1.12066790e-02  3.87619212e-02  8.29505622e-02  6.48353696e-02
  8.25323351e-03 -3.82291130e-03  1.83298325e-04  2.60202438e-02
  8.13821107e-02  1.99251305e-02  1.49495143e-03  6.37534559e-02
  5.95713183e-02 -9.26151406e-03  1.62283294e-02  2.35769115e-02
  1.80639960e-02  9.08360630e-02  3.47158432e-01  3.98203097e-02
  1.77068070e-01  1.20756486e-02  4.56568390e-01  3.01561411e-02
 -4.57862504e-02  1.43383695e-02 -1.72785055e-02  5.72054181e-03
  9.13542062e-02  2.26371847e-02  1.65776759e-02  3.34620625e-01
  3.40792444e-03  5.33076888e-03  9.47819650e-02  4.06224020e-02
  9.28420648e-02  1.42230559e-02 -6.50164846e-04  2.05203388e-02
  1.42041901e-02  1.95661262e-02  1.23268321e-01 -5.98956784e-03
 -6.81683468e-03 -2.16482044e-03  2.17212345e-02  7.37360179e-01
  1.71586275e-01 -4.65800345e-04  1.17835319e-02  2.69138697e-03
  8.77304468e-03  1.71252653e-01  4.22072131e-03  2.87541240e-01
 -1.52396678e-03  2.80594174e-03  3.49347154e-03  2.71711894e-03
 -6.07926166e-04  9.04824361e-02  7.34828319e-03  1.04870349e-02
  6.66249022e-02 -1.34948583e-03  9.38105226e-01  2.51592528e-02]
sequential/lstm_1/kernel:0
(80, 400)
[[ 0.07537092 -0.1252513   0.05385009 ... -0.01963334  0.03681779
   0.05365397]
 [ 0.10328069  0.04022404  0.05772259 ...  0.0910675  -0.03773857
   0.1099085 ]
 [-0.02448578  0.0750289   0.07738183 ... -0.06760684 -0.0950662
   0.06436387]
 ...
 [ 0.05654775 -0.1180411  -0.00251593 ...  0.0654299  -0.05360495
   0.05466077]
 [ 0.02350223 -0.09033661 -0.1156906  ... -0.31139767 -0.13707921
  -0.39262158]
 [ 0.02239471  0.07216256 -0.01434423 ...  0.04682484  0.08548546
  -0.0891595 ]]
sequential/lstm_1/recurrent_kernel:0
(100, 400)
[[ 0.02329285 -0.06503667 -0.00073574 ... -0.00085198  0.06071947
   0.01408736]
 [-0.01641701  0.06563007  0.03468918 ... -0.02754715 -0.08395578
   0.03204619]
 [ 0.05171018 -0.10819347 -0.08919154 ...  0.10923158 -0.01113653
   0.01917936]
 ...
 [-0.03703455  0.00201814  0.02425395 ... -0.02684823  0.01582788
   0.0020325 ]
 [ 0.06741662  0.01122993 -0.08894401 ... -0.02116633 -0.07979529
  -0.02290725]
 [ 0.01711851 -0.08946208  0.09581507 ...  0.06044561  0.04475715
   0.08607693]]
sequential/lstm_1/bias:0
(400,)
[-1.31468708e-03  6.92563429e-02  6.88095158e-03  1.41948287e-03
  4.00945451e-03 -1.55132469e-02  1.40947313e-03  2.73096934e-03
 -8.92509648e-04 -1.30773885e-02  1.05280109e-01  1.80661138e-02
  2.43285089e-03  1.46604599e-02  1.39498943e-02 -1.84409961e-03
 -1.21676689e-02  5.77882957e-03  2.13438608e-02  1.79133698e-04
 -5.24747185e-04 -1.54032940e-02  2.75813602e-03 -2.21128706e-02
  3.46837193e-02 -3.17709637e-03 -1.70262775e-03  3.04869935e-03
 -6.54057367e-03  2.63900775e-02 -2.71898657e-02 -1.74774397e-02
 -6.68376498e-03  5.27752936e-03 -1.42905945e-02  1.58456340e-02
 -1.30913677e-02 -3.03972745e-03  1.13085620e-02  4.18789033e-03
  2.77292595e-04 -7.35986419e-03 -9.36006010e-03  6.39860169e-04
  7.09112128e-03 -6.58303639e-03  8.17120075e-03 -1.48660084e-02
 -1.78738665e-02  1.24447898e-03  2.12525558e-02 -5.91659965e-03
  9.52170324e-03 -7.86281843e-03  2.31210627e-02 -1.12779774e-02
 -1.63739678e-02 -3.94887524e-03 -3.48511897e-02 -5.21979702e-04
 -6.27928472e-04 -3.25125121e-02 -9.38532688e-03 -1.87617224e-02
 -4.35231673e-03 -6.34282827e-03  1.01272771e-02  8.94402899e-03
  4.33263276e-03 -9.82645527e-03  8.09380319e-03  9.75054316e-03
 -1.04685593e-02  2.27306783e-03 -2.74555553e-02 -7.85232894e-03
 -4.90261102e-03 -1.13462028e-03 -1.31906122e-02  9.37331561e-03
  7.61779537e-03  1.32395397e-03 -1.05916075e-02  1.58790369e-02
  5.48122115e-02  9.22964478e-04 -2.80428398e-02  8.69870093e-03
 -7.44553516e-04 -1.89022552e-02  9.85079072e-03  9.83888656e-03
  4.87078317e-02 -1.35292998e-03 -1.01542771e-02  2.11135950e-02
 -9.20770410e-03 -1.99989714e-02  3.61125963e-03  6.33692788e-03
  9.67006445e-01  9.12537038e-01  9.98097003e-01  9.87278461e-01
  9.93159115e-01  9.52832639e-01  9.95716393e-01  9.89717841e-01
  9.93659675e-01  9.80120420e-01  8.78435075e-01  9.92133737e-01
  9.98481810e-01  1.00162053e+00  9.74229872e-01  9.82286215e-01
  9.43721890e-01  1.00156248e+00  9.52310979e-01  9.98773336e-01
  1.00419009e+00  9.29532290e-01  9.80552256e-01  9.79289353e-01
  9.18481767e-01  9.36117887e-01  9.98589814e-01  9.24929857e-01
  9.90133524e-01  9.43040133e-01  9.59209323e-01  9.73341584e-01
  9.79756594e-01  1.00419044e+00  9.61267591e-01  1.00594616e+00
  9.71869171e-01  9.91311193e-01  9.93598640e-01  9.76119995e-01
  1.00156724e+00  9.87793505e-01  9.73529279e-01  9.97253478e-01
  9.86872494e-01  9.38728333e-01  9.98269677e-01  9.77692783e-01
  9.67272520e-01  9.98127043e-01  9.39637780e-01  9.87475634e-01
  9.69361007e-01  9.80139256e-01  9.14594650e-01  9.39459682e-01
  9.76345837e-01  9.52836752e-01  9.38037694e-01  9.93151665e-01
  9.99157488e-01  9.73357022e-01  9.86508965e-01  9.72108901e-01
  9.84113932e-01  9.34309721e-01  9.74868596e-01  1.00193381e+00
  9.80755806e-01  9.82275844e-01  9.69168305e-01  9.67027605e-01
  9.84693706e-01  9.96527493e-01  9.65828359e-01  9.86598015e-01
  9.77973819e-01  1.00411928e+00  9.74583030e-01  9.87587214e-01
  9.83447671e-01  1.00115693e+00  9.82790947e-01  8.56296659e-01
  9.34344530e-01  9.78752673e-01  9.67413247e-01  1.00054967e+00
  9.65881467e-01  9.39109027e-01  9.94899988e-01  1.00058591e+00
  9.66015041e-01  9.86637592e-01  9.44188476e-01  9.37120140e-01
  9.88982677e-01  9.64988232e-01  1.00101328e+00  9.73922074e-01
 -1.38134165e-02  1.52093731e-02 -1.70624889e-02  1.93681251e-02
 -1.77030321e-02  8.10507312e-03  1.32153202e-02 -1.63129400e-02
 -1.67831182e-02 -1.34557262e-02  3.12840566e-02 -1.74667090e-02
 -1.58671252e-02  1.99972838e-02  1.70834754e-02  1.81970634e-02
 -7.51458155e-03  1.65428799e-02  1.69136580e-02  1.01305917e-02
 -4.66825673e-03  1.11966655e-02 -1.47180548e-02  1.28559750e-02
 -1.30289886e-02 -1.03972778e-02  1.71139203e-02 -1.16283447e-02
  1.06498078e-02  2.91847400e-02  1.39267910e-02  5.45330346e-03
 -1.45337414e-02 -1.72959659e-02 -1.28724901e-02 -1.76797286e-02
 -9.94714070e-03  1.32967373e-02  1.61514860e-02 -2.12322474e-02
  5.19729592e-03  1.13456436e-02  1.37527008e-02  1.40524078e-02
 -1.36892479e-02 -1.86083801e-02 -1.60965361e-02  4.00814135e-03
 -1.26153221e-02  1.45166321e-02  1.38730956e-02  3.95798968e-04
  2.53604800e-02  1.74942277e-02  1.41860461e-02 -1.71740539e-02
  1.10902423e-02  6.77976152e-03 -4.25590947e-03 -1.40330791e-02
 -1.34872962e-02  2.33294396e-03  5.64307813e-03  1.45980855e-02
 -1.92477982e-02  2.06775200e-02 -1.71372350e-02  1.96071118e-02
  1.55072892e-02 -7.52969179e-03 -1.85642745e-02  1.94250513e-02
 -1.12311011e-02 -1.11071281e-02 -7.34521588e-03 -1.45047186e-02
 -2.02585477e-02  7.65307993e-03 -1.15095051e-02  1.40715139e-02
 -1.69383902e-02  1.65625829e-02  1.36107812e-02 -3.08964700e-02
 -2.94825044e-02  1.65561456e-02  9.23595764e-03  1.63672753e-02
  1.15211215e-02  1.14181405e-02  1.47313578e-02 -1.94302574e-02
 -2.44479142e-02  1.38702653e-02  6.09263219e-03  1.44902123e-02
 -1.07910186e-02  9.28618480e-03 -1.96879320e-02 -1.18560772e-02
 -4.06435039e-03  5.34299873e-02  5.58344973e-03 -3.97082418e-03
  3.15006520e-03 -1.89293493e-02  4.62577649e-04  2.27046083e-03
 -3.05265700e-03 -1.35933636e-02  8.61095265e-02  1.60774104e-02
  9.76912444e-04  1.30373947e-02  1.13254692e-02 -5.51667949e-03
 -2.01751124e-02  4.78385529e-03  1.75364595e-02 -1.28727709e-03
 -2.43526674e-03 -2.15658210e-02  6.72941504e-04 -2.59277653e-02
  2.14514546e-02 -1.73058454e-02 -2.50036968e-03 -8.62576358e-04
 -6.78212382e-03  1.95105933e-02 -2.88876873e-02 -1.73990838e-02
 -9.25019290e-03  2.44375737e-03 -1.57658104e-02  1.29051581e-02
 -1.48403030e-02 -4.17372165e-03  9.81792901e-03 -3.87232751e-04
 -2.01541567e-04 -8.04976746e-03 -9.94451437e-03 -6.79443066e-04
  5.32754743e-03 -1.40769016e-02  6.88353833e-03 -1.78016517e-02
 -1.93958003e-02 -3.42536834e-04  1.41660264e-02 -6.60123723e-03
  4.68514627e-03 -9.68720205e-03  1.75363068e-02 -1.75079275e-02
 -1.79776102e-02 -1.23308301e-02 -4.66685593e-02 -4.56946640e-04
 -2.05436209e-03 -3.76832262e-02 -1.03077404e-02 -1.95026398e-02
 -5.03219198e-03 -9.96992644e-03  5.40167373e-03  6.99255476e-03
  7.38436414e-04 -1.22419549e-02  4.28846851e-03 -8.96953163e-04
 -1.19274855e-02 -7.30405678e-04 -3.08001749e-02 -8.39470513e-03
 -6.10264298e-03 -1.46245596e-03 -1.56686362e-02  4.95362841e-03
  5.67313517e-03 -5.50095108e-04 -1.18183913e-02  5.41265169e-03
  4.90358844e-02 -8.01610644e-04 -2.96846982e-02  6.97100069e-03
 -7.48575665e-03 -3.29793692e-02  9.33188386e-03  9.02399514e-03
  4.65654768e-02 -3.07357335e-03 -1.59121752e-02  1.87678691e-02
 -9.16269515e-03 -2.11287849e-02  3.27517092e-03 -1.47376256e-03]
sequential/dense/kernel:0
(100, 1)
[[-0.12858906]
 [ 0.13672666]
 [-0.13255021]
 [ 0.08583308]
 [-0.21318012]
 [ 0.14315319]
 [ 0.11791602]
 [-0.21345527]
 [-0.08604284]
 [-0.17602713]
 [ 0.18209039]
 [-0.16619557]
 [-0.1422878 ]
 [ 0.13472162]
 [ 0.22378457]
 [ 0.13840917]
 [-0.12313075]
 [ 0.1184134 ]
 [ 0.1757827 ]
 [ 0.07629022]
 [ 0.10838771]
 [ 0.17047581]
 [-0.13152073]
 [ 0.08246038]
 [-0.13140385]
 [-0.10696335]
 [ 0.12104063]
 [-0.14788911]
 [ 0.2172203 ]
 [ 0.17509185]
 [ 0.1918717 ]
 [ 0.21572277]
 [-0.17195232]
 [-0.06982165]
 [-0.18914631]
 [-0.11853278]
 [-0.15513854]
 [ 0.13303468]
 [ 0.12683943]
 [-0.09636788]
 [-0.09954181]
 [ 0.20868526]
 [ 0.08620591]
 [ 0.07622392]
 [-0.12134111]
 [-0.11003755]
 [-0.11811308]
 [ 0.08803484]
 [-0.16316473]
 [ 0.08392787]
 [ 0.21331815]
 [ 0.10495578]
 [ 0.11673833]
 [ 0.17874211]
 [ 0.20222083]
 [-0.0987165 ]
 [ 0.22001207]
 [ 0.09867209]
 [-0.10346226]
 [-0.24110638]
 [-0.10813386]
 [ 0.10601468]
 [ 0.0848937 ]
 [ 0.20415005]
 [-0.241146  ]
 [ 0.12504667]
 [-0.14126912]
 [ 0.11846158]
 [ 0.18408759]
 [-0.10405266]
 [-0.19866253]
 [ 0.10840698]
 [-0.16760978]
 [-0.12340722]
 [-0.08437233]
 [-0.21540613]
 [-0.22060952]
 [-0.10947019]
 [-0.1514737 ]
 [ 0.126759  ]
 [-0.15478253]
 [ 0.09993982]
 [ 0.19374834]
 [-0.14012697]
 [-0.14026558]
 [ 0.17882437]
 [ 0.19454473]
 [ 0.1126743 ]
 [ 0.11408364]
 [ 0.09971269]
 [ 0.10980403]
 [-0.17596346]
 [-0.25090125]
 [ 0.21480374]
 [ 0.0989568 ]
 [ 0.19285536]
 [-0.1466072 ]
 [ 0.22437459]
 [-0.24321999]
 [-0.08995214]]
sequential/dense/bias:0
(1,)
[0.23393099]
