sequential/lstm/kernel:0
(1, 320)
[[ 1.36122510e-01 -1.49751762e-02  1.58179387e-01 -3.96398045e-02
   2.53754616e-01 -2.08456814e-02  8.81070316e-01 -5.47738597e-02
   5.76941855e-03 -1.06686622e-01  7.57690966e-02  7.95713663e-02
   2.22543150e-01 -9.27819908e-02  4.84706275e-02  6.18380904e-02
   1.03585526e-01  1.32576197e-01 -3.44581977e-02  6.37130514e-02
   6.84366822e-02  5.70883036e-01  1.63661614e-01  3.58806551e-02
  -1.26770288e-01  6.69378489e-02 -2.21957751e-02 -5.05812056e-02
  -7.91510195e-03 -4.78253588e-02  7.20870793e-02  5.64317890e-02
   1.51370704e-01  8.47234055e-02 -6.95986301e-02  3.85770632e-04
   2.68638059e-02  1.26180798e-01 -6.82266355e-02  6.53442889e-02
   1.73099443e-01  9.84633490e-02  1.26632944e-01 -4.00328971e-02
   5.22844553e-01 -6.11408018e-02  1.54055148e-01 -7.08553791e-02
   1.37628570e-01  1.21208116e-01  9.42921788e-02  1.09998167e-01
   2.41941899e-01  2.42555160e-02  8.83216560e-02  4.28198241e-02
   1.06934346e-01 -2.12293565e-02  2.13783711e-01 -9.43799987e-02
   6.02820702e-02 -7.22429529e-02  1.53640240e-01  1.82513013e-01
   6.30017892e-02  3.65251750e-01 -1.91046242e-02  3.56677473e-02
   5.71326315e-02  1.69640422e-01  2.08328411e-01  7.93833792e-01
   1.05078220e-01  1.42537326e-01  2.69379895e-02  1.83380872e-01
   1.04522452e-01  6.21453226e-02  1.26268482e-02  9.29212943e-02
  -3.29546519e-02  1.73191838e-02  5.03826551e-02  1.27850130e-01
   1.74390022e-02  1.30823046e-01 -1.47163570e-01  8.45291540e-02
   1.14608314e-02  2.88649742e-02 -1.42322451e-01 -7.63594061e-02
  -2.09084395e-02  1.12173907e-01 -7.74929225e-02 -1.00489818e-02
  -1.34674862e-01  5.00624366e-02 -6.76812902e-02  4.41834070e-02
  -9.60400105e-02 -6.67984560e-02 -1.52770057e-01  5.45862801e-02
  -6.27829731e-02  1.01924678e-02  3.19814868e-02 -4.96399589e-04
  -1.01043195e-01 -1.23083621e-01  1.94343831e-03 -7.82501549e-02
   3.03485673e-02  1.08842619e-01  9.67243686e-03 -4.16841209e-02
  -6.48191869e-02 -4.10010405e-02 -1.00550808e-01 -1.20467760e-01
   2.35283207e-02  5.00127673e-02  6.33749068e-02 -1.99047811e-02
  -2.28074356e-03  1.09123573e-01  1.08833507e-01 -1.36033431e-01
  -3.40580717e-02 -7.98667371e-02 -3.63773368e-02 -5.53798601e-02
   7.04958662e-02 -1.11466475e-01  1.07350044e-01 -5.86375184e-02
   4.26810570e-02 -8.77210274e-02 -1.13225020e-01  1.02803037e-01
   1.31892934e-01  1.39509821e-02 -7.68204108e-02  6.65899664e-02
   7.71392360e-02 -4.40081432e-02 -7.78564215e-02 -1.00998498e-01
  -1.23694062e-01 -2.33626544e-01  9.13333520e-02 -1.18361309e-01
  -3.99601273e-02 -4.97106984e-02  3.83804478e-02  5.09248115e-02
  -1.00689806e-01 -1.11442618e-01  5.72160929e-02 -7.69732296e-02
   6.66391179e-02  7.19318911e-02 -9.49027464e-02  7.19293281e-02
   1.17361039e-01  1.00710347e-01 -2.70630121e-01  9.05831009e-02
   6.94697816e-03 -1.69604924e-02  4.97185551e-02  3.82358432e-02
   1.07295722e-01  4.38078791e-02 -8.58089030e-02 -1.24178700e-01
  -1.97095498e-02 -1.00207806e-01  1.09961666e-01 -8.08189660e-02
   1.18865278e-02  2.08776310e-01  1.15815729e-01  1.17193490e-01
   4.48281877e-02 -5.82410842e-02  1.20052554e-01 -9.41420943e-02
   1.23610929e-01  1.13934524e-01  8.44429061e-02 -6.75371885e-02
  -9.92295817e-02  6.95622787e-02 -7.63661116e-02  5.93147054e-03
   1.30711302e-01 -1.23179890e-01 -6.83724061e-02  7.22097829e-02
   1.19042449e-01  5.13970405e-02  9.32091027e-02 -1.29104227e-01
  -1.18533924e-01 -8.56785104e-02 -5.52017204e-02  3.08385268e-02
  -9.18663964e-02 -1.21595800e-01  1.06135309e-01 -2.16718931e-02
  -1.45634726e-01  7.99990669e-02 -1.27551496e-01 -1.24972120e-01
  -1.43161923e-01  1.33781523e-01 -8.24012086e-02  1.05040029e-01
  -4.21445221e-02  7.86846727e-02 -1.44082397e-01 -1.10432640e-01
  -1.33658767e-01  1.50461659e-01  3.26595642e-02 -5.16284592e-02
  -1.44149140e-01  1.05689749e-01 -1.33204281e-01  2.31597900e-01
  -3.11041693e-03  3.89769040e-02 -7.87643194e-02 -7.49808922e-02
   1.32151628e-02 -1.42017782e-01  4.58438210e-02 -4.50858176e-02
  -7.64011815e-02 -2.46316977e-02 -1.87003682e-03  7.75891021e-02
   1.00684240e-01  1.16510347e-01  1.04639137e+00  1.32883891e-01
  -1.26984969e-01  1.92002803e-02 -1.49444835e-02 -9.35560442e-04
   2.23698005e-01 -7.12143108e-02  1.09493487e-01  1.41571760e-01
  -5.51158078e-02  1.07020885e-01  8.23134407e-02  1.16867058e-01
  -2.40159389e-02  5.29168606e-01  9.92939621e-03  2.70261001e-02
  -2.87634935e-02 -8.72809067e-03 -1.06175505e-01  9.65295658e-02
  -8.00192077e-03  2.42878437e-01 -9.27645713e-02 -9.52777192e-02
   1.73367113e-01 -7.25011975e-02  5.91027923e-02 -7.05198664e-03
   2.67026592e-02  1.29372731e-01 -7.59465666e-03  1.57315254e-01
   7.78065473e-02  1.90468788e-01  3.17394912e-01 -2.23031230e-02
   4.64913756e-01  1.01839967e-01  7.38919973e-02  3.46216485e-02
   1.68487772e-01  1.06379844e-01  1.19583756e-02 -1.57076687e-01
   2.37462580e-01  1.04223348e-01 -6.27335533e-02  2.61366040e-01
   2.23956853e-01  1.35261089e-01  2.16940433e-01  6.63926899e-02
  -3.12302541e-02  6.23807162e-02  2.17807934e-01  4.98447977e-02
  -4.84566912e-02  2.81493425e-01  9.20629948e-02  2.55204141e-01
   1.93222053e-02 -1.12101808e-01  8.61590132e-02  8.82722378e-01
   7.16482848e-02 -2.84298863e-02  1.97920159e-01  6.06487095e-02
   2.62382012e-02 -1.13126980e-02  5.27269542e-02  8.40837415e-03]]
sequential/lstm/recurrent_kernel:0
(80, 320)
[[-2.0405574e-02  2.8640008e-02  1.1626447e-01 ...  1.8796939e-02
   6.1034787e-02 -6.4006865e-02]
 [-2.1887962e-02  8.9817144e-02  4.7960166e-05 ...  1.2733670e-01
  -1.9097095e-02  9.5928553e-03]
 [ 7.5917274e-02  2.4609352e-02  3.0639472e-03 ... -2.1011548e-03
   1.0889806e-01  7.5407727e-03]
 ...
 [-5.1909205e-02 -4.5420650e-02 -3.2135371e-02 ... -6.2942125e-02
  -1.9184884e-02  2.5854858e-02]
 [-7.0655155e-03  2.9454781e-02 -4.2524338e-02 ...  4.1836604e-02
   2.2681003e-02 -8.3337072e-03]
 [ 3.4573842e-02 -5.0418898e-02 -4.3235444e-02 ... -2.5789021e-02
  -2.2003951e-02  6.3179873e-02]]
sequential/lstm/bias:0
(320,)
[ 5.08295605e-03  1.82740428e-02  3.11429817e-02  1.10374773e-02
  9.91904959e-02  4.46051871e-03  1.11756015e+00  4.52466272e-02
 -4.97955736e-03 -2.11827233e-02  7.33136665e-03  5.11888880e-03
  4.63159271e-02  1.20633291e-02  3.56758684e-02  4.18199785e-03
 -2.31395457e-02  1.84671171e-02  1.26714157e-02 -2.63983929e-05
 -4.18559788e-03  5.48968017e-01  7.83045441e-02  2.43882146e-02
  2.23678239e-02  1.90568063e-02 -2.59999302e-03  4.37954850e-02
 -1.02920271e-03  3.97587270e-02  3.68888415e-02  3.25431256e-03
  3.00570074e-02  5.35490317e-03  3.40957902e-02 -1.30011169e-02
  2.49704048e-02  3.09865153e-03  9.08880867e-03  3.76830064e-03
  9.33989212e-02  4.62126307e-04  1.34166703e-01  6.02792297e-03
  3.93988192e-01  6.96204882e-03 -2.38764659e-02 -1.28812448e-03
  2.47815736e-02  1.61399581e-02  1.87457576e-02  1.72790792e-03
  2.42789641e-01  1.54895922e-02  2.00986117e-02  1.00654356e-01
  8.67248029e-02  2.39367709e-02  5.95350042e-02  3.91556602e-03
  3.18516279e-03  4.28338461e-02  1.04582317e-01  4.61666435e-02
  1.52178463e-02  1.87339962e-01 -4.48734686e-03  6.83148578e-02
  3.77338417e-02  1.66250288e-01  4.47768867e-02  8.08013082e-01
  5.67852799e-03  8.40746239e-03  2.67899148e-02  1.47296144e-02
 -2.82307621e-03  3.22204232e-02  1.02966977e-02 -1.27406493e-02
  9.86220777e-01  9.88189518e-01  9.81414795e-01  9.85579431e-01
  9.46702421e-01  9.94900227e-01  7.13228881e-01  9.77999449e-01
  9.80591178e-01  9.76551533e-01  9.49312449e-01  9.86422420e-01
  9.69718456e-01  9.83637571e-01  9.74928379e-01  9.81589794e-01
  9.11714017e-01  9.89361525e-01  9.79550958e-01  9.90775287e-01
  9.66052592e-01  8.20347071e-01  9.68767941e-01  9.80850279e-01
  1.00342894e+00  9.76344466e-01  9.92393374e-01  9.57191646e-01
  9.90841269e-01  9.42086756e-01  9.56027627e-01  9.93944764e-01
  9.50260341e-01  9.85729873e-01  9.80688989e-01  9.88681018e-01
  9.75755811e-01  9.85603094e-01  9.92116213e-01  9.94200170e-01
  9.47849274e-01  9.65979457e-01  8.79427075e-01  9.88114119e-01
  8.22768211e-01  9.88170564e-01  9.37471032e-01  9.88538444e-01
  9.88023400e-01  9.70451772e-01  9.90577221e-01  9.97030079e-01
  9.19561625e-01  9.77236211e-01  9.88978386e-01  9.43734944e-01
  9.40117598e-01  9.75809753e-01  9.61058080e-01  9.87577856e-01
  9.78102148e-01  9.57432032e-01  9.51719522e-01  9.28772271e-01
  9.86076832e-01  9.45595801e-01  9.84733403e-01  9.25934494e-01
  9.76380348e-01  9.22948718e-01  9.74463701e-01  6.91245437e-01
  9.95714128e-01  9.78957057e-01  9.84927058e-01  9.83219326e-01
  9.97735083e-01  9.83044684e-01  9.90928352e-01  9.66799617e-01
 -2.09127925e-02 -2.53325850e-02  3.05315647e-02 -2.48971414e-02
 -4.71190661e-02 -2.85109673e-02  8.98695141e-02 -2.76731383e-02
  9.37850773e-03  9.38132964e-03 -2.81008389e-02 -1.24996752e-02
 -4.31731269e-02 -1.95501316e-02  3.60197909e-02  4.96187322e-02
  7.78912334e-04  3.61667089e-02 -4.30504680e-02  2.58065257e-02
  2.58312444e-03 -7.37718120e-02 -4.56722267e-02 -3.64212245e-02
 -3.35348956e-02  2.18671747e-02 -2.37278212e-02  3.67411263e-02
 -3.01625170e-02 -4.34019640e-02 -3.48180942e-02  1.94532275e-02
  3.85556296e-02 -2.48185508e-02  2.63800845e-02 -2.17410247e-03
 -5.23270220e-02  4.03237380e-02  2.14407593e-02 -2.43705940e-02
 -4.03686650e-02 -2.03848649e-02 -3.86528969e-02  4.05058190e-02
  3.49321552e-02  3.28295156e-02  1.49041768e-02 -9.60101467e-03
  3.33897099e-02  4.96397614e-02 -3.51573229e-02 -2.21625622e-02
  5.21030128e-02 -2.14475021e-02  4.88496982e-02  5.48873097e-02
  4.13087234e-02 -4.19673324e-02  3.08690351e-02 -3.27857994e-02
  6.18596561e-03 -3.69849876e-02  5.64901903e-02  3.52491029e-02
  4.38587405e-02 -5.48153594e-02 -1.33022685e-02  1.02471458e-02
  5.00876866e-02 -4.17443141e-02  5.20923808e-02 -7.34123662e-02
 -1.20752351e-02  1.42663659e-04  2.38930732e-02  2.59891059e-02
 -1.87780557e-03  4.78150658e-02 -1.43760676e-02  2.16877852e-02
  6.30519958e-03  1.84072759e-02  3.25117111e-02  1.01907644e-02
  9.98874456e-02  3.62005737e-03  1.09575522e+00  4.11546789e-02
 -7.31136696e-03 -2.16757916e-02  7.73683935e-03  5.88231301e-03
  4.37563956e-02  1.21684410e-02  3.40952650e-02  3.06482939e-03
 -2.11982112e-02  1.78482067e-02  1.06492052e-02 -7.54521519e-04
 -3.14946962e-03  5.38869500e-01  7.88091645e-02  2.43918356e-02
  2.35069972e-02  2.03145202e-02 -2.15415307e-03  4.37645651e-02
 -1.11981318e-03  3.23642604e-02  3.72136720e-02  4.13851766e-03
  2.87681185e-02  6.55910559e-03  3.24468613e-02 -1.29648484e-02
  2.47577261e-02  2.32903101e-03  8.74106400e-03  2.94840755e-03
  9.34005603e-02 -1.97578990e-03  1.29252374e-01  6.12949254e-03
  3.89131337e-01  5.69267944e-03 -2.30320077e-02 -1.30792661e-03
  2.36783046e-02  1.49094267e-02  1.89574827e-02 -4.45032580e-04
  2.40074858e-01  1.28363101e-02  2.15334352e-02  9.32343081e-02
  7.69985020e-02  2.14273352e-02  5.87800704e-02  2.61489465e-03
  4.84384038e-03  4.50566076e-02  1.01651020e-01  4.81196232e-02
  1.59414019e-02  1.85797423e-01 -5.31760231e-03  5.34218028e-02
  3.75456177e-02  1.58407956e-01  4.55593504e-02  7.90971816e-01
  5.54233743e-03  9.46298707e-03  2.37461049e-02  1.56120081e-02
 -2.70563038e-03  3.34019139e-02  9.49848164e-03 -1.24247354e-02]
sequential/lstm_1/kernel:0
(80, 400)
[[ 0.0718642  -0.09125753  0.11511767 ...  0.10544851  0.03347047
   0.05390962]
 [ 0.04723887 -0.00183645 -0.02205501 ... -0.09032931 -0.00238273
   0.04703822]
 [ 0.04691667 -0.10069994 -0.02128118 ...  0.10088286 -0.04285585
   0.05210134]
 ...
 [ 0.06308355  0.00362777 -0.00381122 ...  0.03376609 -0.03798767
   0.03359033]
 [-0.02263324 -0.08220259 -0.0047424  ... -0.02317856  0.05822988
   0.04037661]
 [-0.04096553 -0.01143657  0.025277   ...  0.01040716  0.00899976
  -0.10603049]]
sequential/lstm_1/recurrent_kernel:0
(100, 400)
[[ 3.3577744e-02  4.5880135e-02  8.3816098e-03 ... -2.9828425e-02
  -3.1416256e-02 -8.9828812e-02]
 [-3.5671789e-02 -2.3019756e-03  1.1330839e-01 ... -2.1220986e-02
  -2.3258125e-02  1.2061462e-03]
 [-1.9176075e-02  4.4528753e-02 -3.9721716e-02 ...  4.5897979e-02
  -5.6067030e-03  4.0050661e-03]
 ...
 [-3.1605156e-03 -1.4357647e-01 -3.6579840e-02 ... -5.9802596e-02
   1.1279192e-03  1.6961499e-03]
 [ 8.5326359e-03 -3.1386960e-02 -1.9413038e-01 ... -3.0757943e-02
   4.2515774e-03 -9.6583078e-03]
 [-7.4322678e-02  5.4982815e-05 -3.1696439e-02 ... -7.2862445e-03
  -2.5416648e-02 -2.2078972e-02]]
sequential/lstm_1/bias:0
(400,)
[-2.32848618e-02  2.19953079e-02  7.17307776e-02 -2.22966564e-03
  1.10720377e-02  5.11987275e-03  4.58124699e-03 -1.65483262e-02
 -7.66910287e-03  1.78659742e-03 -1.81275792e-02  5.35816606e-03
 -5.72732976e-03 -1.40311597e-02 -1.43842408e-02 -2.22573541e-02
  6.31131465e-03 -3.37888510e-03 -7.63863418e-03  3.44442725e-02
 -5.89785259e-03  3.61587219e-02  1.46261405e-03 -6.33061444e-03
 -2.39143684e-03  2.17328221e-02 -5.50030544e-03 -3.99115914e-03
  1.15384127e-03  3.76231014e-03 -4.57000220e-03 -7.51443300e-03
 -1.63603593e-02  1.26992300e-01 -1.45406798e-02 -1.07171421e-03
  2.69028246e-02  1.95345934e-02 -1.09249549e-02  3.77296866e-03
  6.17062338e-02 -1.28809419e-02 -2.36544735e-03 -1.77390203e-02
 -5.38039494e-05 -1.16974376e-02  1.42659573e-02 -1.54973718e-03
 -2.13750284e-02 -2.09618323e-02  7.61879841e-03  1.34016164e-02
 -4.05566767e-03 -4.81302338e-03 -8.01119301e-03  8.51244107e-03
 -7.08048977e-03  2.07603220e-02 -1.00715216e-02 -2.07636487e-02
  1.84282549e-02 -1.30985621e-02 -1.23119932e-02 -5.86060481e-03
 -4.02708910e-03 -3.47298086e-02  2.21727677e-02 -1.18684501e-03
 -1.57585982e-02  3.69607806e-02 -9.14750434e-03  4.00545367e-04
 -2.29281411e-02  7.97286443e-03 -1.69632472e-02 -8.81242473e-03
 -2.99365935e-03 -8.64199921e-03  1.55291194e-03 -1.64563619e-02
  4.51469794e-03  2.42104568e-03  1.51577024e-02  2.48625353e-02
 -1.93500910e-02  1.85698234e-02  1.32486513e-02 -3.64228077e-02
  1.07329302e-02 -2.66135158e-03  3.40790264e-02  2.64140517e-02
 -1.74703356e-02  6.70132134e-03  5.23780659e-02 -5.45306504e-03
  3.42542469e-03 -2.58770604e-02  7.79376226e-03 -3.04227043e-03
  9.56775069e-01  9.23807621e-01  9.27617073e-01  9.93225038e-01
  9.72355485e-01  1.00674677e+00  9.99527693e-01  9.71323848e-01
  9.80730712e-01  9.86495614e-01  9.76962328e-01  1.00233972e+00
  9.87980843e-01  9.72012460e-01  9.83193576e-01  9.68337834e-01
  9.86847878e-01  9.83259082e-01  9.91122305e-01  9.58924353e-01
  9.87088263e-01  9.29004073e-01  9.82697368e-01  9.86648560e-01
  9.93655324e-01  9.85858500e-01  9.45818961e-01  9.86605883e-01
  9.94337738e-01  1.00049448e+00  9.88691211e-01  9.89061773e-01
  9.65233266e-01  8.33589971e-01  9.71943080e-01  9.96771991e-01
  8.94001424e-01  1.01195300e+00  9.93830860e-01  9.93269026e-01
  8.99855137e-01  9.66834426e-01  9.91594911e-01  9.85743046e-01
  9.91506100e-01  9.74410236e-01  9.41549599e-01  9.93029475e-01
  9.73526061e-01  9.07868803e-01  9.99030650e-01  9.19427752e-01
  9.84447002e-01  9.93278801e-01  9.67265129e-01  9.75471973e-01
  9.83271301e-01  9.95247960e-01  9.97534096e-01  9.61237907e-01
  9.78156626e-01  9.54051435e-01  9.61144626e-01  9.39693153e-01
  9.92761254e-01  9.59538817e-01  9.88153577e-01  9.86240804e-01
  9.46049571e-01  9.48582292e-01  9.91035521e-01  9.61800933e-01
  9.41507697e-01  9.95245576e-01  9.60678041e-01  9.89792407e-01
  9.92653430e-01  9.88733530e-01  9.77849960e-01  9.85762417e-01
  9.99297857e-01  9.89234090e-01  9.64862227e-01  9.87381458e-01
  9.72634375e-01  9.59366024e-01  9.19487596e-01  9.62467730e-01
  9.80049074e-01  9.94681239e-01  9.23763216e-01  9.68682408e-01
  9.67623472e-01  9.98945057e-01  8.94934297e-01  9.96132851e-01
  9.94651735e-01  9.52759624e-01  9.58298087e-01  9.89776373e-01
  9.87255666e-03  1.40423598e-02  2.09127143e-02  1.98404565e-02
  1.17344689e-02 -1.66085046e-02  1.97826251e-02  1.29957562e-02
 -1.60896350e-02 -1.81840453e-02 -1.35931941e-02  1.67821702e-02
 -1.34457396e-02  8.56555346e-03  8.61394498e-03 -1.29357977e-02
  1.61086842e-02 -1.36082433e-02  9.51008312e-03 -1.93947833e-02
 -1.55161014e-02  2.33532581e-02 -1.60056278e-02  1.49477934e-02
  2.02421518e-03 -1.60132069e-02 -1.18618160e-02  9.92861390e-03
 -1.52580151e-02 -1.33002307e-02  1.37207098e-02 -1.20182484e-02
 -1.26004526e-02 -1.93447396e-02  1.00633306e-02  1.17881019e-02
 -1.47365192e-02  2.13285796e-02 -9.87904053e-03  1.82754397e-02
 -2.05814913e-02  1.41251478e-02 -1.40110711e-02  7.68474350e-03
 -1.57689713e-02  1.32080531e-02  1.68905072e-02 -1.66732073e-02
  7.97186978e-03  1.32002579e-02  2.00380050e-02  2.25044284e-02
  1.53300483e-02 -1.41520640e-02 -1.19371768e-02 -1.23478603e-02
 -1.17924102e-02  2.00066008e-02  1.80189009e-03 -1.56759918e-02
  1.29343281e-02  1.12208715e-02  6.10339176e-03  9.70676448e-03
 -1.28673874e-02 -1.09250806e-02  2.23560464e-02 -1.39688952e-02
  1.21175405e-02 -2.71741543e-02  6.82585873e-03 -1.19384145e-02
  1.15811704e-02 -1.59023572e-02 -5.40189445e-03 -7.33106537e-03
  1.15142949e-02 -1.50089161e-02  9.01859533e-03  1.29937269e-02
  1.60252787e-02  2.10408345e-02 -2.25884132e-02 -2.28365883e-02
 -1.80177186e-02 -1.69419833e-02  2.35849898e-02  5.16486121e-03
  1.24554588e-02 -7.84973055e-03  1.44630000e-02  2.01172736e-02
  8.87004193e-03  1.91395618e-02 -1.71676017e-02  8.66481476e-03
 -1.38571979e-02  8.13078787e-03 -2.44646911e-02  1.22192642e-02
 -2.89567932e-02  1.88823044e-02  6.65127262e-02 -4.13137721e-03
  7.93269370e-03  3.19111161e-03  4.20921436e-03 -1.75505131e-02
 -1.07666943e-02  3.30388793e-05 -1.87723972e-02  5.25486795e-03
 -6.77863089e-03 -1.46104377e-02 -1.52267478e-02 -2.51241475e-02
  5.76245179e-03 -8.34978744e-03 -8.33735894e-03  2.80305855e-02
 -7.91923236e-03  2.09637377e-02 -1.50364160e-03 -7.65776401e-03
 -4.15435433e-03  1.46129010e-02 -8.89370963e-03 -4.93787834e-03
 -2.68977077e-04  1.95779605e-03 -7.01666856e-03 -7.65845180e-03
 -1.75265390e-02  1.17188603e-01 -1.75050255e-02 -2.25322973e-03
  1.22439200e-02  1.78299304e-02 -1.14288162e-02  2.25283997e-03
  5.47750480e-02 -1.74674243e-02 -3.75240063e-03 -1.70915332e-02
 -1.46384980e-03 -1.42971370e-02 -5.60028339e-03 -1.82120956e-03
 -2.46452335e-02 -3.91178876e-02  5.58600575e-03  6.57336740e-03
 -6.35647820e-03 -5.08064358e-03 -1.05145359e-02  6.32690545e-03
 -7.50261592e-03  1.61436964e-02 -9.52793937e-03 -2.61794999e-02
  1.43597275e-02 -1.51587902e-02 -1.33631825e-02 -1.37640601e-02
 -4.09879768e-03 -3.47477235e-02  1.64467674e-02 -1.86038786e-03
 -2.08657756e-02  3.01504862e-02 -8.79971962e-03 -2.30001146e-03
 -2.89285444e-02  7.15595996e-03 -2.06722468e-02 -1.04759112e-02
 -4.40799911e-03 -8.51914287e-03 -1.59008079e-03 -1.81074943e-02
  4.32688743e-03  1.18379469e-03  1.29586700e-02  2.16104835e-02
 -2.26661023e-02  1.37880752e-02  3.54009657e-03 -3.80274653e-02
 -1.36369641e-03 -3.62644554e-03  2.62399428e-02  2.16798745e-02
 -2.48276591e-02  5.80122834e-03  3.91500518e-02 -6.01947773e-03
  2.04772595e-03 -3.07386853e-02  5.13724005e-03 -3.35257384e-03]
sequential/dense/kernel:0
(100, 1)
[[ 0.09789632]
 [ 0.2421721 ]
 [ 0.24545394]
 [ 0.08983733]
 [ 0.20890833]
 [-0.09904969]
 [ 0.13990092]
 [ 0.12910473]
 [-0.12356313]
 [-0.21379404]
 [-0.09893122]
 [ 0.06521245]
 [-0.21504933]
 [ 0.16146001]
 [ 0.22255324]
 [-0.16474567]
 [ 0.19077209]
 [-0.11188599]
 [ 0.12032379]
 [-0.22604081]
 [-0.15936062]
 [ 0.13376825]
 [-0.11603443]
 [ 0.10186308]
 [ 0.11719263]
 [-0.12877703]
 [-0.1378389 ]
 [ 0.16933057]
 [-0.14294267]
 [-0.09430809]
 [ 0.07985336]
 [-0.23928021]
 [-0.19214745]
 [-0.19846502]
 [ 0.09411693]
 [ 0.08508828]
 [-0.20077638]
 [ 0.15867788]
 [-0.18416856]
 [ 0.17372899]
 [-0.24891235]
 [ 0.09867489]
 [-0.07145077]
 [ 0.17779139]
 [-0.14305219]
 [ 0.11300413]
 [ 0.10783583]
 [-0.24141829]
 [ 0.08932322]
 [ 0.11526049]
 [ 0.11375492]
 [ 0.22014028]
 [ 0.09926664]
 [-0.22126853]
 [-0.21772665]
 [-0.1958538 ]
 [-0.21591592]
 [ 0.1435286 ]
 [-0.10756405]
 [-0.1009196 ]
 [ 0.23097485]
 [ 0.18604645]
 [ 0.11781314]
 [ 0.17871805]
 [-0.2112504 ]
 [-0.19368966]
 [ 0.0985732 ]
 [-0.23009159]
 [ 0.13845395]
 [-0.16635214]
 [ 0.16681138]
 [-0.20703146]
 [ 0.17684361]
 [-0.23868954]
 [-0.09584008]
 [-0.09900065]
 [ 0.08494925]
 [-0.22223832]
 [ 0.13262391]
 [ 0.10431532]
 [ 0.20855321]
 [ 0.12647833]
 [-0.15321672]
 [-0.13279198]
 [-0.09595692]
 [-0.18082933]
 [ 0.13584672]
 [ 0.1027297 ]
 [ 0.09759979]
 [-0.09212434]
 [ 0.19101089]
 [ 0.16108048]
 [ 0.09231999]
 [ 0.1392309 ]
 [-0.16387743]
 [ 0.14197823]
 [-0.11461444]
 [ 0.089054  ]
 [-0.12033257]
 [ 0.2074155 ]]
sequential/dense/bias:0
(1,)
[0.24148698]
