sequential/lstm/kernel:0
(5, 320)
[[ 0.10301324  0.11306832  0.12208419 ... -0.06039378 -0.00726409
   0.10363832]
 [-0.07412071 -0.07688534 -0.11979977 ...  0.16674638 -0.01674634
   0.07298716]
 [-0.05291678 -0.100978   -0.09906782 ... -0.02683252  0.0229157
  -0.04217576]
 [-0.05333936  0.00202601  0.09792592 ...  0.00824232  0.05220094
  -0.14287299]
 [-0.10672539 -0.11701506 -0.10467383 ...  0.09345526  0.09848153
   0.06310039]]
sequential/lstm/recurrent_kernel:0
(80, 320)
[[-0.10685577  0.08638353  0.00035161 ...  0.07413233  0.01765059
   0.03026544]
 [-0.08042048 -0.01437595  0.02414803 ... -0.02936448  0.04164297
   0.01830617]
 [ 0.03577839  0.00659724  0.03347611 ...  0.04284393  0.09198184
   0.08148082]
 ...
 [-0.01379957 -0.04593935 -0.00590169 ... -0.08768988 -0.04258894
  -0.057282  ]
 [-0.06157441 -0.08794412  0.00080645 ...  0.04273652  0.02462122
   0.01591016]
 [-0.03608849 -0.04039991  0.03356464 ... -0.00923958  0.06536132
  -0.00041343]]
sequential/lstm/bias:0
(320,)
[ 1.44759649e-02  6.63460093e-03 -3.61409248e-03 -7.12771944e-05
  2.88361614e-03  3.56085151e-02 -1.10163344e-02 -4.20338707e-03
  1.50469774e-02 -6.91555440e-03 -3.63663957e-03  4.23365040e-03
 -5.81337418e-03  9.07892454e-03  1.15439086e-03 -3.06181982e-03
 -2.69447523e-03 -6.39183563e-04 -5.70464088e-03  1.17323697e-02
  1.23980027e-02  1.60087720e-02 -1.07926026e-03 -6.38476154e-03
 -3.92040750e-03  3.35481949e-03  1.87807120e-02  1.54653545e-02
  2.89735640e-03  1.37674960e-03  1.51430559e-03 -6.30545057e-03
 -9.37464088e-03 -1.18749877e-02  8.28059111e-03  2.38096039e-03
 -4.93962737e-03  7.28609785e-03 -6.31014118e-03 -2.21871631e-03
 -1.31407036e-02  1.25800036e-02 -1.39681192e-03 -9.97214671e-03
 -8.23194720e-03  8.86608381e-03  6.71723764e-03  3.46959708e-03
  2.38425229e-02 -2.67323013e-03 -1.91168845e-04 -3.88419162e-03
 -8.24236218e-03  1.44632556e-03 -3.67504321e-02  1.28260610e-04
  1.59452738e-05 -5.51798381e-03  1.05895763e-02 -1.81546677e-02
 -9.43090487e-03 -5.16389916e-03  2.94347014e-03 -4.85352846e-03
 -1.25163123e-02  1.00924298e-02  5.93751576e-03 -8.85590538e-03
  4.74402532e-02  1.62726617e-03  1.00245196e-02 -4.28701937e-03
  4.53508022e-04  1.81237672e-04  5.30401105e-03 -2.70514796e-03
  4.83851973e-03  1.60086975e-02 -7.14135636e-03 -1.32370153e-02
  9.94290054e-01  9.79121804e-01  9.89324331e-01  9.96654749e-01
  9.95459199e-01  9.96960044e-01  9.88786817e-01  9.90946472e-01
  9.59924579e-01  9.93129730e-01  9.90487754e-01  9.84403610e-01
  9.90959466e-01  9.98644352e-01  9.84412909e-01  9.93468165e-01
  9.93064880e-01  9.96601343e-01  9.91440952e-01  9.91097867e-01
  9.91664588e-01  9.92765903e-01  9.87963319e-01  9.90242898e-01
  9.87662137e-01  1.00172472e+00  9.84196544e-01  9.89811897e-01
  9.98420715e-01  1.00222123e+00  9.92937326e-01  9.91747439e-01
  9.90576565e-01  9.88870323e-01  9.97455537e-01  9.96693015e-01
  9.91847217e-01  9.88503277e-01  9.95168090e-01  9.98283386e-01
  9.87194240e-01  1.01539886e+00  9.85989332e-01  9.88048971e-01
  9.84232128e-01  9.99913037e-01  9.82204199e-01  9.87273335e-01
  9.65246260e-01  9.91920769e-01  9.90697443e-01  9.91794288e-01
  9.91420627e-01  9.90258217e-01  9.60320294e-01  9.91460323e-01
  9.98675764e-01  9.87560868e-01  9.85246718e-01  9.82801795e-01
  9.90370750e-01  9.89406765e-01  9.99924541e-01  9.93829310e-01
  9.84688342e-01  9.94273007e-01  9.95016277e-01  9.78331268e-01
  9.80805516e-01  9.98043835e-01  9.98747349e-01  9.93757188e-01
  9.93737817e-01  9.95256960e-01  1.00109780e+00  9.95200157e-01
  9.94416595e-01  9.85148072e-01  9.88795578e-01  9.88033533e-01
 -6.79469202e-03  3.42249237e-02  4.85022785e-03  1.40306158e-02
  1.35114873e-02 -2.12612562e-02  9.66907945e-03  1.68201104e-02
 -7.23108789e-03 -1.30948490e-02 -2.02696491e-02  9.64434724e-03
 -2.18552332e-02  7.91458506e-03  2.43634917e-02 -4.43717523e-04
  9.91458911e-03  6.07930310e-03 -1.16131539e-02  1.74787883e-02
  2.13346668e-02 -1.60347263e-03 -1.75961927e-02 -5.02425758e-03
 -9.10156965e-03 -7.44654518e-03  1.78201385e-02  1.76653657e-02
  9.57282167e-03 -6.55827392e-03 -1.83513276e-02 -8.37062299e-03
  5.83062787e-03 -2.57177539e-02 -1.10327695e-02  9.75110848e-03
 -2.43425965e-02  9.95112956e-03  3.60469334e-03  3.21221421e-03
 -1.74549110e-02 -1.41342217e-02 -1.64696563e-03  9.07077803e-04
 -2.93626115e-02 -1.10787619e-02 -1.42760808e-02  2.12923139e-02
 -1.56658255e-02 -1.04054827e-02  6.23357762e-03  1.03805410e-02
  1.36408433e-02  9.72640887e-03  1.16700435e-03  7.56363710e-03
  9.10071377e-03  7.07548438e-03  1.88170408e-03  5.98044321e-03
  1.84016256e-03 -1.20004099e-02  5.44437999e-03  6.32759184e-03
 -8.74599256e-03 -1.65550876e-02  6.71034167e-03 -9.39312624e-04
 -1.40311671e-02 -1.20734833e-02  1.37035437e-02  1.06717264e-02
 -3.35338898e-03  1.40018845e-02 -1.34264585e-03 -6.03373582e-03
 -1.68854557e-02  1.92862730e-02 -7.55959190e-03 -6.73076045e-03
  1.49033293e-02  3.83392675e-03 -4.36714245e-03 -8.09866906e-05
  2.63933977e-03  3.48750912e-02 -1.07592689e-02 -4.07388806e-03
  7.37069314e-03 -6.07177475e-03 -4.37014038e-03  1.86563260e-03
 -6.01081317e-03  8.96583591e-03  8.69826297e-04 -3.05966823e-03
 -1.58023415e-03  5.23230301e-05 -5.91797987e-03  1.09194759e-02
  1.25490520e-02  1.46725429e-02 -2.40308465e-03 -5.26441913e-03
 -4.59309760e-03  3.42701119e-03  1.94916539e-02  1.50665091e-02
  3.42282606e-03  1.48513785e-03  1.06797821e-03 -6.73492160e-03
 -9.27388761e-03 -1.13697639e-02  8.11581779e-03  2.03382852e-03
 -5.82753215e-03  7.95154460e-03 -7.42302090e-03 -2.16890173e-03
 -1.27316024e-02  1.41762001e-02 -1.49185967e-03 -8.88679083e-03
 -7.91674294e-03  8.79802369e-03  8.01570434e-03  6.34478545e-03
  2.20756829e-02 -2.49830540e-03 -3.02143046e-04 -4.41142358e-03
 -7.91754480e-03  1.40401255e-03 -3.68445106e-02  2.72311863e-05
 -4.54462104e-04 -6.26065489e-03  1.03100445e-02 -1.93033554e-02
 -9.94971581e-03 -5.55953290e-03  3.02862842e-03 -4.90946928e-03
 -1.20345214e-02  9.85729508e-03  5.61846932e-03 -8.89005512e-03
  4.53413911e-02  1.25763367e-03  1.03033716e-02 -3.97099694e-03
  6.46594272e-04  9.62070917e-05  4.63113282e-03 -3.02222767e-03
  3.18901963e-03  1.55774821e-02 -7.80155510e-03 -1.29866675e-02]
sequential/lstm_1/kernel:0
(80, 400)
[[ 0.0091928  -0.00586357  0.05033643 ...  0.1292294  -0.02289136
   0.05755844]
 [-0.02359421  0.03667384  0.03436627 ... -0.08902913 -0.05570856
   0.06060146]
 [-0.08836306  0.01596883 -0.10041318 ... -0.10929444  0.04476516
   0.00085045]
 ...
 [ 0.02624152 -0.0210255   0.02800478 ...  0.09578611  0.06328472
   0.08004462]
 [-0.02415544  0.09220234 -0.10348596 ...  0.08560839 -0.00317871
  -0.00477268]
 [-0.00777263  0.08120813 -0.02461636 ...  0.01346899  0.08415015
   0.09954299]]
sequential/lstm_1/recurrent_kernel:0
(100, 400)
[[ 0.0101251  -0.00472684  0.08945652 ...  0.08400182  0.05291894
  -0.06660735]
 [-0.06142458 -0.08428392  0.0295831  ...  0.07202829 -0.00783055
   0.01947815]
 [ 0.00690337  0.04723012 -0.05682309 ... -0.05468848  0.00217876
  -0.04026505]
 ...
 [ 0.03576604  0.01592115 -0.01682762 ...  0.05696913 -0.06928249
   0.02347763]
 [ 0.03630342  0.0168996   0.03649061 ... -0.02317235  0.02702051
   0.01246182]
 [-0.1588013   0.01009163  0.02343552 ...  0.07622707 -0.01391855
   0.05328511]]
sequential/lstm_1/bias:0
(400,)
[-7.77608366e-04 -6.31713169e-03 -8.65997840e-03  2.79162801e-03
  1.03509203e-02  7.57985841e-03 -2.90348148e-03 -1.35676470e-02
 -6.71858143e-04 -4.73787729e-03 -6.65608561e-04  2.45792419e-03
 -1.29342275e-02  2.94584129e-03 -1.08628115e-03 -5.26124751e-03
  7.53334956e-03 -6.41750498e-03 -3.39093641e-03 -1.18729966e-02
 -7.99743086e-03 -5.91617171e-03 -5.05738100e-03  1.52415258e-03
  4.84730443e-03  5.08021517e-03  4.76970291e-03 -3.65168019e-03
  1.57266762e-02 -9.35166050e-03 -1.26451468e-02  5.19814342e-03
  1.13809854e-02 -1.32460408e-02 -1.97361708e-02 -8.33994988e-03
 -4.81054699e-03 -3.65777873e-03  6.48110639e-03 -1.30941346e-02
 -1.57552585e-03  5.19418065e-03 -8.43305327e-03 -1.91016018e-03
  2.26773135e-03 -6.52187224e-03 -5.68694156e-03 -5.66003611e-03
 -5.30283200e-03 -8.71752016e-03  2.26505101e-03 -7.34516140e-03
 -1.74478870e-02 -3.10529792e-03  8.28099437e-03 -1.45257232e-04
 -8.36955849e-03 -1.27423611e-02  3.39381280e-03  1.08037645e-03
  6.92154572e-04  7.26339919e-03 -1.51698105e-02  4.74552484e-03
 -2.82421563e-04  4.31083317e-04 -1.90959498e-03  1.99759658e-02
 -6.55065477e-03 -1.47540485e-02 -1.14038186e-02 -3.28024616e-04
 -7.54851103e-03 -7.96555774e-04 -5.39482106e-03  5.16099762e-03
  8.73496570e-03  1.24147292e-02  8.19678511e-03  2.39585317e-03
  3.94112011e-03 -1.24034584e-02  2.44162809e-02 -6.46119984e-03
 -3.24732391e-03  1.87706091e-02 -1.49188141e-04 -9.93459951e-03
 -3.45547381e-03  2.40745230e-05 -2.32585426e-02 -8.13970901e-03
 -1.90304779e-02 -2.54116533e-03 -7.60723697e-03 -7.50503317e-03
  6.11001812e-03 -1.49292750e-02  4.74589784e-03 -1.07330820e-02
  9.99027729e-01  9.91527081e-01  9.89529610e-01  1.00274253e+00
  1.00718999e+00  1.00323212e+00  9.94905055e-01  9.88532722e-01
  9.98639822e-01  9.90332186e-01  9.88834321e-01  1.00016320e+00
  9.86206114e-01  1.00087690e+00  9.96751308e-01  9.92110848e-01
  1.00608861e+00  9.92137194e-01  9.94448423e-01  9.87046480e-01
  9.90136027e-01  9.92896199e-01  9.94162560e-01  1.00129390e+00
  9.98222768e-01  1.00494671e+00  1.00107586e+00  9.92545784e-01
  9.98176396e-01  9.90609467e-01  9.88846719e-01  1.00461709e+00
  9.99031723e-01  9.88342822e-01  9.79993045e-01  9.93395090e-01
  9.92296815e-01  9.94063079e-01  1.00436282e+00  9.87105489e-01
  9.97548401e-01  9.96643662e-01  9.90552783e-01  9.98730838e-01
  1.00008190e+00  9.71777976e-01  9.92329180e-01  9.93783414e-01
  9.93642390e-01  9.81638610e-01  9.98592794e-01  9.87230182e-01
  9.85527396e-01  9.98103321e-01  9.92222548e-01  9.97305214e-01
  9.91987288e-01  9.86738503e-01  1.00084138e+00  1.00268400e+00
  9.98627961e-01  1.00735295e+00  9.85662997e-01  1.00168550e+00
  9.95276630e-01  9.98451471e-01  1.00108385e+00  1.01156032e+00
  9.91103947e-01  9.71305370e-01  9.86971676e-01  9.99780536e-01
  9.94314492e-01  9.93846476e-01  9.93705750e-01  9.95006084e-01
  1.00711477e+00  9.97430563e-01  9.97235835e-01  9.99830604e-01
  1.00124025e+00  9.85285342e-01  1.00884199e+00  9.90555823e-01
  9.94798243e-01  1.00515079e+00  9.97883379e-01  9.91393030e-01
  9.96829391e-01  9.98987377e-01  9.83013988e-01  9.95582163e-01
  9.84588861e-01  9.97206628e-01  9.92001176e-01  9.93320465e-01
  1.00312257e+00  9.83577192e-01  1.00425994e+00  9.88435328e-01
 -1.80007133e-03  1.13957999e-02 -8.37996509e-03 -6.75051939e-03
  8.15695524e-03 -9.84994695e-03 -6.11873297e-03  1.99764641e-03
  6.38116430e-03 -8.00788961e-03 -1.00703435e-02 -8.82158428e-03
  9.44584236e-03 -1.32777207e-02 -4.69325809e-03 -8.54419917e-03
 -1.04647987e-02  7.47687696e-03  6.41283114e-03  7.95501936e-03
  7.84578174e-03  1.38386097e-02 -1.52043151e-02 -6.37101009e-03
 -6.75610965e-03  9.40103736e-03 -1.25819594e-02 -3.51219485e-03
 -1.13381892e-02 -5.57652768e-03 -5.31282276e-03 -1.31591503e-02
 -1.11164870e-02 -5.83553873e-03 -7.90567975e-03  9.25929751e-03
 -8.66756216e-03 -6.81120576e-03  5.49370609e-03  7.12133572e-03
 -5.25752921e-03 -8.30130838e-03 -9.06914752e-03 -4.96806251e-03
 -5.64332725e-03 -1.28233796e-02  8.25135875e-03 -7.56957382e-03
  6.53593475e-03  9.38489567e-03  1.18283629e-02  8.91850702e-03
 -1.56609953e-04 -8.71369336e-03 -1.42589137e-02 -9.80077777e-03
  5.19243302e-03  3.65410279e-03 -1.51840830e-03  6.80152513e-03
  6.30897796e-03 -3.04243970e-03  1.23646855e-02  8.94971006e-03
  1.27973696e-02  7.22486293e-03  9.18966439e-03  1.76820867e-02
  6.48252247e-03 -1.33659132e-02  5.61858434e-03  5.59759373e-03
  9.42973827e-04  5.10604866e-03  6.24967087e-03 -1.08752698e-02
  9.53778066e-03  9.31039080e-03 -7.70825893e-03  7.28966482e-03
  6.62280060e-03 -1.33474786e-02  9.84032359e-03  1.15841040e-02
 -1.11116003e-02 -1.51888179e-02 -4.75422898e-03 -5.50195435e-03
 -4.35581431e-03  8.10919236e-03 -6.93616644e-03  8.44515674e-03
 -8.47013108e-03  4.27652756e-03 -9.64487344e-03 -9.02124867e-03
  1.12460889e-02 -2.19642883e-03 -7.70172151e-03  9.21388902e-03
 -9.55689815e-04 -6.56908099e-03 -8.59767292e-03  2.50838627e-03
  1.00183459e-02  7.64561212e-03 -2.98761437e-03 -1.33147584e-02
 -1.00193894e-03 -5.34726167e-03 -1.33346161e-03  2.44519301e-03
 -1.33538330e-02  3.52992932e-03 -1.53763278e-03 -5.48588764e-03
  7.06294086e-03 -6.73022354e-03 -4.11595777e-03 -1.20510906e-02
 -7.77418353e-03 -6.43158006e-03 -5.26975375e-03 -3.22394772e-04
  5.11184474e-03  4.81349276e-03  4.39116871e-03 -3.90823232e-03
  1.38692120e-02 -9.61443875e-03 -1.25691835e-02  5.15815616e-03
  9.96384397e-03 -1.36540411e-02 -1.96802411e-02 -8.54904111e-03
 -5.06896339e-03 -3.67408013e-03  5.56288753e-03 -1.28999371e-02
 -1.60793250e-03  4.99103451e-03 -8.95230006e-03 -2.41046119e-03
  2.79473676e-03 -7.28136068e-03 -5.90775395e-03 -5.51829068e-03
 -5.15419245e-03 -8.03288165e-03  6.95050927e-04 -7.32846791e-03
 -1.87311154e-02 -3.45377903e-03  8.51782039e-03 -3.73106130e-04
 -8.31253827e-03 -1.25734489e-02  3.12967901e-03  6.93028909e-04
  7.53421336e-04  6.74994430e-03 -1.54038323e-02  3.92290438e-03
 -8.39352200e-04  5.30074118e-04 -2.19990686e-03  2.09421497e-02
 -6.95681898e-03 -1.66850556e-02 -1.19941738e-02 -6.13538665e-04
 -7.47031718e-03 -1.13834045e-03 -5.44148544e-03  5.03188325e-03
  8.17363337e-03  1.11001674e-02  6.59000967e-03  2.26839376e-03
  3.34211998e-03 -1.16569083e-02  2.37624384e-02 -6.37345901e-03
 -3.59196542e-03  1.79421548e-02 -1.25794541e-04 -1.00407507e-02
 -3.77446157e-03  3.47676629e-04 -2.61964127e-02 -8.15050211e-03
 -1.92607455e-02 -3.10839689e-03 -7.24245748e-03 -7.75492610e-03
  6.10347930e-03 -1.47129484e-02  4.58014850e-03 -1.08057950e-02]
sequential/dense/kernel:0
(100, 1)
[[-0.17513952]
 [ 0.19108543]
 [-0.18141618]
 [-0.24162146]
 [ 0.05590787]
 [-0.10334519]
 [-0.17599897]
 [ 0.23351222]
 [ 0.2331589 ]
 [-0.18829773]
 [-0.12311562]
 [-0.15572922]
 [ 0.15375435]
 [-0.11993365]
 [-0.14757255]
 [-0.10847241]
 [-0.04662856]
 [ 0.07846537]
 [ 0.08866395]
 [ 0.15989368]
 [ 0.1648326 ]
 [ 0.09931301]
 [-0.04335346]
 [-0.05448721]
 [-0.2297534 ]
 [ 0.08475409]
 [-0.04677192]
 [ 0.04576115]
 [-0.10587108]
 [-0.02859149]
 [-0.15293187]
 [-0.07835469]
 [-0.09098481]
 [-0.21235642]
 [-0.1695838 ]
 [ 0.12462664]
 [-0.06530105]
 [-0.17577873]
 [ 0.05541191]
 [ 0.22310932]
 [-0.22424898]
 [-0.21636488]
 [-0.05947537]
 [-0.21408482]
 [-0.15970056]
 [-0.11473417]
 [ 0.05399578]
 [-0.03289274]
 [ 0.14583994]
 [ 0.1917762 ]
 [ 0.04330625]
 [ 0.2158959 ]
 [ 0.07523127]
 [-0.21612838]
 [-0.1776609 ]
 [-0.17364402]
 [ 0.04067114]
 [ 0.19996096]
 [-0.04054545]
 [ 0.05303054]
 [ 0.07942702]
 [-0.0543714 ]
 [ 0.1355993 ]
 [ 0.12495214]
 [ 0.05097153]
 [ 0.17866144]
 [ 0.08741534]
 [ 0.08047131]
 [ 0.22288537]
 [-0.20517246]
 [ 0.19697633]
 [ 0.15194996]
 [ 0.06731561]
 [ 0.2392707 ]
 [ 0.01276635]
 [-0.14140481]
 [ 0.09837915]
 [ 0.16500507]
 [-0.16102909]
 [ 0.12771659]
 [ 0.05091674]
 [-0.1218349 ]
 [ 0.10584228]
 [ 0.15112837]
 [-0.08894068]
 [-0.16768248]
 [-0.21108171]
 [-0.1741299 ]
 [-0.16848803]
 [ 0.1883971 ]
 [-0.09683079]
 [ 0.04073966]
 [-0.1614464 ]
 [ 0.20883514]
 [-0.05577325]
 [-0.07204035]
 [ 0.12572412]
 [-0.18072675]
 [-0.07356273]
 [ 0.1491844 ]]
sequential/dense/bias:0
(1,)
[0.04536181]
