sequential/gru/kernel:0
(5, 240)
[[ 0.32060245  0.01530584  0.3498694  ...  0.01469419  0.12739557
   0.03538756]
 [ 0.13293996  0.03458673  0.29347044 ...  0.02168412  0.10904837
   0.10694419]
 [ 0.21428214  0.03366205  0.09969686 ...  0.03179793 -0.08644035
   0.08073752]
 [ 0.23004669 -0.10837338  0.12461463 ...  0.12782587  0.04173834
  -0.00380077]
 [ 0.28776342 -0.21252458  0.16090234 ... -0.04051169  0.01470433
   0.00427352]]
sequential/gru/recurrent_kernel:0
(80, 240)
[[-0.21755876  0.0940307  -0.05577273 ...  0.12998697  0.08300567
   0.12219071]
 [ 0.21002679  0.06745996  0.06070556 ... -0.02099961  0.05398565
  -0.09839791]
 [ 0.01351639 -0.08740003  0.02063001 ...  0.01646448 -0.04491454
  -0.04131009]
 ...
 [ 0.1343847   0.00359312  0.19345157 ... -0.07484911  0.01553113
  -0.00506045]
 [ 0.0705311  -0.06297154  0.10117262 ... -0.07702728 -0.12746687
   0.04840571]
 [ 0.16781592  0.07103354  0.0825011  ... -0.0051229   0.05136178
   0.0155985 ]]
sequential/gru/bias:0
(2, 240)
[[ 9.4607487e-02 -2.0778508e-01  1.7886300e-01 -7.1858442e-01
  -5.4632753e-01 -7.3217356e-01 -1.1138966e-01 -5.5824691e-01
  -4.5113772e-01 -2.0226511e-01 -4.1287464e-01 -5.8592099e-01
  -1.1808628e+00 -4.4911995e-04 -1.1643949e+00 -1.1282331e+00
   8.3733611e-02 -7.5930065e-01 -8.4129435e-01 -5.9448636e-01
  -2.6207849e-01 -3.2315406e-01 -2.5587228e-01 -7.4369383e-01
  -5.6711769e-01 -7.7033478e-01 -7.3099479e-02 -5.9115452e-01
  -2.8259721e-01 -5.8334661e-01 -6.1987537e-01 -4.4633034e-01
  -7.5418448e-01 -7.3383135e-01 -7.7561885e-01 -6.5575409e-01
  -7.3066789e-01 -8.9316761e-01 -4.4897103e-01 -3.1332165e-01
  -2.6436764e-01 -7.2301376e-01 -4.6884841e-01 -9.7269571e-01
  -7.3273218e-01 -2.8411093e-01 -1.7246263e-01  5.6479797e-02
  -3.9430699e-01 -8.5352665e-01 -5.4357457e-01 -6.9351953e-01
  -7.4264222e-01 -3.6034459e-01 -2.2094624e-01 -6.8877447e-01
   6.2746376e-02 -3.8397977e-01 -2.6439482e-01 -7.6185375e-01
  -5.7473862e-01  1.6769077e-01 -4.9019957e-01 -8.2914317e-01
  -8.9717460e-01 -8.3992648e-01 -3.3103588e-01 -7.3284811e-01
  -4.6740988e-01 -4.9100539e-01 -5.1560158e-01 -8.0434717e-02
   1.6094875e-01 -7.0822734e-01 -3.2507589e-01 -4.1096319e-02
  -6.1846304e-01 -6.4980257e-01 -7.9806203e-01 -6.0926735e-01
   2.2081323e-02  1.0037400e-02  3.8007490e-02  1.2684705e-02
   3.3756118e-02  4.6814587e-02  9.9977264e-03  1.7037444e-02
   2.7487859e-02  3.8314275e-02 -2.1890068e-02  7.5652383e-02
  -6.0069258e-05  9.4712479e-03 -7.6391469e-03 -3.3811986e-02
   3.9581023e-03  2.7643442e-02  1.3301122e-02  1.9330898e-02
  -3.8473379e-02 -1.1159819e-02 -2.8206746e-03  5.5634439e-02
  -1.5124538e-02 -8.4895792e-04  2.9618295e-02  5.6759112e-02
   5.7269679e-03  5.4901121e-03 -1.7763885e-02  5.7459489e-02
   3.0118540e-02  3.7210934e-02  3.0357724e-03  6.8161286e-02
   9.4834886e-02 -6.9182180e-02  8.7538892e-03 -1.5111424e-02
   2.1605266e-02  3.7806474e-02  3.1008525e-02 -2.4416966e-02
   4.7392860e-02 -6.9288881e-03  7.3624523e-03  2.7483165e-02
   3.5884608e-02  9.2695458e-03  1.8415742e-02  2.9141583e-02
   2.6133565e-02 -1.3751821e-02  9.6479440e-03  2.4874413e-02
  -1.2735044e-02  2.7166469e-02  3.0214896e-02  9.7639207e-03
   1.8703442e-02  3.4084069e-04  5.9381621e-03  3.0589135e-02
   7.7865124e-03  1.4392145e-02 -1.6057516e-02  2.8078333e-02
   9.2175445e-03  1.0585716e-02  5.2396562e-02 -1.4723671e-02
  -1.6308608e-02  1.5051255e-02  5.7692528e-02  3.2224182e-02
   2.2912355e-02  8.8649429e-03  2.9312648e-02  2.9987466e-02
   1.0864604e-02  3.3095253e-05 -8.4800674e-03  3.3779122e-02
  -3.4286294e-02 -2.7147625e-02  2.8894525e-02 -4.6846442e-02
   4.3456227e-02 -2.7349249e-02  1.2593433e-02  5.9479013e-02
  -3.0501859e-02  2.7981212e-02  3.6593493e-02 -3.0496692e-02
  -2.7396001e-03 -3.9979149e-02  2.0115884e-02 -1.8875442e-02
   1.7951107e-02 -1.6004032e-02  2.0730715e-02 -1.5687035e-02
  -1.6638659e-02 -3.3940043e-02  1.5931627e-02 -2.3601204e-02
  -3.3251114e-02  2.3568962e-02  2.9471291e-02 -2.3687787e-02
  -5.2975554e-02 -5.1891550e-02  4.7402266e-02 -5.1646583e-02
  -5.2641816e-02 -2.4609916e-02 -3.8166296e-02 -3.9101284e-02
  -2.9947443e-02  4.5110475e-02  5.6348812e-02  2.5847461e-02
   4.7942482e-02 -2.0756325e-02 -2.8638048e-02  2.0389451e-02
   2.5660582e-02  5.3391840e-02  1.9020759e-02 -1.2424027e-02
   3.8735185e-02  2.6062751e-02 -4.0084902e-02  2.1854000e-02
  -8.1496937e-03  4.9144059e-02  2.4075655e-02  4.6873309e-02
   2.7039643e-02 -7.6255291e-03 -3.9379764e-02  5.8643740e-02
   3.7142117e-02  3.4910034e-02 -2.6484050e-02 -4.8145454e-02
  -4.2902902e-02  3.1382985e-02  5.2831452e-02 -4.6792827e-03
   8.3573405e-03 -4.0161986e-02  3.4523882e-02  1.7320627e-02
   3.9366495e-02 -2.9503021e-02 -4.9733032e-02 -4.7707099e-02]
 [ 9.4607487e-02 -2.0778508e-01  1.7886300e-01 -7.1858442e-01
  -5.4632753e-01 -7.3217356e-01 -1.1138966e-01 -5.5824691e-01
  -4.5113772e-01 -2.0226511e-01 -4.1287464e-01 -5.8592099e-01
  -1.1808628e+00 -4.4911995e-04 -1.1643949e+00 -1.1282331e+00
   8.3733611e-02 -7.5930065e-01 -8.4129435e-01 -5.9448636e-01
  -2.6207849e-01 -3.2315406e-01 -2.5587228e-01 -7.4369383e-01
  -5.6711769e-01 -7.7033478e-01 -7.3099479e-02 -5.9115452e-01
  -2.8259721e-01 -5.8334661e-01 -6.1987537e-01 -4.4633034e-01
  -7.5418448e-01 -7.3383135e-01 -7.7561885e-01 -6.5575409e-01
  -7.3066789e-01 -8.9316761e-01 -4.4897103e-01 -3.1332165e-01
  -2.6436764e-01 -7.2301376e-01 -4.6884841e-01 -9.7269571e-01
  -7.3273218e-01 -2.8411093e-01 -1.7246263e-01  5.6479797e-02
  -3.9430699e-01 -8.5352665e-01 -5.4357457e-01 -6.9351953e-01
  -7.4264222e-01 -3.6034459e-01 -2.2094624e-01 -6.8877447e-01
   6.2746376e-02 -3.8397977e-01 -2.6439482e-01 -7.6185375e-01
  -5.7473862e-01  1.6769077e-01 -4.9019957e-01 -8.2914317e-01
  -8.9717460e-01 -8.3992648e-01 -3.3103588e-01 -7.3284811e-01
  -4.6740988e-01 -4.9100539e-01 -5.1560158e-01 -8.0434717e-02
   1.6094875e-01 -7.0822734e-01 -3.2507589e-01 -4.1096319e-02
  -6.1846304e-01 -6.4980257e-01 -7.9806203e-01 -6.0926735e-01
   2.2081323e-02  1.0037400e-02  3.8007490e-02  1.2684705e-02
   3.3756118e-02  4.6814587e-02  9.9977264e-03  1.7037444e-02
   2.7487859e-02  3.8314275e-02 -2.1890068e-02  7.5652383e-02
  -6.0069258e-05  9.4712479e-03 -7.6391469e-03 -3.3811986e-02
   3.9581023e-03  2.7643442e-02  1.3301122e-02  1.9330898e-02
  -3.8473379e-02 -1.1159819e-02 -2.8206746e-03  5.5634439e-02
  -1.5124538e-02 -8.4895792e-04  2.9618295e-02  5.6759112e-02
   5.7269679e-03  5.4901121e-03 -1.7763885e-02  5.7459489e-02
   3.0118540e-02  3.7210934e-02  3.0357724e-03  6.8161286e-02
   9.4834886e-02 -6.9182180e-02  8.7538892e-03 -1.5111424e-02
   2.1605266e-02  3.7806474e-02  3.1008525e-02 -2.4416966e-02
   4.7392860e-02 -6.9288881e-03  7.3624523e-03  2.7483165e-02
   3.5884608e-02  9.2695458e-03  1.8415742e-02  2.9141583e-02
   2.6133565e-02 -1.3751821e-02  9.6479440e-03  2.4874413e-02
  -1.2735044e-02  2.7166469e-02  3.0214896e-02  9.7639207e-03
   1.8703442e-02  3.4084069e-04  5.9381621e-03  3.0589135e-02
   7.7865124e-03  1.4392145e-02 -1.6057516e-02  2.8078333e-02
   9.2175445e-03  1.0585716e-02  5.2396562e-02 -1.4723671e-02
  -1.6308608e-02  1.5051255e-02  5.7692528e-02  3.2224182e-02
   2.2912355e-02  8.8649429e-03  2.9312648e-02  2.9987466e-02
   1.4545719e-02 -2.3546259e-04 -1.0927039e-02  3.6297653e-02
  -3.4353949e-02 -2.8184775e-02  2.9431248e-02 -4.5026205e-02
   4.5384265e-02 -2.5804169e-02  1.5832121e-02  6.0502354e-02
  -2.9277932e-02  2.8339563e-02  3.5864741e-02 -2.9059505e-02
  -3.6359739e-03 -3.7227619e-02  2.2891477e-02 -1.6378257e-02
   1.7600054e-02 -1.2861663e-02  2.1150643e-02 -1.1712086e-02
  -1.7683191e-02 -3.4067500e-02  1.6536083e-02 -2.6805043e-02
  -3.0954553e-02  2.3071501e-02  2.5219904e-02 -2.3853937e-02
  -5.2331984e-02 -5.6002542e-02  4.7502689e-02 -5.3484268e-02
  -5.1912587e-02 -2.1409478e-02 -3.8231790e-02 -3.5561960e-02
  -3.0559745e-02  4.1382674e-02  5.1488284e-02  3.1644952e-02
   4.8412811e-02 -2.1964716e-02 -2.7874824e-02  2.0707961e-02
   2.4629990e-02  5.1539928e-02  2.0010220e-02 -1.4849952e-02
   4.3418676e-02  2.5375808e-02 -4.0825464e-02  2.6395004e-02
  -7.8930277e-03  4.5731712e-02  2.3853583e-02  4.5991659e-02
   2.2417974e-02 -7.3929536e-03 -3.6686212e-02  5.8768976e-02
   3.7635077e-02  3.4521751e-02 -2.9879212e-02 -5.0064098e-02
  -4.2696968e-02  2.8873893e-02  5.2871432e-02 -5.4416643e-03
   8.0738300e-03 -4.3683335e-02  3.6153212e-02  1.7168043e-02
   3.8214948e-02 -2.7970165e-02 -5.2893944e-02 -4.5716800e-02]]
sequential/gru_1/kernel:0
(80, 300)
[[ 0.06926467 -0.04204917 -0.11021128 ... -0.06073646  0.05400871
  -0.04701853]
 [-0.15048523 -0.08441933 -0.00484274 ...  0.05352465 -0.06078141
   0.08535447]
 [ 0.02077907  0.08045605  0.07988378 ...  0.0475975  -0.00985956
   0.04419563]
 ...
 [-0.10216623  0.02223464 -0.05701293 ... -0.01044487  0.06185339
   0.13455202]
 [ 0.00119605 -0.04929962 -0.02152991 ...  0.10491282  0.00382618
  -0.04866474]
 [ 0.04207547  0.03775771 -0.02087553 ...  0.00448493  0.00766948
   0.16874048]]
sequential/gru_1/recurrent_kernel:0
(100, 300)
[[-0.11772353  0.09859134 -0.05836762 ... -0.12823467  0.08106189
   0.10082253]
 [-0.11141365  0.06349777  0.00166329 ...  0.00875777  0.03697168
  -0.06841289]
 [ 0.04800614  0.00664983  0.08257577 ... -0.00354243  0.09270031
  -0.05655086]
 ...
 [-0.0334784  -0.01995812 -0.00939349 ... -0.01018201 -0.02605015
  -0.08119655]
 [ 0.0672373  -0.08808378  0.00473476 ... -0.03787009  0.02837029
  -0.06461369]
 [-0.05933079  0.00350433 -0.04787388 ...  0.01026073  0.01075691
  -0.15055446]]
sequential/gru_1/bias:0
(2, 300)
[[-0.0394079   0.12160792  0.11027165  0.05147146  0.10858291  0.11047426
   0.05031516  0.09965581  0.12092711  0.06528673  0.20029192  0.05737146
   0.32873467  0.09830175  0.2187293   0.06254081  0.03942863  0.16509597
   0.22438478  0.2990981   0.21179304  0.15755272  0.18896255  0.11215474
   0.14813568  0.2998513   0.144827    0.18787473  0.31477872  0.11071879
   0.04935551  0.05000182  0.0710071   0.01536623  0.09754521  0.17126179
   0.1444552   0.03304252  0.32028624  0.17066374  0.04207829  0.00280576
   0.04808456  0.04532272  0.19483976 -0.03279949  0.15396045  0.04733805
   0.06060104  0.17609343  0.06919748  0.18742141  0.24260642  0.14005594
   0.11090813  0.1254341   0.01948003  0.09382044  0.1838963   0.11913989
   0.16370317  0.04950221  0.2353306  -0.04064306  0.12443893  0.1048676
   0.21643664  0.2709216   0.20313534  0.2877948   0.17506374  0.01551372
   0.21036977  0.12660022  0.15479548  0.22504911  0.05169471  0.02454685
   0.13574114  0.11878242  0.13366441 -0.03131074  0.14198737  0.00613246
   0.05593308  0.18505527  0.1702609   0.22825103  0.12535855  0.01870688
   0.01873618  0.07472503  0.12812148  0.09108075  0.07432263  0.08762382
   0.11407881  0.04816287  0.19111685 -0.01181478 -0.04584361 -0.03913078
  -0.0220389  -0.03041809 -0.0285824  -0.01116987 -0.06047089 -0.01574023
  -0.03680168 -0.03501742 -0.01660129 -0.04181608 -0.09961317 -0.01507929
  -0.04317608 -0.01874259 -0.01077838 -0.02584535 -0.04751214 -0.01606458
  -0.02000926 -0.04998963 -0.03665043 -0.04086068 -0.01735273 -0.04659777
  -0.03687392 -0.06133964 -0.02795953 -0.03863203 -0.02875671 -0.02677953
  -0.04982109 -0.02613089 -0.02785012 -0.02622916 -0.03171024 -0.09911947
  -0.05539484 -0.03037852 -0.06105576 -0.05321497 -0.03658103 -0.05489842
  -0.02341784 -0.04210391 -0.05909192 -0.02339892 -0.05572086 -0.04171981
  -0.01288612 -0.03124847 -0.04269511 -0.02007122 -0.03098175 -0.03081615
  -0.0649676  -0.04954034 -0.00073556 -0.05929711 -0.03731339 -0.01936562
  -0.05296421 -0.00501334 -0.02534012 -0.02509947 -0.0192601  -0.06510989
  -0.03122751 -0.06467491 -0.01800169 -0.00760462 -0.02178985 -0.01818102
  -0.03078439 -0.02373601 -0.05765446 -0.02004725 -0.03918534 -0.02814278
  -0.03286655 -0.01647284 -0.01297442 -0.02391871 -0.01028018 -0.02865927
  -0.02470759 -0.01725301 -0.02973544 -0.00853675 -0.01190221 -0.03555663
  -0.03599076 -0.0600531  -0.00788647 -0.02699632 -0.03775749 -0.09493285
  -0.0310168  -0.06337786  0.01867043  0.00602384  0.00554614 -0.0072671
   0.00718109  0.00776817  0.00582795  0.00990764  0.01202972 -0.00760505
  -0.01356722  0.01272362  0.02005713 -0.0214656  -0.00175433  0.00723752
   0.00694456 -0.01946639 -0.01220375 -0.00292377  0.01402962  0.00513546
   0.01350162 -0.01788608 -0.01066972 -0.01002864 -0.0171297  -0.01221253
   0.00263232  0.01343861  0.01389984  0.01178258 -0.01185374 -0.01559991
  -0.0104009   0.00990372  0.00350578  0.01866937 -0.00406723  0.00474124
   0.0219768  -0.01692322 -0.00982657  0.01099301 -0.01291197 -0.01535184
  -0.02282998 -0.00892602  0.0125168  -0.01060744  0.01345477  0.01043295
  -0.00492146  0.008881   -0.01350842  0.00902501 -0.01706703 -0.01099266
   0.01603871  0.00854008  0.01234288 -0.00972407 -0.01832609  0.01646438
   0.01449334  0.0056023   0.01051571  0.00993154  0.01357985  0.00076495
  -0.01152918  0.01016251 -0.01363389  0.01264475  0.00952344 -0.00199077
   0.01053393 -0.01221057 -0.0111654  -0.00773175 -0.00782692  0.0216119
  -0.00232114 -0.01296706 -0.00646992 -0.00786731 -0.01069071 -0.00555838
   0.00898533  0.0087732  -0.01138795 -0.00857784 -0.00960449  0.00862143
   0.01247233  0.01697575  0.00384644  0.0124483  -0.01902728  0.02136723]
 [-0.0394079   0.12160792  0.11027165  0.05147146  0.10858291  0.11047426
   0.05031516  0.09965581  0.12092711  0.06528673  0.20029192  0.05737146
   0.32873467  0.09830175  0.2187293   0.06254081  0.03942863  0.16509597
   0.22438478  0.2990981   0.21179304  0.15755272  0.18896255  0.11215474
   0.14813568  0.2998513   0.144827    0.18787473  0.31477872  0.11071879
   0.04935551  0.05000182  0.0710071   0.01536623  0.09754521  0.17126179
   0.1444552   0.03304252  0.32028624  0.17066374  0.04207829  0.00280576
   0.04808456  0.04532272  0.19483976 -0.03279949  0.15396045  0.04733805
   0.06060104  0.17609343  0.06919748  0.18742141  0.24260642  0.14005594
   0.11090813  0.1254341   0.01948003  0.09382044  0.1838963   0.11913989
   0.16370317  0.04950221  0.2353306  -0.04064306  0.12443893  0.1048676
   0.21643664  0.2709216   0.20313534  0.2877948   0.17506374  0.01551372
   0.21036977  0.12660022  0.15479548  0.22504911  0.05169471  0.02454685
   0.13574114  0.11878242  0.13366441 -0.03131074  0.14198737  0.00613246
   0.05593308  0.18505527  0.1702609   0.22825103  0.12535855  0.01870688
   0.01873618  0.07472503  0.12812148  0.09108075  0.07432263  0.08762382
   0.11407881  0.04816287  0.19111685 -0.01181478 -0.04584361 -0.03913078
  -0.0220389  -0.03041809 -0.0285824  -0.01116987 -0.06047089 -0.01574023
  -0.03680168 -0.03501742 -0.01660129 -0.04181608 -0.09961317 -0.01507929
  -0.04317608 -0.01874259 -0.01077838 -0.02584535 -0.04751214 -0.01606458
  -0.02000926 -0.04998963 -0.03665043 -0.04086068 -0.01735273 -0.04659777
  -0.03687392 -0.06133964 -0.02795953 -0.03863203 -0.02875671 -0.02677953
  -0.04982109 -0.02613089 -0.02785012 -0.02622916 -0.03171024 -0.09911947
  -0.05539484 -0.03037852 -0.06105576 -0.05321497 -0.03658103 -0.05489842
  -0.02341784 -0.04210391 -0.05909192 -0.02339892 -0.05572086 -0.04171981
  -0.01288612 -0.03124847 -0.04269511 -0.02007122 -0.03098175 -0.03081615
  -0.0649676  -0.04954034 -0.00073556 -0.05929711 -0.03731339 -0.01936562
  -0.05296421 -0.00501334 -0.02534012 -0.02509947 -0.0192601  -0.06510989
  -0.03122751 -0.06467491 -0.01800169 -0.00760462 -0.02178985 -0.01818102
  -0.03078439 -0.02373601 -0.05765446 -0.02004725 -0.03918534 -0.02814278
  -0.03286655 -0.01647284 -0.01297442 -0.02391871 -0.01028018 -0.02865927
  -0.02470759 -0.01725301 -0.02973544 -0.00853675 -0.01190221 -0.03555663
  -0.03599076 -0.0600531  -0.00788647 -0.02699632 -0.03775749 -0.09493285
  -0.0310168  -0.06337786  0.02132502  0.00626415  0.00569448 -0.00758381
   0.00577394  0.00684935  0.00407101  0.01006685  0.01137129 -0.00790952
  -0.01158919  0.01345751  0.01899667 -0.02072346 -0.00176192  0.00572175
   0.00628761 -0.01876629 -0.01227092 -0.00372845  0.01541047  0.00367914
   0.01420129 -0.01825567 -0.01015864 -0.01055518 -0.01675786 -0.01266093
   0.00294874  0.01424522  0.01376189  0.01287094 -0.01166039 -0.0146644
  -0.00736631  0.00848272  0.00413046  0.0181438  -0.00416469  0.00538803
   0.02201625 -0.01429837 -0.01024011  0.00920792 -0.01351361 -0.01412376
  -0.02331116 -0.00823463  0.01143869 -0.01132391  0.01471623  0.00988059
  -0.00498812  0.0087778  -0.0145569   0.0070693  -0.01295932 -0.01231598
   0.01515307  0.00890909  0.01290795 -0.00874549 -0.01838622  0.01464136
   0.01579341  0.00543836  0.00888171  0.01045711  0.01226133  0.00161045
  -0.01080006  0.00997051 -0.01327382  0.01292894  0.00870584 -0.00282101
   0.00816204 -0.01194876 -0.010679   -0.00729888 -0.00685384  0.02134153
  -0.00225385 -0.01096142 -0.0064102  -0.00724737 -0.00921176 -0.00494316
   0.00861843  0.00906545 -0.01104057 -0.00686149 -0.00988409  0.00886003
   0.0118171   0.01826107  0.00395654  0.0137286  -0.01886801  0.02059622]]
sequential/dense/kernel:0
(100, 1)
[[ 0.07989459]
 [ 0.14407197]
 [ 0.14164376]
 [-0.16270992]
 [ 0.11421365]
 [ 0.11505924]
 [ 0.134485  ]
 [ 0.11387735]
 [ 0.12148521]
 [-0.17505111]
 [-0.04523163]
 [ 0.11833387]
 [ 0.0440948 ]
 [-0.05193668]
 [-0.13901702]
 [ 0.11167311]
 [ 0.12261349]
 [-0.04863303]
 [-0.09668513]
 [-0.17384493]
 [ 0.04106481]
 [ 0.12304632]
 [ 0.15242152]
 [-0.04500268]
 [-0.07100983]
 [-0.10329477]
 [-0.114609  ]
 [-0.11428633]
 [ 0.16805479]
 [ 0.15948851]
 [ 0.20712532]
 [ 0.19233748]
 [-0.14053659]
 [-0.09124106]
 [-0.06265395]
 [ 0.17509435]
 [ 0.16887817]
 [ 0.08908729]
 [-0.17016542]
 [ 0.1918982 ]
 [ 0.09113706]
 [-0.05811333]
 [-0.16105711]
 [ 0.08155759]
 [-0.19029893]
 [-0.05961193]
 [-0.04765496]
 [-0.14015913]
 [ 0.1593508 ]
 [-0.20525569]
 [ 0.08621734]
 [ 0.07693497]
 [-0.14463992]
 [ 0.11905875]
 [-0.12409701]
 [ 0.05299087]
 [-0.07009782]
 [-0.15659091]
 [ 0.04810695]
 [ 0.16064687]
 [ 0.14569692]
 [-0.06948818]
 [-0.06009327]
 [ 0.04508211]
 [ 0.08407646]
 [ 0.14249243]
 [ 0.05194635]
 [ 0.11280487]
 [ 0.04770486]
 [ 0.21093239]
 [-0.07512987]
 [ 0.05357684]
 [-0.06074494]
 [ 0.09995981]
 [ 0.07072787]
 [-0.1691054 ]
 [ 0.08255977]
 [-0.15145813]
 [-0.18278296]
 [-0.17843807]
 [-0.10144664]
 [ 0.06232298]
 [-0.13062939]
 [-0.07676718]
 [-0.11556686]
 [-0.1091068 ]
 [-0.06460674]
 [-0.11888888]
 [ 0.12144756]
 [ 0.1582443 ]
 [-0.20665427]
 [-0.05603985]
 [-0.13556425]
 [ 0.15900485]
 [ 0.11057339]
 [ 0.17184643]
 [ 0.1555794 ]
 [ 0.10464422]
 [-0.04940712]
 [ 0.0863355 ]]
sequential/dense/bias:0
(1,)
[0.23050722]
