sequential/gru/kernel:0
(5, 240)
[[-0.3961113  -0.2791534   0.19747786 ...  0.03277598  0.01327891
   0.13885823]
 [-0.38650018 -0.18766019  0.05697161 ...  0.03817638  0.13837963
   0.10636053]
 [-0.6352031  -0.2883794   0.03962336 ... -0.03062059 -0.00755215
   0.05064228]
 [-0.41275504 -0.2802493   0.17422678 ... -0.08836652 -0.02019939
  -0.10184054]
 [-0.4427187  -0.3784435   0.05298786 ...  0.06541082  0.04336949
  -0.0020481 ]]
sequential/gru/recurrent_kernel:0
(80, 240)
[[-0.22624929 -0.02520537  0.17149127 ... -0.05364438 -0.06876231
   0.01600957]
 [ 0.11596747  0.16684863 -0.20551163 ... -0.04534244  0.10135015
  -0.04258718]
 [ 0.04576155  0.03192073 -0.04501678 ...  0.1465345  -0.12194748
  -0.0489498 ]
 ...
 [ 0.23265533  0.07501309 -0.10005683 ... -0.07441027 -0.11816496
   0.14692779]
 [-0.12472378 -0.22469512  0.07039019 ... -0.1312448   0.03848022
  -0.0542567 ]
 [-0.10368555 -0.1681696   0.17505081 ... -0.04462797  0.02521413
   0.12285582]]
sequential/gru/bias:0
(2, 240)
[[-6.80135787e-01 -4.71291721e-01 -1.75714772e-02 -7.33202338e-01
  -2.75745720e-01 -5.67756891e-01 -6.59554005e-01 -8.06490362e-01
  -6.74129725e-01 -1.19769007e-01 -7.61545897e-01 -9.26704824e-01
  -3.88005406e-01 -7.55740643e-01 -5.69352031e-01 -4.96218175e-01
  -2.69559622e-01 -9.18100059e-01 -8.89437556e-01 -4.64731276e-01
  -2.04884753e-01 -5.78940511e-01 -8.82962823e-01  1.95677534e-01
  -4.82581705e-01 -7.28748024e-01 -9.28701833e-02 -6.12160563e-01
  -6.15790486e-01  8.53142291e-02 -4.61345166e-01 -1.00635134e-01
  -2.67598867e-01 -1.19622469e-01 -3.41233045e-01 -4.86981302e-01
  -1.09966600e+00 -6.17551982e-01 -5.64784519e-02 -5.18471420e-01
  -5.52898526e-01 -6.46820247e-01 -7.57603824e-01 -2.82296747e-01
  -4.90364386e-03  2.26724185e-02 -9.94028568e-01 -6.79809153e-01
  -1.33480892e-01  1.08667098e-01 -1.08336830e+00 -6.03299499e-01
  -5.93963921e-01 -8.17522466e-01 -6.91924810e-01  6.19821362e-02
  -6.10744357e-01 -6.09656751e-01 -4.43253294e-02 -6.02432132e-01
  -7.59427905e-01 -3.96933347e-01 -1.97458863e-01 -4.60169226e-01
  -5.66168725e-01 -7.05200672e-01 -2.65723795e-01 -1.07552361e+00
   1.77966014e-01 -5.61132252e-01 -1.01125658e+00 -3.64593357e-01
  -1.76943302e-01 -8.79770756e-01 -5.33136189e-01 -5.13061047e-01
  -5.24177432e-01  2.01139394e-02 -4.66926813e-01 -9.21873987e-01
   1.02748545e-02  6.66583925e-02 -1.50473919e-02 -1.06728394e-02
   3.39779304e-03  6.46702899e-03  3.16103920e-03 -4.83873487e-02
   4.81089316e-02 -2.25362480e-02  1.73850264e-02  8.07086937e-03
  -5.21207834e-03 -3.06184348e-02 -5.81506593e-03 -9.46800923e-04
   5.49777709e-02  2.21608896e-02  8.79991986e-03  9.25948918e-02
  -1.58133358e-02  1.02853149e-01  9.29838493e-02  1.05366642e-02
   4.51926775e-02  7.99271837e-03  9.97781288e-03 -1.39071504e-02
   4.45702188e-02  9.17887017e-02  2.12131143e-02  2.35578772e-02
   6.65904954e-03 -1.62595715e-02  9.17231292e-02  5.73652005e-03
  -7.40144849e-02  2.23263260e-02 -2.74057547e-03 -8.01244751e-04
  -4.22166474e-03  8.59262943e-02  4.30806354e-02 -5.59439324e-03
  -6.46984996e-03  4.98781586e-03  3.73415314e-02  3.60239670e-02
  -7.21212989e-03 -4.59810067e-03  1.73302870e-02  1.31801851e-02
  -8.00244138e-03 -1.22747226e-02  9.40684043e-03 -5.11967298e-03
   3.89987044e-02  1.85962338e-02 -2.17273831e-02  2.81518307e-02
   3.78127135e-02 -5.45242429e-03  1.76194534e-02 -1.34853050e-02
   6.75558625e-03  2.36069523e-02  3.36887650e-02  2.89630666e-02
   4.09371423e-04  2.13026465e-03 -3.84101160e-02  1.35586010e-02
  -1.49144921e-02  3.23904268e-02  7.57959089e-04  1.42676402e-02
  -4.90313070e-03  3.94351631e-02  1.03025613e-02  6.28835429e-03
  -3.29516679e-02  4.44142595e-02 -5.37291076e-03 -1.64056905e-02
  -3.53928544e-02  3.79642583e-02  4.88783866e-02 -1.80740729e-02
   5.24513721e-02  3.22135128e-02 -3.88037339e-02 -4.06125002e-02
  -2.05045734e-02 -1.95059180e-02  1.66682713e-02  3.11857052e-02
   4.09515016e-02 -5.28286621e-02 -4.10419777e-02  5.24639972e-02
   3.23871672e-02  6.66198358e-02 -5.05078472e-02  2.99890945e-03
  -6.86852559e-02 -3.35623920e-02  6.98054442e-03 -6.88179443e-03
   3.92547622e-02 -9.20552202e-03  3.08470763e-02  2.24988535e-02
  -2.18358636e-02  9.76579450e-03  6.16242327e-02  3.15635428e-02
  -2.83428375e-02  4.64474298e-02 -1.95456520e-02 -2.83847786e-02
  -2.24451143e-02 -3.04297805e-02  3.03256623e-02 -3.22218202e-02
   3.41623952e-03  3.75483395e-03  2.66848188e-02  3.39118727e-02
  -3.13766748e-02  3.04767881e-02 -4.42331284e-02 -2.90992167e-02
   4.46092039e-02  2.70820167e-02 -4.00711596e-02 -4.75952402e-03
  -5.26453853e-02 -4.53555621e-02  1.90209374e-02  4.72226478e-02
   6.70645833e-02  5.64777292e-02  1.71107929e-02  2.93528028e-02
  -2.41857059e-02 -3.70679349e-02 -5.18005155e-02 -5.94076850e-02
  -1.63094755e-02 -3.03638503e-02 -1.53387915e-02  2.69945897e-02
  -2.53728665e-02  4.77079563e-02 -2.11036615e-02 -3.99108045e-02
  -3.17352004e-02 -2.79134815e-03 -3.63523960e-02 -5.67441918e-02]
 [-6.80135787e-01 -4.71291721e-01 -1.75714772e-02 -7.33202338e-01
  -2.75745720e-01 -5.67756891e-01 -6.59554005e-01 -8.06490362e-01
  -6.74129725e-01 -1.19769007e-01 -7.61545897e-01 -9.26704824e-01
  -3.88005406e-01 -7.55740643e-01 -5.69352031e-01 -4.96218175e-01
  -2.69559622e-01 -9.18100059e-01 -8.89437556e-01 -4.64731276e-01
  -2.04884753e-01 -5.78940511e-01 -8.82962823e-01  1.95677534e-01
  -4.82581705e-01 -7.28748024e-01 -9.28701833e-02 -6.12160563e-01
  -6.15790486e-01  8.53142291e-02 -4.61345166e-01 -1.00635134e-01
  -2.67598867e-01 -1.19622469e-01 -3.41233045e-01 -4.86981302e-01
  -1.09966600e+00 -6.17551982e-01 -5.64784519e-02 -5.18471420e-01
  -5.52898526e-01 -6.46820247e-01 -7.57603824e-01 -2.82296747e-01
  -4.90364386e-03  2.26724185e-02 -9.94028568e-01 -6.79809153e-01
  -1.33480892e-01  1.08667098e-01 -1.08336830e+00 -6.03299499e-01
  -5.93963921e-01 -8.17522466e-01 -6.91924810e-01  6.19821362e-02
  -6.10744357e-01 -6.09656751e-01 -4.43253294e-02 -6.02432132e-01
  -7.59427905e-01 -3.96933347e-01 -1.97458863e-01 -4.60169226e-01
  -5.66168725e-01 -7.05200672e-01 -2.65723795e-01 -1.07552361e+00
   1.77966014e-01 -5.61132252e-01 -1.01125658e+00 -3.64593357e-01
  -1.76943302e-01 -8.79770756e-01 -5.33136189e-01 -5.13061047e-01
  -5.24177432e-01  2.01139394e-02 -4.66926813e-01 -9.21873987e-01
   1.02748545e-02  6.66583925e-02 -1.50473919e-02 -1.06728394e-02
   3.39779304e-03  6.46702899e-03  3.16103920e-03 -4.83873487e-02
   4.81089316e-02 -2.25362480e-02  1.73850264e-02  8.07086937e-03
  -5.21207834e-03 -3.06184348e-02 -5.81506593e-03 -9.46800923e-04
   5.49777709e-02  2.21608896e-02  8.79991986e-03  9.25948918e-02
  -1.58133358e-02  1.02853149e-01  9.29838493e-02  1.05366642e-02
   4.51926775e-02  7.99271837e-03  9.97781288e-03 -1.39071504e-02
   4.45702188e-02  9.17887017e-02  2.12131143e-02  2.35578772e-02
   6.65904954e-03 -1.62595715e-02  9.17231292e-02  5.73652005e-03
  -7.40144849e-02  2.23263260e-02 -2.74057547e-03 -8.01244751e-04
  -4.22166474e-03  8.59262943e-02  4.30806354e-02 -5.59439324e-03
  -6.46984996e-03  4.98781586e-03  3.73415314e-02  3.60239670e-02
  -7.21212989e-03 -4.59810067e-03  1.73302870e-02  1.31801851e-02
  -8.00244138e-03 -1.22747226e-02  9.40684043e-03 -5.11967298e-03
   3.89987044e-02  1.85962338e-02 -2.17273831e-02  2.81518307e-02
   3.78127135e-02 -5.45242429e-03  1.76194534e-02 -1.34853050e-02
   6.75558625e-03  2.36069523e-02  3.36887650e-02  2.89630666e-02
   4.09371423e-04  2.13026465e-03 -3.84101160e-02  1.35586010e-02
  -1.49144921e-02  3.23904268e-02  7.57959089e-04  1.42676402e-02
  -4.90313070e-03  3.94351631e-02  1.03025613e-02  6.28835429e-03
  -3.61046195e-02  4.56407405e-02 -4.58014291e-03 -1.79033894e-02
  -3.11516281e-02  3.96446623e-02  4.42762747e-02 -1.64481215e-02
   4.94836755e-02  3.29391398e-02 -3.92825417e-02 -4.51236926e-02
  -2.02815216e-02 -2.25456525e-02  1.58252697e-02  3.15406844e-02
   4.17104103e-02 -4.98153679e-02 -4.23853844e-02  5.29347211e-02
   3.35031375e-02  7.72731453e-02 -5.99599071e-02  3.56216240e-03
  -6.90594018e-02 -3.24537233e-02  7.27527449e-03 -5.25874738e-03
   4.44605686e-02 -9.03802179e-03  2.95707900e-02  2.19121892e-02
  -2.37554517e-02  1.16776144e-02  6.15700744e-02  3.29068489e-02
  -2.82570403e-02  4.66676615e-02 -2.12669838e-02 -2.79336981e-02
  -1.79258026e-02 -2.85064001e-02  3.23531851e-02 -3.47073972e-02
   3.45096621e-03  2.70377798e-03  2.09421869e-02  3.64728197e-02
  -3.05047520e-02  2.90977135e-02 -4.37477380e-02 -3.05882432e-02
   4.12242897e-02  2.68282294e-02 -3.98590825e-02 -1.75796147e-03
  -5.21017015e-02 -4.48824503e-02  2.02857554e-02  4.47556153e-02
   6.52265325e-02  5.67964837e-02  1.74205601e-02  2.94684470e-02
  -2.59505101e-02 -3.87103781e-02 -5.02739251e-02 -5.59185594e-02
  -1.56994686e-02 -3.07414848e-02 -1.85519643e-02  2.70027369e-02
  -2.34616511e-02  5.38613535e-02 -2.27654614e-02 -3.74535508e-02
  -3.21994498e-02 -3.46184312e-03 -3.52593884e-02 -5.39099351e-02]]
sequential/gru_1/kernel:0
(80, 300)
[[ 0.02448515  0.05881644 -0.06108732 ... -0.09546041 -0.01917016
  -0.05978775]
 [-0.05113323  0.13149141 -0.03639717 ... -0.08175091 -0.13373779
  -0.08868103]
 [-0.03735097 -0.05753243  0.14732388 ... -0.11405896  0.08013157
  -0.00073096]
 ...
 [-0.06370147  0.03455087 -0.08435078 ... -0.08026107  0.01345017
  -0.01351129]
 [ 0.19667043  0.0025435   0.06462297 ... -0.07394484 -0.00202177
   0.05480492]
 [ 0.14272562 -0.10974869  0.12792158 ... -0.07370322  0.1201941
  -0.09280662]]
sequential/gru_1/recurrent_kernel:0
(100, 300)
[[-0.02304413  0.05693554 -0.03044616 ...  0.05206704 -0.03103414
  -0.06381799]
 [-0.04926721  0.07604189 -0.03926756 ... -0.03258987  0.01855473
  -0.01117038]
 [-0.17607729  0.03584518 -0.01155577 ... -0.00631307 -0.08072564
   0.04933578]
 ...
 [ 0.07081924  0.04447466  0.06181823 ... -0.07236189  0.04039589
   0.04882099]
 [-0.00480537  0.03120864  0.02872811 ...  0.04069626 -0.03752202
   0.04643421]
 [ 0.07995246 -0.02574024  0.00218228 ... -0.10193487 -0.02490525
  -0.06543452]]
sequential/gru_1/bias:0
(2, 300)
[[ 0.17818603  0.10918826  0.10389576  0.19565082  0.01749527  0.22989042
   0.03508737  0.0385525   0.04247436  0.16165006  0.16518538  0.10747866
   0.09821563  0.15283611  0.1880508  -0.01003913  0.07077491  0.09049974
   0.11146802  0.07242843  0.07021756  0.19768187  0.22019261  0.08203962
   0.16450611  0.01929733  0.13541692  0.15984125  0.09837367  0.2108967
   0.0686687  -0.00275792  0.10336707 -0.00424339  0.09023605  0.02066872
   0.19669938  0.04266861  0.09930554  0.18664847 -0.01583369  0.1581892
   0.15704662  0.05309741  0.03065216  0.12732607  0.17564958 -0.03814194
   0.04922302  0.15341565  0.16786875  0.07931116  0.13676186  0.13955548
   0.01534917  0.23463216  0.02581567  0.24053942 -0.000428   -0.00199031
   0.04724837  0.24849     0.09941928  0.04463654  0.14553347  0.04978011
   0.15955403  0.02096424  0.13710059  0.07100074  0.10019696 -0.07476284
   0.02495066 -0.03193521  0.04947691  0.03504065  0.12600516  0.12365846
   0.14030407  0.00850553  0.04867292  0.12928174  0.05072006  0.1317278
   0.02656375  0.1299573   0.03425869  0.25898683  0.09037434  0.06676348
   0.11315708  0.10961924  0.17728679  0.24745972  0.12530299  0.10403737
   0.08647327 -0.00113165  0.22541629  0.147095   -0.01079957 -0.01626674
  -0.03145257 -0.05975173  0.00283262 -0.05897952 -0.03340377 -0.01449696
  -0.09439798 -0.0333057  -0.01736468 -0.00236217 -0.0317577  -0.01604107
  -0.04077989 -0.01002266 -0.06167228 -0.03982435 -0.05364784 -0.09774268
  -0.05418209 -0.0426906  -0.02357299 -0.02583065 -0.03866307 -0.0269786
  -0.04445766 -0.03116026 -0.03514061 -0.03344355 -0.04933086 -0.02271054
  -0.05417532 -0.02936011 -0.05061884 -0.00671305 -0.02649147 -0.05095225
  -0.01766342 -0.03475462 -0.0886013  -0.02237326 -0.03414729 -0.04382457
  -0.02626496 -0.04257702 -0.02955806 -0.06502087 -0.05730619 -0.0278291
  -0.01427648 -0.01874483 -0.07283188 -0.04276152 -0.0289226  -0.01790006
  -0.02273022 -0.02264477 -0.12620448 -0.07630207 -0.01018995 -0.01353816
  -0.02442598 -0.06706545 -0.01088849 -0.04774106 -0.00708956 -0.01406472
  -0.03521708 -0.04254999 -0.06314997 -0.07681013 -0.02995431 -0.03882563
  -0.00374662 -0.0192016  -0.02110462 -0.08361891 -0.01675713 -0.06366006
  -0.00078446 -0.08128439 -0.00561996 -0.05932812 -0.04180263 -0.04133205
  -0.05359371 -0.03334173 -0.03583618 -0.04022294 -0.04333328 -0.03420054
  -0.0208062  -0.03365237 -0.0203878  -0.04043981 -0.05158    -0.05694595
  -0.04022561 -0.03522889  0.00622787  0.01513786 -0.01737759 -0.01748149
  -0.01736255 -0.01935014 -0.01866338  0.00616562  0.02293268  0.01584618
   0.00310125 -0.00635287  0.01622481  0.00386034 -0.00856918  0.00765792
  -0.0171385   0.01207019 -0.01282745 -0.02393283 -0.01606457  0.00649134
   0.01476256 -0.01754163  0.01365286  0.00511808 -0.01235805 -0.01443703
  -0.01015062  0.0111574  -0.01217702 -0.01167145 -0.01127801  0.00873874
  -0.01183811  0.01516503  0.01092066 -0.01380002  0.00819221  0.00858831
  -0.01475527 -0.01450147 -0.0059838   0.01724462 -0.01066157  0.01293741
  -0.00937864  0.01855138  0.02012868 -0.01082494  0.00480949 -0.01515437
  -0.02054774 -0.01485301  0.0132469  -0.01033608 -0.01764962 -0.00110143
   0.0150223  -0.01426867 -0.00896032 -0.01877455 -0.00763486  0.02099729
   0.00437951 -0.01635286 -0.00874301  0.00147478 -0.00635799 -0.01693855
   0.00830689  0.01993424  0.01148565 -0.01817892  0.01171344  0.01311714
  -0.00315699 -0.01272305  0.00870887  0.01800523 -0.01284931 -0.01001313
  -0.00777457 -0.01731404 -0.01894328 -0.02408512  0.01004288  0.013256
   0.01884751 -0.02252306  0.00262556  0.00928683 -0.01973156  0.0121211
   0.00991466 -0.01159936  0.00688366  0.00831384  0.0165002   0.01475461]
 [ 0.17818603  0.10918826  0.10389576  0.19565082  0.01749527  0.22989042
   0.03508737  0.0385525   0.04247436  0.16165006  0.16518538  0.10747866
   0.09821563  0.15283611  0.1880508  -0.01003913  0.07077491  0.09049974
   0.11146802  0.07242843  0.07021756  0.19768187  0.22019261  0.08203962
   0.16450611  0.01929733  0.13541692  0.15984125  0.09837367  0.2108967
   0.0686687  -0.00275792  0.10336707 -0.00424339  0.09023605  0.02066872
   0.19669938  0.04266861  0.09930554  0.18664847 -0.01583369  0.1581892
   0.15704662  0.05309741  0.03065216  0.12732607  0.17564958 -0.03814194
   0.04922302  0.15341565  0.16786875  0.07931116  0.13676186  0.13955548
   0.01534917  0.23463216  0.02581567  0.24053942 -0.000428   -0.00199031
   0.04724837  0.24849     0.09941928  0.04463654  0.14553347  0.04978011
   0.15955403  0.02096424  0.13710059  0.07100074  0.10019696 -0.07476284
   0.02495066 -0.03193521  0.04947691  0.03504065  0.12600516  0.12365846
   0.14030407  0.00850553  0.04867292  0.12928174  0.05072006  0.1317278
   0.02656375  0.1299573   0.03425869  0.25898683  0.09037434  0.06676348
   0.11315708  0.10961924  0.17728679  0.24745972  0.12530299  0.10403737
   0.08647327 -0.00113165  0.22541629  0.147095   -0.01079957 -0.01626674
  -0.03145257 -0.05975173  0.00283262 -0.05897952 -0.03340377 -0.01449696
  -0.09439798 -0.0333057  -0.01736468 -0.00236217 -0.0317577  -0.01604107
  -0.04077989 -0.01002266 -0.06167228 -0.03982435 -0.05364784 -0.09774268
  -0.05418209 -0.0426906  -0.02357299 -0.02583065 -0.03866307 -0.0269786
  -0.04445766 -0.03116026 -0.03514061 -0.03344355 -0.04933086 -0.02271054
  -0.05417532 -0.02936011 -0.05061884 -0.00671305 -0.02649147 -0.05095225
  -0.01766342 -0.03475462 -0.0886013  -0.02237326 -0.03414729 -0.04382457
  -0.02626496 -0.04257702 -0.02955806 -0.06502087 -0.05730619 -0.0278291
  -0.01427648 -0.01874483 -0.07283188 -0.04276152 -0.0289226  -0.01790006
  -0.02273022 -0.02264477 -0.12620448 -0.07630207 -0.01018995 -0.01353816
  -0.02442598 -0.06706545 -0.01088849 -0.04774106 -0.00708956 -0.01406472
  -0.03521708 -0.04254999 -0.06314997 -0.07681013 -0.02995431 -0.03882563
  -0.00374662 -0.0192016  -0.02110462 -0.08361891 -0.01675713 -0.06366006
  -0.00078446 -0.08128439 -0.00561996 -0.05932812 -0.04180263 -0.04133205
  -0.05359371 -0.03334173 -0.03583618 -0.04022294 -0.04333328 -0.03420054
  -0.0208062  -0.03365237 -0.0203878  -0.04043981 -0.05158    -0.05694595
  -0.04022561 -0.03522889  0.00555526  0.01393063 -0.0189247  -0.01692608
  -0.01723892 -0.01936408 -0.01882609  0.00593199  0.0201959   0.01618667
   0.00255004 -0.00384715  0.01440307  0.0034735  -0.00922531  0.00708514
  -0.0161252   0.01303005 -0.01194729 -0.02417611 -0.01603322  0.00553047
   0.01513118 -0.01765802  0.01392388  0.00406989 -0.01101095 -0.01255136
  -0.00891987  0.01061279 -0.01052129 -0.01151832 -0.01169142  0.00967603
  -0.01247596  0.01396149  0.01035984 -0.01124936  0.00693714  0.00741111
  -0.01235581 -0.01248367 -0.00656505  0.01918632 -0.01128027  0.01418994
  -0.00978263  0.01830904  0.01759382 -0.01029294  0.00470277 -0.01493142
  -0.01854368 -0.01405746  0.01328028 -0.0109596  -0.01712944 -0.00099757
   0.01356134 -0.01494497 -0.0095311  -0.01656989 -0.00705277  0.01782356
   0.00419548 -0.01712634 -0.00826485  0.00066026 -0.00510006 -0.01807485
   0.00530109  0.01722649  0.01205891 -0.01682445  0.01128331  0.01306408
  -0.00174024 -0.01204227  0.00744055  0.01401725 -0.01256632 -0.00778314
  -0.00702112 -0.01538697 -0.01574475 -0.02249232  0.01081199  0.01207099
   0.02011926 -0.01956325  0.00338822  0.00910672 -0.0199961   0.01190151
   0.00966232 -0.00868003  0.00797857  0.00870577  0.01633076  0.01539316]]
sequential/dense/kernel:0
(100, 1)
[[ 0.12093391]
 [ 0.07705597]
 [-0.09793352]
 [-0.06718552]
 [-0.04167543]
 [-0.0508116 ]
 [-0.05762219]
 [ 0.13420653]
 [ 0.06856851]
 [ 0.11869732]
 [ 0.15837893]
 [-0.05096821]
 [ 0.04340728]
 [ 0.10010991]
 [-0.1700557 ]
 [ 0.09120388]
 [-0.05947436]
 [ 0.09246742]
 [-0.09140472]
 [-0.06725246]
 [-0.05801335]
 [ 0.07217547]
 [ 0.04985779]
 [-0.1450516 ]
 [ 0.15183297]
 [ 0.05150167]
 [-0.13379936]
 [-0.10516441]
 [-0.11612187]
 [ 0.04814561]
 [-0.08690336]
 [-0.11276222]
 [-0.15288252]
 [ 0.19042787]
 [-0.11647015]
 [ 0.11310113]
 [ 0.13246213]
 [-0.05137489]
 [ 0.06192708]
 [ 0.1020602 ]
 [-0.0644638 ]
 [-0.04883345]
 [-0.12802444]
 [ 0.07307693]
 [-0.16355677]
 [ 0.09300817]
 [-0.18328626]
 [ 0.08103602]
 [ 0.05918254]
 [-0.18793435]
 [ 0.19155584]
 [-0.09260081]
 [-0.06275558]
 [-0.11602629]
 [ 0.18065996]
 [-0.21479976]
 [-0.13841097]
 [-0.17232253]
 [ 0.09020838]
 [-0.09595358]
 [-0.15912658]
 [-0.04835247]
 [-0.0617202 ]
 [ 0.06414554]
 [ 0.17239249]
 [-0.09117113]
 [-0.12818901]
 [ 0.06419482]
 [-0.17042917]
 [-0.0656298 ]
 [ 0.08480357]
 [ 0.07031449]
 [ 0.15389925]
 [-0.07470239]
 [ 0.07189407]
 [ 0.12689929]
 [-0.06538527]
 [-0.12322811]
 [ 0.05519499]
 [ 0.05924101]
 [-0.07219618]
 [-0.14289439]
 [-0.0783105 ]
 [-0.03850085]
 [-0.05876034]
 [-0.06541898]
 [ 0.14241163]
 [ 0.04449599]
 [ 0.07287176]
 [-0.0483022 ]
 [ 0.11458728]
 [ 0.12857883]
 [-0.21050476]
 [ 0.05538082]
 [ 0.11868454]
 [-0.10490645]
 [ 0.10931107]
 [ 0.09249723]
 [ 0.0452317 ]
 [ 0.18866774]]
sequential/dense/bias:0
(1,)
[0.22939067]
