sequential/simple_rnn/kernel:0
(5, 80)
[[-0.26189566  0.22419377 -0.14916171  0.1662791  -0.16023527 -0.01976758
   0.03258927  0.03940783 -0.1396422   0.05982812  0.10706117 -0.06875031
   0.16722327  0.20009112  0.08002672  0.01568363  0.15692748 -0.02385273
  -0.07880551  0.10655666 -0.03378232  0.19322315  0.17953251  0.147821
   0.15522313  0.07814188  0.0077677   0.18399447  0.01104487 -0.27998564
  -0.00524931  0.03851857  0.16038457  0.22447029 -0.04364342 -0.04725032
  -0.08087102 -0.11029162 -0.08341853  0.0195033  -0.02870767 -0.09075
  -0.1227739  -0.12207102 -0.18757123 -0.0327469  -0.21558712  0.15422714
   0.1798802  -0.2538587  -0.13814023  0.03607268  0.08135053  0.17224492
  -0.00874329 -0.08591377  0.07643607 -0.0208622   0.1420619  -0.2371437
   0.26644278  0.09894753  0.10005108 -0.12791127  0.16609506 -0.18581094
   0.2346835  -0.16239713  0.25151965 -0.06932918  0.18784922 -0.12167969
  -0.08714107  0.21886517 -0.1273355   0.26065728  0.09556983  0.09170465
  -0.14204161  0.18977906]
 [ 0.1709783  -0.21367908  0.01888422 -0.2500393   0.12199959 -0.12987275
  -0.09110322 -0.14240146  0.13505827  0.19515634 -0.16871113 -0.01097965
  -0.13579102 -0.09702558 -0.04302383 -0.12718679  0.21096087 -0.03456863
  -0.16557986 -0.09021392 -0.03495272 -0.11723156 -0.19468062 -0.2592295
  -0.15232974  0.1330377   0.0296907   0.0388832  -0.16462606 -0.10413824
  -0.14100282 -0.00071892 -0.11179918  0.04196556  0.14322291 -0.10136997
  -0.1275274   0.24489354 -0.0589642   0.0860457   0.17000125  0.00300451
   0.09326835  0.23465659  0.06262882 -0.06375605  0.10031668  0.16950473
   0.02200749  0.07708787 -0.05693364 -0.13818727 -0.00123247  0.1355923
   0.10425555 -0.19960132  0.23490399  0.08074677 -0.07171711  0.10615311
  -0.06310451 -0.07049272 -0.19386028  0.03086368 -0.1163813   0.05667783
  -0.13548568  0.03762174  0.21708754  0.03039778  0.06894616  0.09726316
  -0.1472185  -0.19817245  0.01228754 -0.1784433  -0.01090263 -0.05707268
  -0.11037099  0.07737178]
 [ 0.21532112  0.04506455 -0.10534742  0.19090524 -0.03083499 -0.17693102
  -0.05692887 -0.14931278 -0.03187984  0.0927809  -0.07750752 -0.0623016
  -0.00472272  0.21897054 -0.02943237  0.19050077  0.08325244  0.17788619
   0.12802543 -0.04108614 -0.07767733  0.10935524 -0.09361257  0.02772804
  -0.09435064 -0.03172497  0.05227622 -0.00468002  0.08268796  0.1286301
  -0.18213002  0.03131759 -0.06769928  0.05026418 -0.07603939 -0.09012391
   0.24517319 -0.11839582  0.12875591  0.07547162 -0.00221193  0.02950458
  -0.02273176 -0.18690576 -0.16158271 -0.04697538  0.14214802 -0.23698322
   0.16325685  0.19306186  0.00470188  0.01329766  0.16652757 -0.19412284
  -0.05223799  0.20585561 -0.03413715 -0.14701794  0.17424099 -0.04581668
   0.01214042  0.12015217  0.03287302  0.01093936 -0.02441553  0.18034415
  -0.09978452  0.03354164 -0.20269711  0.1006453  -0.07080888 -0.07569694
   0.14271423 -0.00390649 -0.05326829  0.08113135  0.14244029  0.0455866
   0.10397613 -0.18944257]
 [-0.00690267 -0.0276645  -0.04695652  0.00230988  0.10217208  0.14700764
  -0.11651304  0.10764504  0.02553155 -0.16214909  0.09589002 -0.01536331
   0.02575648 -0.1573071   0.02269831  0.05537882 -0.26629788 -0.17400068
   0.10845055 -0.12789297  0.10453176  0.04687847 -0.06723988  0.03528179
   0.19466378 -0.03859189  0.11904328  0.16553675 -0.04404103  0.14224637
  -0.04039128  0.09731326  0.01615781 -0.24394305 -0.02920931 -0.0765399
  -0.1409458   0.18486409 -0.09408826 -0.07282763  0.17899388  0.150867
  -0.10288976  0.08824961  0.07217008  0.13039604 -0.08505391  0.04141555
  -0.02847826  0.23383375 -0.1590039  -0.07118211  0.13378066  0.01531077
  -0.05457175 -0.03001424 -0.22717166  0.0100896   0.00456657  0.21542886
  -0.05061374  0.12632994 -0.11830658  0.04359578  0.01894811 -0.1309547
  -0.106724   -0.07822262 -0.11085812  0.0622879   0.11594363  0.08833873
   0.00933049 -0.08608159 -0.07738732 -0.09447446 -0.00651316 -0.11040214
  -0.07145121  0.13042316]
 [-0.05363631  0.11999575  0.15495002 -0.10760869  0.14205696  0.07129217
   0.08957256  0.20342335  0.01822591 -0.17785132 -0.14801425  0.01110414
   0.0986511  -0.18981844  0.10555328 -0.10894553 -0.16312137 -0.17342982
  -0.16202238  0.08358038  0.03608317 -0.03967761  0.18624224  0.07877167
  -0.03986092  0.12716676  0.11182486 -0.2432091  -0.10893019  0.16616647
   0.21903169  0.09880011  0.12106586 -0.04204744  0.09838084  0.0310089
   0.09615559 -0.16635971 -0.02322746  0.11478588  0.06539749  0.09903588
   0.03957492 -0.10668904  0.18220824  0.18710361  0.07013637 -0.16107531
  -0.04046907 -0.24817215 -0.03834489 -0.09879245 -0.20133246 -0.00122448
   0.06950267  0.13205408 -0.02893428 -0.01882332 -0.12340087  0.10317735
  -0.16089693  0.03057761  0.07829246 -0.10242887 -0.05980422 -0.12388819
  -0.06571586 -0.03139402 -0.10742839 -0.13898838 -0.11168251 -0.10392455
   0.00983766 -0.14965105 -0.01681666 -0.08201722 -0.07463677  0.07290705
   0.11754358 -0.07402614]]
sequential/simple_rnn/recurrent_kernel:0
(80, 80)
[[ 0.04595777  0.01093387 -0.11257437 ... -0.08110604 -0.05533756
  -0.03642615]
 [ 0.03871215 -0.04276764 -0.1600488  ... -0.20200533 -0.17809007
   0.05088089]
 [ 0.04586076  0.02571877  0.0706267  ...  0.1328061   0.10428951
   0.17817226]
 ...
 [ 0.10577403 -0.1254304   0.20776698 ... -0.233715   -0.0967951
   0.07400427]
 [ 0.06316156  0.09488456  0.06980539 ...  0.18530191  0.0832682
  -0.13690242]
 [ 0.03188024  0.04626342  0.03420281 ...  0.04907446  0.0578648
  -0.06336267]]
sequential/simple_rnn/bias:0
(80,)
[-0.0063532  -0.04891631  0.04301171 -0.02151676 -0.03774264  0.01785271
  0.02597184 -0.01559631  0.00781444 -0.00764856  0.04920955  0.04223369
 -0.04919615 -0.00254023 -0.05037864 -0.00933038 -0.01762919  0.0469527
  0.05541189 -0.01227162 -0.00729793 -0.05454505 -0.02230047 -0.02059036
 -0.00521383 -0.0738693  -0.09188592 -0.02037992  0.0555753  -0.01578033
  0.0341622  -0.07931166 -0.04685108 -0.02226337 -0.02390428  0.07016794
  0.01892855  0.01490064  0.03691539 -0.07257167 -0.09235233 -0.04539331
  0.04674264  0.04453477  0.01565787 -0.05136514  0.00627439  0.00717785
 -0.08105341  0.0093665   0.10042867  0.0748314  -0.02231996 -0.04639468
 -0.00445267 -0.00094382 -0.01331552  0.03751763 -0.02964831 -0.01790182
 -0.00520959 -0.08128066  0.00656001  0.03757742 -0.02037186  0.06930158
  0.03620405  0.06900463 -0.01579019  0.00221968 -0.05040296  0.05045357
  0.02721112  0.03700448  0.06496063 -0.00537235 -0.03786246 -0.01397512
  0.03376099 -0.03248814]
sequential/simple_rnn_1/kernel:0
(80, 100)
[[ 0.07151045 -0.09831288 -0.12654753 ... -0.13467702  0.07653639
   0.01674259]
 [-0.05480184  0.07702821 -0.00279105 ...  0.1232144  -0.03547256
   0.05235067]
 [-0.11282501  0.05982446  0.11459536 ...  0.02699069  0.04925821
  -0.18828504]
 ...
 [-0.01349922 -0.13641651  0.12846184 ... -0.04365059  0.06512556
   0.12800822]
 [ 0.01833601 -0.04627925 -0.17855437 ...  0.07118878  0.08938758
  -0.01541927]
 [ 0.00368638 -0.12497661 -0.06428819 ...  0.10646996 -0.06298265
  -0.13927813]]
sequential/simple_rnn_1/recurrent_kernel:0
(100, 100)
[[ 0.10364851  0.1447463   0.13506997 ...  0.09140878  0.10565764
  -0.08570983]
 [ 0.07478306 -0.06316248 -0.10302684 ...  0.13060708  0.04361063
  -0.06509756]
 [-0.05675842  0.10899962  0.05014455 ... -0.00073222  0.0691188
   0.03094414]
 ...
 [-0.01642095  0.09025633  0.05298547 ... -0.01954254  0.0496582
   0.03842799]
 [ 0.09051032 -0.02336209 -0.08986864 ...  0.02798951 -0.0529655
  -0.04683905]
 [-0.04508024 -0.03209458  0.05115926 ...  0.04253618  0.1143561
   0.0895979 ]]
sequential/simple_rnn_1/bias:0
(100,)
[-0.02050291 -0.014447   -0.00750492  0.00397566  0.00529655 -0.01074414
 -0.00970597 -0.02809297  0.00735504  0.01502165 -0.0081672  -0.02575739
  0.01365093 -0.00926526  0.00206612  0.01424707 -0.0053703  -0.00389537
  0.00500468 -0.0102561  -0.00412456 -0.0223507  -0.03268532 -0.01345696
 -0.01339128 -0.00795357 -0.02155258  0.00778328  0.00281337  0.01511893
  0.0128303  -0.02719086  0.00189684 -0.00984296  0.00242701 -0.02254657
 -0.02748164  0.01747493 -0.00481705 -0.00837248  0.01137984  0.00777756
 -0.00556986  0.01870633 -0.01271482  0.01747428  0.01523043 -0.00303203
  0.00266629  0.01848348  0.03955386  0.04074495  0.02982603 -0.01727492
 -0.00105968  0.00615177 -0.0032202  -0.0132159   0.01184805 -0.01678768
 -0.00545408  0.00642169  0.01212365 -0.00781434  0.00477392 -0.00637701
 -0.00382965  0.02789295  0.02217517 -0.02228694  0.01218214  0.01161581
  0.01159999  0.00719643  0.00324842 -0.02067775  0.01051056  0.01869816
  0.01485302  0.0166917   0.03003557  0.01277819 -0.01226117 -0.00995327
  0.01321922 -0.00429267  0.00188173 -0.02316669 -0.00081734 -0.00234753
  0.01110267  0.00747896 -0.01738136  0.00867857  0.01612797  0.01110423
 -0.01455264 -0.01281646  0.00340846  0.00496969]
sequential/dense/kernel:0
(100, 1)
[[-0.06215388]
 [-0.09404099]
 [-0.03203211]
 [ 0.03153826]
 [ 0.07183936]
 [-0.0244134 ]
 [-0.08558272]
 [-0.09336518]
 [ 0.16181986]
 [ 0.03379143]
 [-0.05815652]
 [-0.0880603 ]
 [ 0.0312107 ]
 [-0.13128342]
 [-0.06208418]
 [ 0.06685313]
 [ 0.06013396]
 [-0.01973668]
 [ 0.15345989]
 [-0.15602218]
 [-0.03954523]
 [-0.08443194]
 [-0.04268447]
 [-0.03354075]
 [-0.09720658]
 [-0.0204405 ]
 [-0.06234169]
 [-0.1051828 ]
 [-0.09173816]
 [ 0.06469892]
 [ 0.14829051]
 [-0.10144968]
 [-0.12110098]
 [-0.01624759]
 [ 0.05004184]
 [-0.13125604]
 [-0.07628845]
 [ 0.07605723]
 [-0.03563198]
 [-0.13241804]
 [ 0.03481044]
 [-0.17603716]
 [ 0.02043917]
 [ 0.09649971]
 [-0.08676099]
 [ 0.02873541]
 [ 0.06277862]
 [-0.03070172]
 [-0.0978528 ]
 [ 0.02686686]
 [ 0.03559657]
 [ 0.07768521]
 [ 0.12543117]
 [-0.03584376]
 [ 0.03675699]
 [ 0.14475656]
 [-0.16431496]
 [-0.1081459 ]
 [ 0.04724701]
 [-0.03427605]
 [-0.1262383 ]
 [-0.0161703 ]
 [ 0.07177242]
 [-0.15459125]
 [ 0.1160693 ]
 [-0.1373315 ]
 [-0.13633919]
 [ 0.01707072]
 [ 0.01838087]
 [-0.12036194]
 [ 0.08147372]
 [ 0.14298572]
 [ 0.12121946]
 [ 0.10199623]
 [-0.04690238]
 [-0.10335586]
 [ 0.03989105]
 [ 0.11483337]
 [ 0.03028411]
 [ 0.04518852]
 [ 0.11922158]
 [ 0.10223123]
 [-0.02807794]
 [-0.12564425]
 [ 0.0402488 ]
 [ 0.05631023]
 [-0.11858156]
 [-0.0631098 ]
 [-0.05674082]
 [ 0.02819688]
 [ 0.14758871]
 [ 0.1391094 ]
 [-0.02657746]
 [ 0.05903463]
 [ 0.01872053]
 [ 0.03325552]
 [-0.12565205]
 [-0.08834396]
 [ 0.02297358]
 [ 0.15379348]]
sequential/dense/bias:0
(1,)
[0.20392628]
