sequential/simple_rnn/kernel:0
(5, 80)
[[ 2.50853617e-02 -1.27035290e-01  8.14347714e-02 -1.85103238e-01
   4.60992148e-03  1.87312439e-01  5.86521886e-02 -1.95933983e-01
   1.85447395e-01  1.14452325e-01 -1.20481670e-01  9.81318802e-02
  -1.71390489e-01 -1.08178921e-01 -1.36502549e-01 -1.31582424e-01
  -9.54790935e-02  1.85737297e-01  1.29438803e-01 -1.28231972e-01
  -1.07230827e-01 -1.03527777e-01 -1.24239840e-01  2.87448913e-01
  -1.62572220e-01 -2.77215485e-02  2.42680296e-01  2.40034238e-01
  -1.45777196e-01 -2.58435041e-01  1.04224533e-01  1.73376799e-01
   8.37613940e-02 -2.08009571e-01  5.44539243e-02 -2.42366686e-01
   1.32491603e-01 -1.91097468e-01 -1.50783256e-01  1.32865474e-01
   3.97016630e-02  2.03905359e-01  2.30731815e-01 -2.07770139e-01
   9.16646793e-02 -1.09227531e-01  5.01404889e-02 -7.63628334e-02
  -9.35442448e-02 -5.57895787e-02  2.21526235e-01  1.66524842e-01
  -5.50324190e-03 -1.21325180e-01  1.67626411e-01  1.74321547e-01
  -2.26906121e-01 -6.97899982e-02 -1.65339306e-01 -1.65988103e-01
  -9.02221948e-02 -4.09830138e-02 -6.60877675e-02 -1.71873942e-01
  -5.69871515e-02  4.14764881e-03 -2.31361687e-01 -8.59949067e-02
  -1.44581884e-01 -6.99018463e-02 -2.21447814e-02  1.14235416e-01
   6.24601729e-03  1.97437748e-01 -8.02990887e-03  1.52945975e-02
   1.07601946e-02  1.63252532e-01  5.33122011e-02 -2.02060208e-01]
 [ 1.31012872e-01  2.12732345e-01  1.48649618e-01 -1.45531118e-01
  -2.27560803e-01 -1.75806105e-01  1.02837794e-01 -2.00337842e-01
   5.32282516e-02 -9.58818570e-02 -2.23000169e-01 -2.09223591e-02
   1.55929491e-01  4.59541306e-02 -2.96134185e-02 -1.18794374e-01
  -1.99674845e-01 -2.46718228e-01  6.95129633e-02 -1.86565056e-01
  -1.19180657e-01  2.27542788e-01 -4.23147492e-02 -1.02985732e-01
  -1.64100662e-01  1.16665602e-01 -1.58839226e-01  8.45629126e-02
  -8.22163895e-02  1.61112919e-01 -4.63779718e-02  9.54421759e-02
   1.31983966e-01 -1.62419319e-01  9.05396491e-02  1.15331113e-01
   9.63811576e-02  1.33396432e-01  9.98623669e-02 -1.44953886e-02
  -9.50138271e-02  1.36999607e-01 -2.66146120e-02 -1.00875691e-01
  -1.01428274e-02  2.81614512e-01  1.02884807e-01  1.75543427e-01
  -1.44053213e-02 -1.08138584e-01  9.53764766e-02 -1.71716869e-01
  -1.44182906e-01  9.84185785e-02 -1.36787565e-02 -1.64593801e-01
   1.33076921e-01 -1.18513860e-01  2.29135349e-01  5.34332804e-02
  -1.91930011e-01 -1.34503946e-01  1.42350867e-01  1.12479992e-01
  -4.11462821e-02 -1.75109193e-01  1.59522787e-01 -2.00931132e-01
   5.68422340e-02  6.82864264e-02 -2.41334081e-01  1.35308474e-01
   9.17335600e-03 -2.96350718e-02  7.93645307e-02  6.47315979e-02
  -2.87400391e-02 -4.96903136e-02 -2.12223902e-01 -2.08185222e-02]
 [ 7.33340085e-02 -1.53351367e-01 -3.19292545e-02  3.77285779e-02
   2.19737321e-01 -3.90204564e-02 -5.91759458e-02 -1.92418903e-01
  -3.94436754e-02  1.69982895e-01  6.48762435e-02 -5.76762557e-02
  -1.09806040e-03  1.02348819e-01  1.44486176e-02  5.78458467e-03
   6.56264499e-02 -1.63851008e-01  1.66406527e-01  1.61224499e-01
   1.50894657e-01 -1.55005544e-01  4.41985950e-02 -4.37811529e-03
   1.51528716e-01  7.15856627e-03 -2.32642964e-02 -2.02478878e-02
   2.66755939e-01 -2.30151594e-01  1.51093304e-01  1.39091417e-01
  -6.66762814e-02 -1.41438365e-01  8.26580971e-02 -1.04618959e-01
   9.89362523e-02  1.71968520e-01 -1.79905027e-01 -2.10901499e-01
  -1.05424829e-01 -4.48137298e-02 -7.79428035e-02 -1.83742829e-02
   3.10271420e-02 -1.57019839e-01  3.65025140e-02 -2.75195669e-02
   2.59138625e-02 -8.25828538e-05 -5.13504818e-02 -3.73566933e-02
  -1.83131352e-01  4.81750518e-02 -1.05825409e-01 -1.27499446e-01
   1.56382263e-01  1.89736381e-01 -1.72301278e-01 -5.33085726e-02
  -3.50437015e-02 -1.28951460e-01 -1.97153781e-02  1.28403336e-01
  -1.62147179e-01 -2.18075234e-02 -1.13468044e-01  1.41855747e-01
   9.90185440e-02  6.34035543e-02 -7.82271177e-02 -5.84444255e-02
   1.43079892e-01  1.07351840e-01  1.92978740e-01  1.72559381e-01
   1.80579275e-01  2.66722962e-02  8.69466066e-02  1.09901018e-01]
 [ 6.76236078e-02 -1.55137762e-01 -1.87349781e-01  2.66901284e-01
   1.76204294e-01 -4.16595526e-02 -1.03441946e-01  2.33923227e-01
   1.46519005e-01  1.97100326e-01  9.68125090e-02 -6.11551479e-02
  -2.15399742e-01  2.18731701e-01  3.25662806e-03  1.62251890e-01
   1.95466429e-01  3.19924508e-03 -2.52520740e-01 -1.32686749e-01
   8.69860128e-02 -3.87527794e-02  5.59429787e-02 -2.01769039e-01
   1.35095879e-01  1.45077571e-01  6.59527704e-02 -1.70201108e-01
  -1.38712168e-01  2.18457550e-01 -1.80462778e-01 -3.31231989e-02
  -1.96480617e-01  2.42113799e-01 -4.62023132e-02  1.56483367e-01
  -5.92811331e-02  1.12190448e-01 -1.48150250e-01  4.34057899e-02
  -4.03743945e-02 -2.08561465e-01 -6.03849515e-02 -8.88984427e-02
  -1.03531361e-01 -1.69192702e-01 -7.56454915e-02 -1.48831233e-01
  -2.01527327e-02 -1.95822418e-01 -1.04524858e-01  2.13444412e-01
   7.19711110e-02 -1.74020708e-01  6.86813220e-02 -1.27717882e-01
  -1.61630645e-01 -4.27510180e-02 -2.70977020e-02  1.08954966e-01
   1.08580641e-01 -9.00744051e-02  5.52755743e-02  7.98244625e-02
  -8.63670781e-02  7.27043003e-02  2.21946493e-01  2.57156610e-01
   2.21940596e-02  1.19107485e-01  1.66176781e-01 -2.34699696e-01
  -2.00073734e-01 -5.72910020e-03 -9.89803150e-02  3.18642193e-03
   1.62432138e-02  4.87225279e-02  1.02232970e-01  5.24203070e-02]
 [-2.37560064e-01  9.52164903e-02 -3.59267108e-02 -1.52287483e-01
  -2.13349402e-01 -5.73337451e-02 -2.76326407e-02  1.22915335e-01
  -1.36968538e-01 -1.35795981e-01  1.20567136e-01  1.14950374e-01
   1.19371705e-01 -2.32146353e-01  1.13715880e-01 -3.45087945e-02
   1.67148232e-01  2.24103063e-01 -8.36406946e-02  7.44123608e-02
   5.29045984e-02  4.07139808e-02 -6.89394176e-02 -2.81044319e-02
  -9.12683830e-02 -1.07059941e-01 -1.73346862e-01 -1.36301816e-01
  -1.71685398e-01  1.71577018e-02 -1.80957001e-02 -6.28325939e-02
  -1.48094252e-01  1.26441911e-01 -9.06244442e-02  7.07733259e-02
  -4.27579582e-02 -8.14091638e-02  1.53431833e-01  1.38997272e-01
  -3.81619520e-02 -8.36537257e-02 -7.26786554e-02  2.29991049e-01
   1.26364052e-01 -5.80830351e-02  1.14423275e-01 -1.69536859e-01
  -7.52827898e-02  9.06115025e-02  1.22519195e-01 -1.35211796e-01
  -2.02598739e-02 -4.88933101e-02  7.61132911e-02  1.99029148e-01
   6.64231032e-02  1.48396567e-01 -1.18031397e-01  1.83339342e-01
  -5.21187149e-02  1.11453131e-01  1.44692743e-02 -9.73163918e-02
   9.20508951e-02 -1.23642094e-01 -1.58778690e-02 -1.62367404e-01
   2.95678824e-02 -6.25083074e-02  2.06498653e-01  4.75219786e-02
   1.18713416e-01 -1.04472473e-01 -1.68314531e-01 -6.10972084e-02
  -1.60880163e-01 -2.00244412e-01  1.05316862e-01 -3.68681215e-02]]
sequential/simple_rnn/recurrent_kernel:0
(80, 80)
[[-0.04928865  0.0968845  -0.08168522 ... -0.07150418  0.18258362
   0.01197969]
 [ 0.03964988  0.18536043 -0.10161913 ... -0.07106637  0.03391317
  -0.1084197 ]
 [-0.09679852 -0.03424785  0.08569326 ... -0.20203914 -0.24096599
   0.01552096]
 ...
 [-0.05307835 -0.02577484  0.0539556  ...  0.09218493 -0.02098413
   0.01721865]
 [-0.11739714 -0.00102938  0.04348712 ...  0.06499173 -0.0913436
  -0.07363895]
 [ 0.10408632  0.01737423 -0.06030433 ... -0.09951943  0.07920628
   0.09943694]]
sequential/simple_rnn/bias:0
(80,)
[-0.01049739  0.04271183  0.00293405  0.0646192   0.00319525  0.03786588
 -0.00451221  0.04362574 -0.04769789 -0.06375883  0.01423715 -0.03179042
  0.0285333   0.00885464  0.00728839  0.04072981 -0.03933888 -0.02173844
 -0.00120039  0.05368425 -0.01166422  0.00596815  0.03910041 -0.01140521
  0.03103784 -0.03138083  0.00642535 -0.02049307  0.07549634  0.01752042
 -0.00897319 -0.08145082  0.04359652  0.06139175 -0.03301629  0.00679286
 -0.06803805 -0.02946482  0.03940826 -0.03546118  0.06018504 -0.00590064
 -0.01533695  0.04072083 -0.04218059  0.06050198 -0.05568193  0.07525479
  0.0600909   0.05081899 -0.09279041 -0.00853691  0.06865815  0.06312051
 -0.06261265  0.00123825  0.0139667  -0.0304852   0.07090945 -0.02399252
  0.06913318  0.0819698  -0.01280808 -0.00575821  0.06456547  0.06421243
  0.01519669  0.02901639 -0.00528503 -0.02311263 -0.01081786  0.0012882
 -0.01390743 -0.05135569  0.02003662 -0.05007555 -0.0051883   0.00128358
 -0.0380812   0.03954176]
sequential/simple_rnn_1/kernel:0
(80, 100)
[[-0.11138996 -0.13270637 -0.09559083 ...  0.0800152   0.06230826
   0.16267762]
 [ 0.05093023  0.11429224  0.08281785 ...  0.01812866 -0.10330173
   0.12191529]
 [ 0.18460415 -0.1768492  -0.10448716 ...  0.14462034 -0.0766278
   0.12903021]
 ...
 [-0.07589941  0.07027476 -0.08510042 ... -0.06329419 -0.05609393
   0.06329173]
 [ 0.17602581 -0.14825244  0.16849513 ...  0.0980652  -0.04981924
   0.12300146]
 [ 0.08184803  0.05152988  0.0879776  ...  0.00129359 -0.0266899
  -0.05889452]]
sequential/simple_rnn_1/recurrent_kernel:0
(100, 100)
[[-0.01268062  0.11890436 -0.08292235 ... -0.15127924 -0.09691712
  -0.00395578]
 [ 0.03023136 -0.00380262  0.10448477 ...  0.11609726 -0.1057661
   0.07888137]
 [-0.06161926  0.10532173 -0.00299075 ...  0.17154644 -0.06652848
  -0.11915666]
 ...
 [ 0.03614218  0.00558805 -0.01658977 ... -0.05771483  0.09515811
  -0.13337964]
 [ 0.09523759 -0.02762826 -0.01719401 ... -0.01990995 -0.13292912
   0.02402253]
 [-0.12535012 -0.02773067  0.05790075 ... -0.10007583  0.01753577
   0.01609255]]
sequential/simple_rnn_1/bias:0
(100,)
[ 0.01288978 -0.01550078  0.01073059 -0.02311116 -0.01315544 -0.00756598
  0.0219024   0.00936834 -0.02479947 -0.01490243  0.0037001  -0.01695985
 -0.01277975  0.00222235 -0.01873777  0.02223542 -0.00194238 -0.01177363
 -0.01155731  0.0265842   0.01381007  0.01302268  0.03085807 -0.00117941
 -0.00070873 -0.00609473  0.00889455 -0.00150151  0.01518064  0.00654733
  0.02658398  0.00359392  0.0187423  -0.00370569 -0.00660768 -0.00145704
  0.00437178 -0.00094664  0.01162749  0.02692256 -0.01286719  0.00090145
 -0.02046557 -0.00750342 -0.0218158   0.00401995 -0.00868264  0.00499333
 -0.02876521  0.00691073  0.01058597  0.00559729  0.01125926  0.02315783
  0.01085366  0.01458952 -0.02252777  0.02444988 -0.01092721 -0.02309974
  0.02087526  0.01558117 -0.02653571 -0.01045972 -0.00906064  0.00095152
  0.00896945  0.01809221  0.00192884  0.01192681  0.01670464 -0.01624929
  0.01705579 -0.02063097 -0.02298948 -0.00314289 -0.02966242 -0.02965906
 -0.00089917 -0.00787385 -0.01611323  0.01453757  0.00451814 -0.00725225
 -0.00094282 -0.01495898  0.01004981 -0.02185891  0.00881914  0.00492126
 -0.02612755 -0.00649207  0.01946295 -0.01058085  0.00288651 -0.00859824
  0.00592546  0.00715799 -0.00520731  0.01890834]
sequential/dense/kernel:0
(100, 1)
[[ 0.0698671 ]
 [-0.04825069]
 [ 0.03851054]
 [-0.03330076]
 [-0.03169281]
 [-0.08869064]
 [ 0.04431599]
 [ 0.15161712]
 [-0.06992372]
 [-0.09692455]
 [-0.01473864]
 [-0.0443051 ]
 [-0.01101431]
 [-0.08539628]
 [-0.10277109]
 [ 0.04134592]
 [-0.03971256]
 [-0.0202554 ]
 [-0.07246423]
 [ 0.06131817]
 [-0.1439314 ]
 [ 0.07491072]
 [ 0.04406568]
 [ 0.06353295]
 [ 0.03876111]
 [-0.07840949]
 [ 0.05247972]
 [ 0.12946776]
 [ 0.06642999]
 [ 0.08181535]
 [ 0.10641685]
 [-0.08877634]
 [ 0.03116262]
 [-0.04552792]
 [-0.07436303]
 [-0.04355812]
 [-0.04457527]
 [-0.02392618]
 [ 0.09810542]
 [ 0.09324924]
 [ 0.07098962]
 [ 0.09208217]
 [-0.07179158]
 [ 0.02206617]
 [-0.05158279]
 [ 0.14270084]
 [-0.07905338]
 [-0.05298802]
 [-0.11539304]
 [ 0.01833768]
 [-0.01699134]
 [ 0.05677186]
 [ 0.07947604]
 [ 0.09635329]
 [ 0.08480162]
 [ 0.02829113]
 [ 0.07608463]
 [ 0.04144737]
 [-0.06247993]
 [-0.10504741]
 [ 0.05050691]
 [ 0.04715813]
 [-0.05753073]
 [-0.03738094]
 [-0.05754152]
 [-0.07290296]
 [ 0.10378763]
 [ 0.08655802]
 [ 0.02209497]
 [ 0.09304579]
 [ 0.07699399]
 [-0.03587081]
 [ 0.10649314]
 [-0.07404033]
 [-0.07765   ]
 [-0.03436017]
 [-0.03634109]
 [-0.047595  ]
 [-0.0788002 ]
 [-0.09362265]
 [-0.14400011]
 [ 0.05915475]
 [-0.0485335 ]
 [-0.0441984 ]
 [ 0.08509634]
 [-0.05152309]
 [ 0.05931673]
 [-0.04371728]
 [ 0.03889494]
 [-0.12811896]
 [-0.04892345]
 [-0.06860484]
 [ 0.03152327]
 [-0.07862978]
 [ 0.05079443]
 [-0.10396073]
 [ 0.0531672 ]
 [ 0.04510047]
 [-0.06338605]
 [ 0.08965751]]
sequential/dense/bias:0
(1,)
[0.23784608]
